nep4 3 Ag Cr Se 
cutoff 8 6 128 51
n_max 8 8
basis_size 10 10
l_max 4 2 0
ANN 50 0
  2.8333056e-03
  5.6779659e-03
  1.1088377e-03
  3.6085166e-02
  7.9615973e-03
  1.0546191e-02
  2.3852789e-01
  7.7114515e-03
 -1.1410633e-02
 -4.6224505e-04
  1.8940827e-02
  4.1058743e-03
 -3.4569921e-03
  6.4533688e-03
  2.6116430e-04
  3.3072113e-06
 -3.4684860e-03
  1.8023271e-03
  2.8218743e-03
  2.3957081e-03
 -3.7741340e-03
 -1.1968026e-03
 -1.2895430e-02
  9.7444328e-03
 -5.0233169e-03
  8.5506383e-03
  6.9427741e-04
 -1.4300513e-02
  3.5056164e-03
 -1.5860224e-04
  2.1745024e+00
  2.4671950e-03
  1.6084845e-03
 -4.0994687e-03
  4.0642023e-03
  2.8857433e-03
  1.5506501e-03
 -1.7830454e-03
  9.8852869e-03
 -4.3206904e-03
  2.4881654e-03
 -1.6317202e-03
 -3.1740423e-03
 -1.2722582e-02
  3.6376489e-03
 -1.5114046e-02
  9.8649028e-04
  4.0779137e-03
 -6.5705087e-03
  7.2671985e-03
  6.9631026e-03
  2.8663657e-03
 -7.3144067e-04
 -5.2745398e-03
  1.3347653e-01
 -2.1686700e-01
  1.0349927e-02
  2.5699595e-01
  5.7694390e-02
 -8.3374634e-02
  5.9020985e-02
 -2.7935946e-02
 -4.1332817e-01
  2.2273043e-02
 -2.0586831e-02
 -1.1153789e-02
 -1.7245213e-02
  1.5209971e-01
 -6.8655558e-02
 -2.9423174e-02
 -5.5888300e-03
  1.9510470e-01
  3.1635165e-02
 -3.8109709e-02
  1.2737705e-01
 -3.9429571e-02
  3.3411607e-02
 -2.6202556e-01
 -3.0313566e-02
  6.6146269e-02
 -4.8765931e-02
 -3.2616161e-02
  3.8189065e-02
  5.7546340e-02
  9.3476614e-03
 -2.2672389e-02
 -7.3400825e-01
 -1.1217090e-02
  1.8951183e-02
  1.9842196e-02
  2.9957205e-02
  1.0911580e-01
 -1.5276731e-02
  5.6621522e-02
 -7.2132680e-04
  4.5308266e-02
 -4.5758907e-02
 -1.4257395e-02
 -1.3378637e-01
 -2.9071826e-03
 -2.3007311e-02
  2.0230047e-02
  2.1067651e-02
  4.8100047e-02
 -4.7712859e-02
  2.5558893e-02
  1.7215843e+00
 -1.9286801e-01
 -1.8665850e-02
 -1.2190290e-01
 -9.1647886e-02
 -2.8631422e-01
 -5.0942950e-02
 -4.5995626e-01
  2.2150686e-01
 -2.5269672e-01
  3.2066855e-01
 -1.5204471e-01
  9.2502283e-03
 -1.0487296e-02
 -1.4921694e-02
 -7.5797312e-02
  4.0973265e-02
 -9.1189317e-02
 -2.6263958e-02
 -2.9676259e-02
  1.1113192e-02
  7.5959280e-02
 -8.6203203e-02
  8.7396912e-03
  1.1857738e-01
  3.4752004e-02
  2.6006588e-01
 -1.9851571e-01
  4.3360673e-02
 -8.3138093e-02
 -1.4919220e-01
 -9.0291202e-02
 -3.0577416e-02
 -6.8928882e-02
 -1.3452634e-01
 -1.9276530e-02
 -3.1489778e-02
 -1.2860043e-01
 -5.4468907e-02
 -1.1229252e-02
 -1.0912406e-01
  1.8859711e-02
  6.2557913e-02
 -1.0446906e-01
 -6.3824147e-02
 -1.1474634e-02
  1.9329503e-01
  6.5738410e-02
  8.4821261e-02
 -2.4284359e-02
  6.3834788e-04
 -1.1806557e-01
  2.8371245e-02
  8.2427701e-03
 -4.0306862e-02
  6.3374870e-02
 -1.6363144e-01
 -8.3532125e-01
 -1.2820977e-01
  3.3965850e-01
 -2.6239255e-02
  1.4738725e-01
  2.5093332e-01
  9.3558021e-02
  1.2570050e-01
 -3.9924756e-02
  1.3206444e-02
 -3.0075600e-02
 -1.0178026e-02
 -1.0141816e-01
  3.1481374e-02
 -1.0612034e-02
 -4.6756733e-02
 -6.5706462e-02
 -2.2587307e-02
  1.7945442e-03
 -1.6205739e-02
  5.1161971e-02
  3.2469664e-02
  8.6464234e-02
  9.9641941e-02
 -1.1935254e-01
  1.8326879e-01
 -2.8724257e-02
 -8.6037785e-02
 -4.4374000e-02
 -5.3055093e-02
 -8.6800121e-02
 -1.0718907e-01
 -1.7357310e-02
 -4.3194212e-02
 -4.5231257e-02
 -4.0768519e-02
 -3.9053205e-02
 -8.3224818e-02
  2.5147429e-02
 -6.1119441e-03
  4.0574934e-02
 -3.9393201e-02
 -2.1423016e-02
 -3.5984505e-02
  2.9480934e-02
  4.8490878e-02
 -2.7118603e-02
  1.9361841e-02
 -9.1678947e-02
  3.0878475e-02
 -6.3581471e-03
 -2.1118507e-02
  2.6877217e-02
  5.6089452e-03
  1.1149434e-02
  3.8623020e-02
  3.0195877e-02
  7.0256372e-03
 -2.2377215e-02
 -1.2265924e-02
 -9.0956659e-04
 -6.6596933e-02
  1.2805565e-02
 -1.0707476e-02
 -9.8035950e-03
 -1.3624484e-02
  2.3590662e-03
  6.1069494e-03
  2.3669295e-02
  4.6421192e-03
  4.9167583e-03
  1.1634381e-02
 -1.6961040e-02
  6.6619527e-01
 -9.8639610e-04
  5.0448403e-02
  1.7630376e-02
 -1.5650377e-02
  4.5864221e-02
  8.1744157e-03
  9.3164165e-03
  1.6444828e-02
  1.3594413e-02
  2.6451994e-03
  1.6789729e-02
  3.7989024e-02
  7.5982334e-03
  1.3112767e-03
  1.8504189e-02
  1.0524581e-02
  2.3357754e-03
  4.0885364e-04
 -1.4452760e-02
 -8.4455614e-04
 -1.1272567e-02
  1.2010350e-03
 -2.9672829e-03
  5.4831719e-01
  1.7515910e-03
 -1.8345619e-02
  1.1595719e-02
 -7.1920827e-03
  2.2005143e-02
  9.4045755e-03
  1.0184780e-02
  1.6754381e-02
  5.2572233e-03
  4.8455995e-02
  1.7288701e-01
  1.9251013e-02
 -6.0125686e-02
 -1.1579040e-02
 -7.3142988e-03
 -3.8466737e-02
 -1.4368667e-01
 -2.2744458e-02
  1.6718915e-02
 -1.1078414e-02
 -1.0153569e-03
 -2.2424163e-02
  3.6314966e-03
 -4.5647905e-03
 -1.1142415e-02
 -1.1436078e-02
  3.7382015e-03
  5.4614958e-03
 -2.7775692e-02
  4.5412700e-03
  3.1175235e-01
  1.7946863e-03
 -1.2284101e-02
 -2.5030744e-01
  3.4001153e-02
 -2.9950576e-02
  4.9794363e-03
  1.6258422e-02
  2.3106446e-02
  1.3100963e-02
  1.3518929e-02
  4.1219160e-02
  1.2568691e-03
  6.4327894e-03
  2.3125498e-02
  4.7450387e-03
 -2.1999087e-03
 -2.6173738e-03
 -6.5086284e-03
  4.5959629e-02
  3.2555085e-02
  6.9258097e-03
 -1.6482703e-03
 -1.3873467e-02
 -2.2654112e-03
 -1.0187292e-02
 -1.1829076e-02
 -9.8310579e-03
 -2.1268019e-01
 -1.6706054e-01
 -2.0455614e-02
  1.4749074e-02
 -4.3253861e-03
 -1.9650389e-02
  2.4257101e-06
 -6.8160589e-04
  9.6127875e-03
  3.9677285e-03
  6.6153379e-03
  1.9673547e-02
  4.2597884e-03
  8.7174383e-05
 -2.6988389e-02
 -1.8071041e-02
 -2.8780061e-01
 -4.9650076e-01
 -6.6130320e-05
 -8.7358250e-04
  3.4020951e-03
  7.0845364e-03
  9.3409664e-04
  5.9295481e-04
  1.0164717e-02
  5.9309802e-03
  2.7144637e-03
  1.3116190e-02
 -3.0179003e-03
  1.5926464e-03
 -6.7368154e-03
 -3.1250853e-03
 -2.1644231e-02
  1.3545980e-02
 -1.1658889e-02
  8.7800139e-04
  3.4571043e-03
 -4.3914220e-03
 -3.1874981e-03
 -8.2896492e-03
 -3.8033377e-03
  1.9831210e-03
 -1.0201884e-02
 -7.8718457e-03
  7.2470247e-03
 -2.2193317e-03
  1.0982378e-01
  9.4876690e-03
  5.2206968e-03
 -8.8962484e-03
 -3.6928140e-02
  2.8408039e-03
  3.9601740e-03
  5.7694558e-03
 -2.0175178e-03
  8.0269296e-03
  3.5903594e-03
 -1.1608154e-02
  8.9355484e-03
 -2.2401416e-01
 -5.2566163e-02
 -4.6502810e-02
  7.7124149e-02
 -8.0721267e-02
  3.2491991e-01
  3.1709492e-01
  1.7777078e-01
  2.5521898e-01
 -1.1719152e-01
  2.5507940e-02
  9.9318717e-03
 -1.2488891e-02
  1.9080514e-02
  9.4160020e-02
  2.0300969e-02
 -1.2974421e-02
 -5.0427862e-02
 -3.4728296e-02
  8.1960745e-02
 -1.0810607e-02
  8.4299192e-02
 -1.3837771e-01
 -4.5822388e-01
  4.8635831e-01
 -1.4783263e-01
  1.1706929e-01
 -6.4410739e-02
 -1.5394366e-01
 -3.7504390e-02
 -2.5213471e-02
 -4.1994233e-02
 -1.1514148e-01
 -7.0547804e-02
 -1.8819878e-02
 -1.0850901e-01
 -3.5740577e-02
  3.4906272e-02
 -1.1185175e-01
  6.1660256e-02
  3.0160194e-02
 -8.6998172e-02
  9.8774638e-03
 -1.0202941e-02
 -1.0042232e-01
  2.6593164e-02
  4.7665700e-02
 -9.8909050e-02
 -9.0176739e-02
 -5.6487724e-02
  4.2108085e-02
 -5.3426038e-02
 -3.8067002e-02
  3.6367863e-02
 -4.9545988e-01
  2.5898579e-01
 -9.7445679e-01
 -1.1944533e-01
 -9.5127404e-02
  9.2647088e-01
 -5.9900552e-01
  2.4254553e-01
  1.6613960e-01
 -7.3899068e-02
  8.6212009e-02
 -1.0870261e-01
 -9.0626262e-02
  2.9219620e-02
  1.2030927e-01
  2.3531038e-02
 -4.8896302e-02
  2.0055308e-03
 -7.7472024e-02
  1.4766324e-01
  1.7892689e-02
  4.8803225e-02
  4.7673875e-01
 -1.0040499e-03
  5.8032328e-01
 -3.6089711e-02
  3.2473037e-01
  9.8957658e-02
  1.8784297e-01
 -1.1665661e-01
 -3.1427509e-04
  2.4580221e-01
 -1.0544515e-02
  3.5319153e-02
  2.1743184e-02
  4.2138979e-01
  1.1466688e-02
  8.6278699e-02
 -9.1017149e-02
 -1.6140373e-01
  3.4649439e-02
 -3.1332191e-02
  7.8478783e-02
 -2.6461745e-02
  1.7223519e-01
 -9.1738971e-03
 -3.1494300e-03
 -2.2438416e-02
  4.1686851e-03
 -1.0332280e-01
  9.9718943e-02
 -1.0027479e-01
 -2.4392087e-02
  1.1885089e-01
 -2.2789228e-01
  2.0187606e-01
 -1.9171593e-01
 -7.3466247e-01
 -1.2270101e-01
 -3.0462867e-01
  7.1694441e-02
  2.2817746e-01
  2.0009802e-01
 -8.3343610e-02
  4.2998049e-01
 -1.8477397e-02
 -2.1732904e-03
 -4.3164190e-02
 -8.4410794e-03
  8.3798744e-02
 -8.9206332e-03
 -5.8409058e-02
 -9.7915366e-02
  1.2436242e-01
 -3.8774986e-02
  1.4054829e-01
  2.3171425e-01
  6.7295721e-03
  1.9716144e-02
  1.8943055e-02
  1.9879787e-01
  3.7974615e-02
 -1.6951108e-02
 -1.2813683e-01
  3.0382188e-02
  9.0264291e-02
 -8.9330718e-02
 -1.0887979e-01
  2.5739620e-02
 -8.8530026e-02
 -2.8474968e-02
  7.3991232e-02
 -7.3203728e-02
  1.3532661e-01
  5.1146470e-02
 -1.1550831e-01
  7.5749286e-02
 -3.9207693e-03
  5.8386851e-02
 -1.5567205e-03
  5.8058341e-04
 -3.4668844e-02
 -1.0260893e-02
 -9.1566548e-02
  1.0296348e-01
 -1.0240126e-01
 -2.0647254e-02
  1.2230019e-02
 -2.7705669e-02
 -4.0273897e-02
  7.9830792e-03
 -5.3570952e-02
 -2.0740874e-02
  1.7389611e+00
 -8.2273789e-02
  1.3582123e-02
  8.0773041e-02
  8.0806566e-03
 -2.9130888e-01
  1.0894270e-03
 -9.3736192e-03
 -1.4549302e-02
  6.0064513e-02
 -1.8702549e-04
 -1.4990490e-02
 -2.2974094e-02
  2.3002969e-03
 -6.7955689e-03
 -2.0392533e-02
  1.4141534e-02
  5.3873699e-02
  2.4098650e-01
 -3.7114900e-03
 -1.9459747e-02
  3.7183538e-02
  7.2333426e-03
 -5.6015135e-04
 -5.8386447e-03
 -7.3441328e-03
  3.0055346e-02
 -3.5734256e-03
  2.0621495e-02
 -8.5120536e-03
  1.0152850e-02
 -7.2765993e-03
  2.3035433e-03
  1.8805219e-02
  1.1897261e-03
 -1.9805785e-03
 -1.3398309e-02
 -1.6898261e-03
  7.4791941e-03
  1.1799707e-02
 -9.7654155e-03
  3.0337563e-01
  6.0936706e-03
  2.7443699e-03
 -1.7713100e-02
  3.0637393e-02
 -9.6114837e-03
  3.9113336e-04
 -9.2555461e-03
 -1.6615964e-02
 -2.6430823e-02
  2.6656372e-02
  4.9015760e-02
 -1.4098697e-02
 -9.6160881e-03
  3.9209992e-02
 -1.9585410e-02
  6.1046998e-03
 -2.1074273e-02
  9.7842067e-03
  2.2172485e-02
  9.1688251e-03
 -2.1638744e-02
 -1.0677214e-02
  1.6655589e-02
  5.8285194e-03
  1.0724800e-01
  8.6989105e-03
  1.5801441e-02
 -2.1132868e-02
  2.2418659e-02
  1.1240801e-02
  1.9345729e-02
 -7.7961409e-03
 -4.8301149e-02
  9.0545313e-03
 -1.9199405e-02
 -2.2574581e-02
 -2.6438158e-02
 -2.5194656e-02
 -3.8736823e-03
 -2.2116328e-02
  1.2131899e-02
  1.6457496e-03
 -1.6923876e-02
 -6.6596703e-03
 -3.7632836e-03
 -2.0872882e-02
  2.6346628e-02
  2.5845924e-03
 -4.1517422e-02
  2.2805750e-03
 -1.3772184e-02
  1.2867808e-02
 -3.8179918e-03
  1.5216758e-02
 -6.6223452e-03
  1.9459287e-03
 -2.5529066e-02
  5.0362740e-03
  1.5659095e-01
  8.0926418e-03
 -3.9864339e-02
  1.6501789e-03
  1.0655197e-02
  7.7071586e-03
 -7.8634387e-03
 -7.9630148e-03
 -5.7048458e-03
 -1.2505395e-02
  1.6408850e-03
 -6.1039724e-03
  4.7232793e-03
  7.3728808e-03
 -1.7809546e-02
  1.9981083e-03
 -5.2684610e-04
 -8.0894856e-03
 -4.2768563e-03
  8.5898954e-03
  4.7960654e-03
  3.6846306e-03
  1.2859533e-02
 -7.0816744e-03
  4.6390027e-02
 -1.2094607e-02
  8.1598563e-03
  7.2181448e-03
  1.4514868e-03
 -9.6612785e-04
  4.3283547e-03
  6.1381171e-03
 -1.1311920e+00
 -5.0068172e-03
 -7.0010303e-03
 -7.5540110e-04
 -6.9737085e-03
  1.3098179e-02
  5.6876433e-03
  1.3401627e-02
  4.7489036e-02
 -4.7448534e-03
 -5.8748587e-03
 -2.7216895e-02
  7.1694428e-04
  8.0688102e-03
  5.4697711e-03
  7.5655472e-03
 -1.4538724e-03
  3.7296393e-03
 -6.2015867e-03
 -4.6171620e-03
 -2.1344337e-03
 -1.0969084e-01
  1.5032044e-01
  3.7001211e-03
 -3.7416623e-03
 -6.5830881e-03
  7.3611878e-02
 -9.6100472e-02
 -1.8118622e-02
  3.4082681e-02
 -6.3050881e-02
 -5.0075483e-02
 -4.4795577e-03
 -8.3502620e-02
  3.7048463e-02
 -3.1298336e-02
 -1.2140321e-03
 -1.7941404e-02
  1.7680068e-02
 -6.3189729e-03
 -4.8904058e-02
  6.9526341e-03
  1.8015107e-03
  6.6635035e-02
 -6.8052866e-02
  3.3516075e-02
 -2.0393031e-02
  8.0292895e-03
  4.4484702e-03
 -2.3158506e-02
  1.0594675e-01
 -2.9463541e-02
  5.3820018e-02
  5.8136072e-02
  5.8873538e-02
 -9.0102084e-02
 -1.9581469e-03
  9.8043747e-02
  1.3103788e-02
  5.5820933e-03
  1.3813727e-01
  4.0047351e-02
  1.1474098e-02
  5.6102674e-02
 -2.3545612e-02
 -1.9634316e-02
  8.5741878e-02
  2.9370259e-03
 -1.1814646e-02
  1.7492345e-02
 -3.0871116e-02
 -3.3750750e-02
  1.0483581e-02
 -9.3518272e-03
  6.3568406e-02
 -1.9904247e-02
  1.3399143e-02
  1.2317541e-02
 -1.2474738e-02
  1.3542449e-01
 -2.3841830e-01
  2.2951441e-02
 -2.3136368e-02
 -1.4880497e-02
 -1.7648463e-01
  2.4034998e-01
 -6.1869570e-03
  2.1471265e-03
  9.4631221e-03
  3.4039395e-03
 -6.3517131e-03
  4.6716160e-03
  2.7871290e-03
  2.8633657e-03
 -2.6640666e-03
  3.8638161e-03
  1.4703263e-03
  1.5389142e-03
  5.3123259e-03
  1.2995644e-02
  4.9554822e-03
 -1.3602243e-02
  1.1927531e-02
 -3.2751819e-03
  1.4323739e-02
  5.5702981e-03
  3.0375381e-03
 -8.4290365e-03
  1.2081348e-02
  6.4240170e-01
 -5.6461692e-03
  7.9008667e-03
 -1.6651124e-03
  3.4425554e-03
  1.4439400e-02
  5.9020715e-03
  6.6296798e-03
  1.2491805e-02
  9.8909047e-03
  6.2630991e-03
  5.4525947e-03
 -3.2840025e-02
 -4.2662523e-03
  7.7786767e-03
  2.6027743e-05
 -9.4994428e-03
  4.0195389e-03
  7.7799088e-03
  1.5506413e-02
 -6.8814424e-03
 -3.4840798e-03
 -7.7086133e-03
  2.8798974e-03
 -2.3188800e-02
 -1.9984335e-02
  6.5079026e-02
 -9.2985533e-02
 -1.8735362e-02
  8.3764575e-02
  7.5500153e-02
  9.5489047e-02
  1.6967265e-02
 -3.1520784e-02
  1.9385172e-02
  1.5618082e-02
  1.2788971e-02
 -4.8852423e-03
  3.3587071e-03
  2.6275683e-02
  5.7338765e-03
 -1.0838141e-02
  1.0284144e-01
  4.3963559e-02
 -2.5990549e-02
 -3.6890623e-03
  7.6528126e-03
 -2.4359317e-02
 -4.7489530e-03
 -6.2057365e-02
  1.3863826e-02
 -7.6696547e-03
 -2.8530287e-02
 -1.1240874e-02
 -3.4693964e-02
 -2.2728970e-02
 -6.4738445e-02
  3.9580734e-03
 -1.4138619e-02
 -3.2590281e-02
 -1.9319968e-02
  2.0608385e-03
 -2.2174507e-02
 -2.9393399e-04
 -5.3288280e-03
 -4.2433981e-02
 -9.2426343e-03
  6.0284492e-03
  2.2332804e-02
  1.0788744e-02
  2.6211925e-02
 -1.2459295e-02
 -5.7688008e-05
 -4.4623040e-02
  4.7469580e-01
 -7.7266418e-03
 -5.2568121e-03
  1.2887336e-01
  2.7068797e-01
 -6.3028932e-02
  2.2022669e-01
 -3.9590299e-01
 -4.3005529e-01
  1.6358884e-02
 -1.1270873e-02
 -4.2116786e-03
 -1.2617293e-01
 -5.7575699e-02
  2.0600714e-02
  8.1069708e-02
  2.2244745e-01
 -2.0993733e-01
 -3.3665293e-01
  1.3428284e-01
 -3.7126923e-03
 -2.6579449e-01
 -2.1246834e-01
  9.7367978e-03
 -3.9189160e-01
  6.9315165e-02
  2.1645439e-01
 -1.7700344e-02
 -1.0131632e-01
 -7.3836461e-02
 -5.6326032e-01
 -1.5737444e-01
 -2.8074670e-01
 -2.8423095e-01
 -1.1129487e-01
 -9.6554808e-02
 -2.9811886e-01
 -1.9614591e-01
 -9.9165961e-02
 -7.1432823e-01
  1.2629193e-01
 -1.8495915e-02
 -8.2053795e-02
  1.0597420e-01
 -1.1293540e-02
 -2.8605178e-01
  1.4862137e-01
  9.3389668e-02
 -1.0710883e-01
  6.7602269e-02
  9.8375738e-02
 -1.8735241e-02
  4.8269376e-02
 -2.4352367e-01
  9.0822101e-02
 -2.1821199e-02
 -2.4970677e-02
 -1.6756590e-02
  4.3971130e-01
  8.4997040e-01
  4.4520358e-03
 -2.9619172e-01
 -5.9770185e-01
  1.3662787e-01
 -9.3465251e-01
  4.6058181e-01
 -1.7136922e-02
 -2.5407904e-01
  8.8189886e-04
  1.0646550e-01
 -3.3782262e-01
  8.0321681e-01
 -5.0547320e-01
 -2.4181369e-01
 -5.0919807e-01
 -4.1997451e-01
 -3.0149886e-01
  2.8076875e-01
 -5.3531468e-01
  5.0962478e-02
 -1.7244153e-01
 -5.2356052e-01
 -5.4241180e-01
 -5.1781064e-01
  3.1589338e-01
 -3.1420982e-01
  1.2044913e-01
 -1.9933699e-01
 -2.3479398e-01
 -7.2403044e-01
 -5.9213048e-01
  2.8229815e-01
 -2.9747996e-01
  3.1108728e-01
 -2.6098499e-01
  1.5192509e-01
 -1.3511446e-01
  2.1281351e-01
 -2.6281124e-01
 -5.1053214e-01
 -9.7655952e-02
 -2.2459650e-01
  3.4066707e-01
  1.3291290e-01
  2.2954309e-01
 -4.4836976e-02
  1.9862959e-01
  5.4500163e-01
 -2.2856107e-01
  1.8414487e-01
 -1.1844117e-01
 -1.5468344e-01
  3.9232410e-02
  1.4436931e-03
 -1.7027659e-02
 -4.2499945e-02
  1.2003988e-02
  6.9750114e-03
 -3.5753366e-02
 -6.0508754e-03
 -2.4380811e-02
  1.3107764e-02
 -1.0759534e-02
 -6.3706357e-03
 -1.5234811e-02
  1.9035320e-03
 -4.2486447e-03
  1.4901459e-02
  6.2873503e-03
 -8.8814022e-03
 -4.0274464e-02
 -9.2972945e-03
  4.2384700e-03
  5.9809089e-03
 -1.9555056e-02
 -4.2348802e-02
 -1.4841991e-02
  3.5300832e-02
 -1.2671262e-02
 -9.0299291e-04
  7.6080877e-03
  1.5003365e-02
 -5.3063268e-03
  1.5207068e-02
  2.8059943e-02
 -6.1547761e-03
  5.9935660e-03
  9.6089747e-03
  7.2760205e-03
  2.8567095e-03
  1.0489943e-02
 -1.4695273e-02
 -6.1707222e-04
 -1.6155045e-02
  3.2387718e-03
  2.4220461e-03
 -7.4304300e-03
 -3.1078926e-03
 -3.8539728e-03
  1.9578147e-03
 -2.6835898e-02
  2.3939002e-02
  1.3668622e-03
  3.8131895e-03
  1.9656806e-03
 -1.3158245e-03
  3.4413433e-01
 -4.9804667e-01
  3.6653808e-01
  3.7574247e-01
 -1.6839072e-01
  1.7206252e-01
  2.1384523e+00
 -5.1336344e-02
 -3.6111546e-01
 -1.0887658e-02
  1.2778112e-01
 -1.1175597e-01
 -1.0089830e-01
 -4.7212151e-01
  1.1252791e-02
 -1.1756493e-01
 -1.8747237e-01
 -3.1727585e-01
 -1.3497803e-01
  2.2339313e-01
 -1.0186968e-01
 -2.4832574e-01
  3.8832876e-01
  4.1525161e-01
 -4.7245137e-02
 -1.0092544e-01
  3.6163428e-01
 -4.4034821e-01
  4.6727982e-01
 -7.9989256e-03
  3.7871841e-02
 -1.0971156e-01
 -3.5215549e-02
  9.3073301e-02
  3.3974582e-01
  5.1904011e-01
 -5.6021251e-02
 -2.4044672e-02
 -1.6156957e-01
 -9.8342234e-03
  2.1705795e-03
 -7.3160030e-02
 -3.0991215e-02
 -4.3124020e-02
 -4.6561841e-02
  3.8588680e-02
  3.6946889e-02
 -1.9342396e-02
  8.6916246e-02
 -1.9784348e-02
  8.3093613e-02
 -5.2832287e-02
 -4.3519951e-02
 -1.2540437e-04
  1.0357118e+00
 -1.1933554e-01
  2.2253098e-01
  6.7857510e-01
 -7.1313322e-02
  5.9149569e-01
  6.9458789e-01
  9.2470549e-02
 -7.9764003e-01
  3.6035889e-01
 -2.8107050e-01
  1.9436583e-01
  1.3122830e-01
  7.2227478e-02
 -2.3456705e-01
 -3.4545533e-02
  1.1408352e-01
  2.5486046e-01
  4.0904692e-01
 -4.5089921e-01
 -9.0848640e-02
  5.1174903e-01
  5.1200414e-01
 -6.7871615e-02
 -2.2561833e-01
  9.3721703e-02
 -4.8461270e-01
  4.8044557e-03
 -2.0492856e-01
 -1.0989612e-01
 -7.1312538e-03
  2.0902258e-01
  6.5556355e-02
 -3.2104230e-01
  1.5130961e-01
  7.6222815e-02
  1.1377586e-01
 -1.6611640e-01
  1.3899769e-01
 -5.5764210e-01
  4.3183915e-02
  9.9154167e-02
 -1.2901771e-01
  9.7455457e-02
 -2.6707488e-01
 -1.3011085e-02
 -3.6251763e-01
  5.6787308e-02
  2.7381662e-02
 -1.4280834e-02
 -4.9220651e-02
  8.2803331e-02
  3.6819719e-02
  1.2989283e-01
 -9.3541788e-03
  6.0654413e-02
 -1.0771596e-01
 -1.7946093e-01
 -5.3285081e-02
  5.7507539e-01
  5.3369530e-02
  3.7235223e-02
 -2.8938097e-01
 -3.0981660e-02
  1.6233105e-02
 -8.2534431e-03
 -2.5731444e-02
 -6.5301433e-02
 -2.2496735e-03
  2.7474755e-02
 -3.2013875e-02
 -3.5217602e-02
 -3.4280024e-02
  2.4325319e-02
 -4.3647576e-02
  1.1584802e-02
  8.3288349e-02
 -1.4264081e-02
  1.6510572e-02
 -4.7998633e-02
  4.4461705e-02
 -1.0042463e-03
 -1.8029081e-02
 -2.9082557e-02
 -2.6722789e-02
  1.8091600e-02
 -4.7982182e-02
  1.9490487e-03
 -5.6158090e-03
 -1.2770827e-02
 -1.1177801e-02
  2.6301136e-03
 -4.6154313e-02
 -1.4142689e-02
 -6.3735750e-03
 -5.6455754e-02
 -6.4627156e-03
 -2.3449576e-02
  5.3603258e-03
 -1.6548682e-02
  1.0340417e-02
 -1.1446740e-02
  8.8394079e-03
 -5.2138280e-02
  4.5439895e-02
 -1.7813172e-02
 -8.1711160e-03
  3.8606683e-03
 -1.6356739e-01
 -3.2821074e-02
 -6.5844223e-02
 -2.9054001e-01
  9.7471125e-02
  7.9101145e-02
 -6.7588888e-02
 -1.8637110e-01
 -6.9875970e-02
  2.4834746e-03
 -6.8870246e-02
 -3.9902676e-02
 -5.8031399e-02
  5.2745517e-02
  8.6825214e-02
 -5.1510447e-01
 -1.3253275e-02
  7.5426482e-02
  8.6350083e-02
 -5.1399503e-02
  1.5748745e-01
  5.7547271e-02
 -8.3902843e-02
 -1.2187770e-02
  6.3994974e-02
  1.6674741e-01
  5.9170562e-01
 -1.6356891e-02
 -7.4816018e-02
  1.2090764e-02
 -2.2530369e-02
 -8.1405364e-02
  1.2598467e-01
 -9.0167560e-02
 -5.5734380e-03
 -6.3752222e-01
  4.4657554e-02
 -2.4880053e-01
 -4.3072901e-03
  3.1279355e-02
  3.6608800e-03
  1.1019839e-01
 -7.5413175e-02
 -3.6718961e-02
  1.4355818e-02
 -3.3384147e-03
 -4.1831251e-02
  9.7653195e-03
 -2.8848410e-02
  6.2482655e-02
 -3.8932092e-02
  3.2810174e-02
  7.6094470e-03
  4.2881947e-02
  6.8343957e-03
 -2.4576211e-02
  1.7609708e-02
  8.9427851e-02
  7.0988141e-02
 -1.6113791e-03
 -3.5636749e-02
 -1.1390070e-01
 -6.8569414e-02
  1.0636649e-01
 -3.9371923e-02
 -1.8953077e-02
 -4.3621149e-02
  2.9667262e-02
  2.4051715e-02
 -8.1209965e-02
  3.0931546e-03
 -4.2085205e-03
  2.7374076e-02
 -2.7876969e-02
  7.0971742e-02
 -3.7720323e-02
 -1.6915898e-03
 -1.7368045e-03
 -3.6323447e-02
  2.2556917e-01
  7.7657716e-04
  5.1914826e-02
  6.3365556e-02
  1.9352822e-02
  8.1023321e-02
  5.7111971e-02
  2.2413297e-01
  1.7944941e-02
  3.9283298e-02
  8.9489296e-02
  5.0521929e-02
 -9.4511434e-03
  6.4411193e-02
 -1.5119632e-02
 -1.7907484e-02
  1.0702015e-01
  1.8733734e-02
 -7.0894388e-03
  5.3417538e-03
 -6.4295180e-02
 -5.0273621e-01
  3.5038698e-02
 -1.8931234e-02
  1.0907689e-01
 -3.7902467e-02
  2.5269382e-03
  2.6416264e-02
  2.7661470e-01
 -1.6502185e-02
  3.9173356e-01
 -1.2662115e-02
 -1.4792432e-01
  9.3184173e-02
  5.2091372e-01
 -2.9421791e-01
  2.2991535e-01
  1.4610856e-02
  1.0064548e-01
 -2.2854583e-02
  6.6148728e-02
  6.4987853e-02
  1.3631740e-01
 -6.6107683e-02
  2.7702881e-02
  1.1971314e-01
  1.7292015e-01
  1.9794048e-03
 -7.5869419e-02
  8.5104868e-02
 -6.2388208e-02
 -1.1832718e-01
 -1.8477173e-01
 -3.6308412e-02
  2.1724494e-01
 -3.0650377e-01
 -7.6949164e-02
 -5.2582715e-02
  1.3903192e-01
  1.1830588e-01
  2.0581728e-01
  1.2965745e-01
 -5.3359509e-02
  9.0709582e-02
 -8.2130119e-02
  4.9853329e-02
 -8.8475132e-03
  2.2759809e-01
 -1.0906028e-03
 -8.4659249e-02
  1.3553631e-01
  1.8953484e-01
  2.9002978e-02
 -1.1626421e-01
 -5.6408953e-02
 -8.4928989e-02
  1.7726256e-02
 -1.1012372e-01
  1.7145054e-01
  1.5737061e-01
  6.0905386e-03
 -2.9407895e-01
 -7.2709873e-02
  1.5013508e-02
 -6.1911291e-01
  2.8588295e-02
  6.1765552e-02
 -1.3212735e-02
 -4.3471385e-02
  7.9253484e-03
  2.1717552e-02
  1.8830998e-01
 -1.4628146e-02
  1.5350031e-02
  3.6107671e-02
  1.0013589e-02
  5.0072502e-03
 -3.0250156e-02
  3.4988824e-02
 -2.1671059e-03
  8.3182352e-03
  5.6439531e-03
 -7.0205401e-03
 -2.3635246e-02
  3.3490743e-02
  1.6493781e-02
 -8.8059710e-04
  1.4498138e-02
 -4.2970028e-02
 -2.3220891e-02
 -8.9732977e-03
 -1.8665126e-02
 -2.4946647e-02
 -1.2312843e-02
  7.4396851e-03
 -4.6029530e-02
  6.5001897e-03
  7.4095842e-03
  2.4519270e-02
 -1.9487737e-02
 -3.3560242e-03
 -2.0020541e-02
  2.3095939e-02
  1.1766613e-02
 -4.2941786e-02
 -5.7144584e-03
  1.6174889e-04
  2.5972595e-02
  3.6610086e-03
  9.1818422e-03
 -1.8799752e-02
 -3.3926463e+00
 -4.2665984e-02
 -3.1109732e-02
 -1.3776412e-02
 -1.2722859e-02
  5.8711730e-03
 -4.9394101e-01
 -2.8196937e-01
  8.5076731e-01
  6.9771641e-01
 -3.8360962e-01
  6.1238974e-01
  4.9843901e-01
 -3.0201694e-01
 -3.0028504e-01
 -1.0872877e-01
  3.0606776e-01
  8.8906288e-03
  1.8377063e-01
 -2.6348898e-01
 -1.7677912e-01
  2.3754095e-01
  2.0867467e-02
  1.2578049e-02
 -2.6410320e-01
  3.0500737e-01
 -2.3327963e-02
  7.0505373e-02
  2.0852719e-01
  2.3504959e-02
 -1.5364406e-01
  5.0171586e-03
 -1.1938105e-01
  4.5948755e-02
  6.0595977e-01
  6.2155373e-02
  6.6850030e-01
  3.2823965e-01
 -3.2662091e-01
  3.9051482e-01
  1.0461949e-02
  9.2753872e-02
 -2.0050655e-01
  9.7165801e-02
 -2.1327497e-01
  3.3770669e-02
 -9.5159270e-02
 -3.7114629e-01
  7.6085746e-02
  6.2658101e-02
 -3.6401027e-01
 -2.6720958e-02
 -1.7352065e-02
 -9.6671313e-02
 -8.3824277e-02
  1.3135099e-01
  3.0545476e-01
 -1.0543536e-01
 -1.5329534e-02
 -3.4149528e-01
  1.4813033e-01
 -2.3820709e-01
  1.1485350e-01
 -3.3884010e-01
  6.2377583e-02
 -4.3723699e-02
  2.8145954e-01
 -3.9816964e-01
 -2.9685649e-01
  1.1807092e-01
 -4.3709524e-02
 -9.2763685e-02
 -1.1822314e-01
 -1.1967238e-01
  3.3538118e-02
 -8.8334166e-02
 -6.8492107e-02
 -1.6994391e-01
  8.7481573e-02
 -7.7531300e-03
  1.8155955e-03
 -1.1711887e-01
  2.4456573e-01
  8.4323235e-02
 -1.2829767e-01
  2.0886435e-01
  2.2591166e-01
  1.5121154e-01
  2.3640488e-01
  1.2234139e-01
  1.4951622e-01
 -7.5678870e-02
  1.7496344e-01
  1.3248546e-01
 -1.8609680e-02
 -4.4797942e-02
  6.9732703e-02
 -1.8586181e-02
 -1.0099220e-01
 -9.9315502e-02
 -6.0124613e-02
  1.8801135e-01
 -7.2992362e-02
  2.3865208e-02
 -4.8599482e-01
 -2.5726462e-02
 -2.7042806e-02
  5.9446950e-02
  1.2132696e-02
  9.3492456e-02
 -2.8176378e-02
  8.8049192e-03
  4.0753957e-02
 -6.2394310e-03
 -1.3163395e-02
 -2.4896602e-03
  5.7347831e-03
 -1.0132363e-01
 -5.5297562e-03
  1.1676870e-02
  1.7374784e-02
  7.6820357e-03
  1.7408885e-02
 -8.3051482e-03
  1.0217767e-02
 -6.3656420e-03
 -1.5305391e-03
 -5.4056076e-03
  4.8118145e-03
  3.5500140e-03
 -4.9500945e-03
 -9.0695657e-03
 -1.1005375e-03
  3.8373964e-03
 -1.3052863e-03
 -2.0925393e-03
  1.4844631e-02
 -6.0081510e-03
 -5.7207197e-02
 -1.0755584e-02
  9.5578516e-03
 -1.3106457e-02
  9.1936924e-02
 -1.0011802e-02
 -4.9967360e-04
  6.9446159e-03
 -8.2151918e-03
 -4.1481731e-03
 -1.1393700e-02
  6.8033203e-03
 -5.2762073e-03
 -1.4673941e-02
  2.0302411e-03
  4.9610203e-04
 -8.4205857e-03
 -8.1129428e-03
  5.5015585e-03
  1.2105101e-02
  7.0598852e-03
  2.0984482e-04
 -2.3318974e-03
  4.1509215e-03
  9.8899165e-03
 -4.8672490e-02
 -2.4550245e-03
 -3.1486631e-03
 -2.7879108e-02
  8.9579877e-03
 -3.6747372e-03
  1.4942775e-02
 -8.0466121e-02
 -5.8000833e-03
  8.4590390e-02
 -5.8755958e-01
 -8.6901546e-02
 -3.3090170e-02
 -8.8822657e-01
  2.1733005e-02
 -1.6636861e-02
  6.7231809e-03
  7.5559458e-03
  2.7493710e-02
 -1.8874025e-02
 -2.7182855e-02
 -5.9611231e-02
  9.9201612e-03
  3.4103221e-03
  3.3430323e-02
  7.8958608e-03
 -1.9133316e-02
 -1.3025958e-02
  1.6338937e-02
  3.6288893e-03
  2.7433775e-02
 -1.9555524e-01
  1.5704369e-02
  3.7375525e-02
  5.5703199e-03
  9.7000618e-03
  3.5137858e-02
  4.2766891e-02
  2.5617111e-02
  5.1566488e-03
  6.3411877e-02
  1.3793758e-02
 -8.9610759e-03
  3.2381965e-03
 -2.0619310e-02
  8.0624167e-03
  3.6512956e-02
 -9.0633571e-04
  1.6894430e-02
  9.7691398e-03
 -5.9138373e-03
 -1.9292383e-02
  9.8433672e-03
 -1.8006125e-02
  4.2512722e-02
 -8.5233152e-03
 -7.6721748e-03
  1.9953398e-03
 -9.0840859e-03
 -1.2969693e+00
  7.2256946e-03
 -2.0295698e-02
 -9.9105733e-03
  7.3497996e-02
  2.6974114e-02
  5.6561135e-02
  3.8284112e-02
  7.3493876e-02
 -3.6333494e-02
  2.3829661e-02
 -3.8354304e-02
 -6.8679817e-02
 -6.0771279e-02
  1.5210484e-02
  1.3722629e-02
 -3.1521279e-02
 -3.0528594e-02
  8.8195838e-03
  7.8418657e-02
 -4.1791338e-02
  1.5851962e-03
  1.2525645e-01
  2.6076853e-02
  1.6587313e-02
 -4.5653194e-02
  1.0640066e-01
  7.3391055e-03
 -1.1333604e-02
 -8.0395482e-02
 -1.3030258e-02
  4.9346401e-03
 -3.7917037e-02
  7.9258569e-03
 -6.8131243e-03
 -1.3652202e-02
 -2.2417598e-03
  4.2262948e-03
 -4.4579402e-02
 -2.9205762e-02
  2.5544057e-03
 -1.8976700e-02
  5.9596617e-03
 -2.6042726e-02
  7.9070507e-03
 -1.6630916e-03
  1.4112961e-02
 -9.2933349e-02
  3.2952409e-02
 -5.0729122e-02
  3.8332485e-02
 -2.2509387e-02
 -8.6348783e-03
  1.4867860e-02
 -1.7254615e-01
 -4.2570475e-02
  6.6034448e-01
  3.4565899e-01
  3.1302872e-01
 -5.6288880e-01
 -1.1668855e-01
  1.7540069e-01
 -2.8328982e-01
  1.3010283e-01
 -6.0080156e-02
  3.1892408e-02
  4.5236494e-02
  1.7432998e-01
  4.1600233e-01
 -3.3493418e-02
  1.2802789e-01
  1.1318782e-01
  2.7803123e-02
 -1.3882221e-01
  9.0593979e-02
  2.5017285e-01
 -5.0417297e-02
  3.8990915e-01
 -2.1216172e-01
  3.7509897e-01
  9.9754617e-02
  1.0330335e-01
 -7.7865914e-02
  1.8400973e-01
  2.6528877e-01
  6.1976485e-02
  5.4646367e-01
  1.7829530e-01
  8.4641419e-02
 -1.5483110e-01
  1.3745208e-01
 -7.5328298e-02
  1.9730106e-01
 -2.0520832e-01
  1.0092144e-01
  3.6769715e-01
 -2.4422367e-01
  8.3979838e-02
 -1.1612426e-01
 -8.7054379e-02
 -1.7846438e-01
  7.7233344e-02
 -1.6774286e-01
 -1.8631037e-01
  9.2209928e-02
  5.9071664e-02
 -1.2493906e-02
  1.0689302e-01
  3.1799980e-02
  5.1110968e-02
 -1.3616476e-02
  4.7693606e-02
  3.4456144e-04
  1.0854861e-02
  1.0163687e-01
 -4.1929498e-01
  2.1301992e-02
  3.5140961e-02
 -8.6509082e-03
  5.3330469e-03
  3.4015658e-04
  8.0506457e-03
 -3.4365334e-02
 -1.4134698e-01
  1.1892241e-02
 -1.7028727e-02
  1.1272923e-02
 -2.7796263e-02
 -1.0157571e-02
 -2.1531219e-02
  4.3472070e-01
 -1.2608673e-02
 -1.1748272e-02
  4.5087226e-02
 -1.4017563e-01
 -2.6813023e-02
  6.5367618e-03
  5.9886109e-03
 -1.1274253e-02
  1.7826539e-02
  1.8872377e-02
  2.3222982e-04
  3.5453551e-03
 -7.3549038e-01
  1.0147662e-02
 -1.1180252e-02
  2.3861289e-02
  6.6955369e-03
  2.0923223e-03
  2.2108844e-02
  3.4907624e-02
  1.7294524e-02
 -2.5045183e-02
 -7.6879947e-03
 -1.8476732e-02
  5.2601299e-03
 -3.9811237e-03
  2.0545822e-02
  1.3447127e-03
 -2.0034447e-02
  2.0476289e-02
 -1.5708143e-02
 -4.3307871e-01
  2.7937049e-01
  1.4072509e+00
 -2.4768135e-01
  3.4955522e-01
 -3.8811702e-01
  2.2587466e+00
  2.7827123e-01
  4.2212883e-01
  8.3375331e-03
 -1.9575860e-01
  5.8232643e-02
  3.3332869e-02
  4.1479054e-01
  8.6619759e-01
 -6.2348220e-02
  3.0724272e-01
  1.7835136e-01
  3.4747747e-01
  1.9039422e-01
 -5.6401055e-02
 -2.6393363e-01
 -8.0692774e-01
  6.6836125e-01
 -2.7060914e-01
 -6.8130299e-02
  8.1914049e-03
 -2.3366658e-02
  4.9312907e-01
  1.1581721e-01
 -9.8384574e-02
  2.4076593e-01
  2.9377431e-01
  1.0770144e-01
 -4.2919207e-02
  5.3583026e-01
  5.7963315e-02
  1.7716648e-02
  5.6069478e-02
  8.6081307e-03
  5.3976789e-02
  2.8495288e-01
 -9.3892343e-02
 -1.5773686e-02
  3.1973830e-01
  3.7604030e-02
 -3.5539892e-02
  7.1991861e-02
  2.4962677e-02
  1.1501093e-01
  8.2584098e-02
  2.9118139e-01
 -4.8524749e-02
 -8.7665536e-02
 -4.4064298e-01
 -2.0958651e-02
  7.8940481e-02
  5.1414835e-01
 -5.2014243e-02
 -6.2486279e-01
 -3.4759024e-01
  7.4985631e-02
 -2.0947343e-01
  8.1325404e-02
  1.1075711e-01
  7.0730790e-02
  7.5480208e-02
  1.1232150e-01
 -5.5605237e-04
  3.6324795e-02
  4.6356443e-02
  6.4042568e-02
 -6.4055547e-02
  4.4472266e-02
 -9.9575743e-02
  1.0338186e-01
  1.8589601e-02
  8.1168786e-02
  7.1515493e-02
 -1.6412286e-01
 -9.5094465e-02
 -7.3053949e-02
 -8.9865908e-02
 -6.2890567e-02
 -3.6304060e-02
  1.1241134e-01
 -1.6002886e-01
 -1.8555321e-02
 -3.2357827e-02
 -9.9406559e-03
  7.3522046e-02
 -2.0425196e-01
  2.1273610e-01
  1.2635784e-01
  7.4926816e-02
 -1.6511653e-01
 -1.6035853e-02
  1.8088806e-02
  1.0390487e-01
  6.9916360e-02
  7.9691179e-02
 -1.5046290e-02
  1.5098890e-02
 -8.7535828e-02
  5.8971386e-02
 -1.8274324e-02
 -2.3867013e-02
 -2.1930572e-02
 -2.5441952e-02
 -6.0342527e-03
 -1.5181964e-03
 -2.1819061e-02
  1.4068078e-02
 -5.2891555e-03
 -8.0253661e-02
  8.0366782e-04
 -1.1829970e+00
  6.0806135e-03
 -4.2929851e-02
  1.3577180e-02
  1.2729607e-02
  9.9206138e-03
  2.5678505e-03
 -5.7805926e-03
  2.1148160e-02
  1.0722825e-02
  1.4160943e-02
 -1.7997308e-04
  1.1898775e-02
  3.6342263e-03
  3.0357456e-03
  1.7922442e-02
 -2.2277812e-02
  6.4044832e-03
 -1.3074966e-02
 -2.6524838e-05
  7.7067278e-02
 -8.4309550e-03
 -2.9992580e-03
  2.0895531e-02
  1.6256001e-02
  6.6056191e-03
  2.2559790e-03
  2.4295669e-02
 -8.0124149e-03
  5.0845975e-03
  1.7151289e-02
  1.3089835e-02
 -1.9569812e-02
  1.2817369e-02
  8.8008093e-03
  6.8869837e-02
  3.8370746e-03
 -3.6576245e-04
  4.2795246e-03
  5.8424873e-03
  6.6401064e-03
  9.8382626e-03
 -4.3081921e-03
  6.8341549e-03
  1.0106365e-02
  7.5807814e-03
 -1.9577540e-02
 -9.5374674e-02
 -7.0787877e-02
  8.5988417e-03
 -2.2742987e-02
  2.2530785e-02
  5.6451272e-02
  2.6791686e-02
  5.1160913e-02
 -2.5704831e-02
  9.3248244e-03
 -1.9052643e-02
  6.2006749e-03
 -9.2166178e-03
  9.4893696e-03
  2.9302234e-02
 -1.4392762e-02
 -9.0167383e-03
 -8.8583482e-03
  2.0529708e-02
  4.5476690e-02
  1.2997923e-02
  2.5291666e-03
  1.3060319e-02
  1.6249599e-02
 -5.3481895e-02
  1.6239455e-02
 -1.5241727e-02
 -3.4791207e-01
 -1.8390620e-02
 -1.6399318e-02
  2.8565225e-01
 -4.8454680e-02
  1.5863702e-01
 -1.0960206e-02
 -4.4158068e-02
 -2.0543426e-02
 -2.7860867e-04
 -1.7065823e-02
  8.4762797e-03
 -3.7587840e-02
 -2.5846509e-02
 -5.1643094e-03
 -1.4190804e-02
  2.8416573e-03
  7.7850381e-03
  1.8051816e-02
 -1.1722783e-02
  5.8582113e-03
 -3.8263857e-02
  8.7607056e-03
 -1.3035686e-03
 -4.5029921e-03
 -1.4022794e-03
  1.1396301e-02
  2.0413715e-02
 -9.6470207e-02
 -1.4728694e-01
  2.4527894e-02
 -2.2615055e-02
  1.3808244e-01
 -6.4966194e-02
 -1.2305901e-01
  4.8631366e-02
 -1.7446872e-02
 -2.0235958e-02
 -1.1168629e-02
  1.5971774e-02
 -9.0196870e-02
 -1.5578595e-02
  1.2040174e+00
  7.0827729e-03
  7.8299334e-03
 -5.0815735e-03
  4.7797225e-02
 -1.4396501e-02
 -5.6746222e-02
  1.6650688e-02
 -2.6536634e-02
  8.7689467e-02
  2.8012358e-02
  5.4921303e-02
  2.7527397e-02
  3.7270311e-02
  3.2950263e-02
  3.9050952e-02
  8.0873236e-02
  3.1623638e-03
  2.1826999e-01
  5.5026259e-02
  3.4373965e-02
  3.2022476e-01
  2.8440990e-02
  2.6412597e-01
 -5.1130828e-02
  5.8550570e-02
 -1.0199230e-02
 -1.9210619e-04
 -6.0346012e-04
 -2.3983739e-02
 -3.6419619e-02
 -1.2983163e-05
 -1.2673531e-02
  6.6410221e-02
 -5.8990195e-03
  2.0278299e-04
  9.6934820e-03
 -1.5532405e-02
  4.9605936e-02
  3.0411249e-02
  4.5259628e-01
 -2.4364965e-01
  3.0550810e-03
 -1.9671687e-01
 -6.3702323e-02
 -1.5633475e-02
  1.4881639e-01
  3.8659103e-02
  2.5337646e-03
 -2.1338783e-02
  1.6592840e-02
  7.4594915e-02
  1.1056481e-02
 -1.6787419e-02
  2.1946491e-03
  7.4496367e-03
  1.1841517e-02
 -3.8570575e-02
 -1.7511747e-04
 -4.3356535e-01
 -1.1308588e-02
 -1.2531009e-02
  1.3955709e-01
  3.4232531e-02
 -1.0419924e-02
  2.5419153e-02
  3.4517355e-02
  1.5127156e-02
  2.5880951e-02
  3.1415388e-02
  4.0383406e-02
  6.1111799e-03
  2.2306008e-02
  1.2583438e-01
  1.2283643e-02
  2.3647321e-02
  1.6045390e-02
 -1.7278360e-02
 -1.5077819e-02
  3.6223713e-02
  1.1490356e-02
  4.7892248e-03
  2.4978735e-04
 -6.5523358e-03
 -2.1272341e-02
  2.0764908e-02
  1.7549426e-03
  1.8717667e-02
 -1.0000108e-01
  1.5756369e-02
  1.6043633e-02
 -2.0975716e-02
 -7.2630179e-01
 -4.6512321e-01
  1.0670789e+00
 -4.6304542e-01
 -4.3839148e-01
 -1.1890217e+00
  1.3604392e+00
 -2.2618155e-01
 -7.2133923e-01
 -5.1550053e-02
  2.3785263e-01
 -8.2699187e-02
 -1.6614361e-01
 -2.0558397e-01
  4.8047755e-02
  4.0711451e-02
 -1.7899357e-01
 -2.9059044e-01
 -5.2543882e-02
 -2.0449208e-02
 -2.1979019e-01
 -4.8891217e-01
  3.9178558e-02
  3.1289724e-01
  3.1701586e-01
  5.2796000e-01
  4.6226302e-01
 -5.5957694e-02
 -1.3941841e-01
 -2.8581065e-01
  4.3221787e-01
 -2.2253057e-01
 -1.7629254e-01
  3.0353823e-01
 -1.6647179e-01
  5.4472989e-01
 -1.0180952e-01
  7.7709563e-02
 -3.3333787e-01
 -2.7100084e-02
  7.7970698e-02
 -2.2570464e-01
 -6.0178313e-02
 -7.2476454e-04
  8.7018780e-02
  7.1400464e-02
  2.1310876e-01
 -1.3400925e-02
  2.5416994e-01
 -1.4231791e-01
  5.9950810e-02
 -1.8507926e-02
 -8.0840051e-02
  3.5905469e-02
 -7.1199299e-03
 -3.1550191e-02
  3.0176878e-02
  4.3892842e-03
  1.4453059e-03
 -4.7628284e-01
  3.3396850e-03
  6.9486573e-03
  2.9798101e-03
  3.7496262e-03
  1.1334182e-02
  6.9193430e-03
 -1.2403556e-02
 -5.0792872e-04
  1.6297534e-03
  4.7108177e-03
 -1.3400543e-03
 -3.5523835e-03
  2.6126206e-03
  3.4390278e-02
 -5.3360779e-03
  1.6995002e-02
 -1.2366202e-01
  5.4404754e-02
  1.8045722e-02
 -1.6349252e-02
  1.8665729e-02
  5.1777711e-04
 -6.2616509e-03
 -1.8797349e-04
 -2.0997676e-03
 -6.5772407e-02
 -2.3141878e-02
  5.4622721e-03
 -1.2854463e-03
 -8.9744339e-03
 -2.9453335e-03
  1.0719589e-03
 -1.5853735e-02
  1.8519762e-01
  2.3127380e-03
 -2.3021422e-02
 -9.5913811e-03
 -3.6354642e-04
  1.7116865e-02
  2.7654137e-02
  1.2094530e-02
 -6.5410562e-04
 -1.2600730e-03
 -1.1951280e-02
  8.8985078e-03
 -6.6726957e-03
  1.5236348e-02
  1.0625106e-02
  1.0386261e-01
 -7.3574528e-02
 -4.4105339e-01
 -1.4262219e-02
  2.3373382e-02
  4.4172084e-01
  2.9140951e-02
  3.9327566e-02
 -2.0828761e-02
  3.2538757e-02
 -2.8614623e-02
  8.6052129e-03
 -1.7430913e-02
  3.6346316e-02
 -7.9434961e-01
 -4.2308174e-02
  5.7813190e-03
 -3.7332349e-03
  5.7190382e-03
 -2.6245669e-02
  1.4189982e-02
 -2.9598517e-02
 -2.4939140e-02
  9.2738373e-03
 -3.0203398e-02
  5.5555198e-02
 -5.2848939e-02
  1.3466081e-02
  1.3060125e-02
 -9.4498694e-02
  2.3332555e-02
  4.0479198e-02
  5.8605213e-02
 -4.2739771e-03
 -4.9340120e-03
  7.6475464e-02
  1.7719358e-02
  2.7174149e-02
  3.3379529e-02
 -1.9299418e-02
  1.5837159e-02
  6.1119065e-02
 -1.4640045e-02
  3.2753997e-02
 -1.8129673e-02
 -2.7319798e-02
 -2.8013520e-02
  1.8493842e-02
 -9.8218191e-03
  4.9370509e-02
  8.5567608e-02
  1.2876680e-02
  1.2227119e-02
 -6.8170093e-03
  1.9169448e-01
 -1.2791346e-01
 -2.7669585e-01
  2.5716531e-01
  6.4579040e-02
 -5.7860818e-03
 -5.3980494e-01
 -1.0160077e-01
  7.7060916e-02
  1.0860963e-01
 -4.2281747e-02
  9.4726877e-03
 -1.1486941e-01
  3.9524458e-02
  4.1211911e-02
 -1.1342206e-01
 -1.7358940e-02
  2.9755535e-02
  1.7185627e-02
 -8.8456459e-02
  2.1114571e-01
 -3.5780303e-02
 -2.0842654e-01
 -3.2785319e-02
 -7.2917178e-02
  1.3054283e-01
 -8.1319295e-02
  5.9455551e-02
 -2.4932172e-02
  1.2624206e-01
  3.8312789e-02
 -2.9612482e-02
  1.6167638e-01
  5.5513632e-02
  2.1568591e-02
  4.1573249e-02
  5.9051514e-02
 -1.2009139e-01
  8.2977466e-02
 -5.9018556e-02
  1.9883504e-03
  1.5430076e-01
 -1.6972548e-01
 -1.3725040e-02
 -3.4115721e-02
 -4.5062553e-02
 -5.2092113e-02
  1.9734547e-02
 -2.2370340e-02
  1.8691058e-01
 -4.9741715e-02
  1.8681820e-02
 -6.6723092e-04
 -2.3402795e-02
  4.5777481e-02
  7.5427875e-02
  6.3432078e-03
  1.2784700e-04
  3.2146264e-02
 -6.9542103e-02
 -1.7587325e-01
 -7.4158497e-02
 -1.0494350e+00
  4.6743315e-02
 -1.8290060e-02
  1.7590003e-02
  2.5844388e-02
  4.0442027e-02
 -1.2384978e-02
 -1.3828600e-02
  7.0484400e-02
  1.5435324e-02
  3.8471591e-02
  2.2921581e-02
  4.1377425e-02
 -1.2334887e-02
 -7.0687709e-03
  1.6353186e-02
 -6.7502998e-02
  3.0728130e-02
 -1.6738666e-02
  1.0410627e-02
  4.6295510e-03
 -4.7321669e-03
  8.4386216e-03
  2.8022962e-02
  5.4583143e-02
  1.2639248e-02
 -4.8409044e-03
  2.9627440e-02
  1.2889551e-02
  1.4199390e-02
  6.6264056e-02
 -1.2298794e-02
  1.4793860e-02
  4.2382225e-02
  3.5323761e-02
  1.4401022e-02
  7.8030322e-03
 -2.9181377e-03
 -1.2856695e-02
  3.7755892e-03
  1.3900161e-04
  2.7858131e-02
 -1.5973559e-02
  8.3775567e-03
  2.7804613e-02
 -1.7366948e-02
 -1.0549304e-01
 -1.2758188e-02
  9.1384701e-02
  1.5194151e-01
 -4.6602052e-02
  2.1038871e-01
 -1.5343944e-02
 -7.3990792e-02
  1.2443296e-01
 -6.5213390e-02
  3.2040261e-02
  5.2893586e-02
 -3.9445929e-02
  3.0995430e-02
 -7.7748001e-03
  8.4952660e-02
  1.2488823e-02
  9.1040554e-03
 -2.5248300e-02
  5.3990137e-02
 -3.7930757e-02
  5.9063047e-02
  8.0094241e-02
 -2.0220561e-02
  2.8037630e-02
 -1.2197181e-01
  2.4272203e-03
 -5.5021416e-02
 -7.5389445e-02
 -5.8952473e-02
 -3.1865731e-02
 -2.9572709e-02
 -1.0906941e-01
 -4.7500592e-02
 -3.0504374e-02
 -9.8841265e-02
 -7.7205405e-02
 -1.6165853e-02
 -2.4049436e-03
  8.5343294e-02
  1.9103300e-02
 -2.2283834e-01
  8.2453534e-02
 -3.0091712e-03
  1.2064552e-01
  2.2680037e-02
  3.5676740e-02
 -1.1432159e-02
 -1.1851174e-01
 -9.4049804e-02
  3.5958190e-02
  5.5554204e-02
  6.0143252e-03
  2.7194127e-02
  1.9288220e-02
  1.2205556e-03
 -7.0923744e-03
 -1.4885363e-02
  1.5095071e-01
  8.3672320e-03
 -1.5374802e-02
 -2.8244995e-03
 -1.5558317e-02
  1.4765484e-02
 -2.9047655e-03
  3.3486849e-03
  1.1845149e-02
  7.1303993e-02
 -2.0277852e-03
 -1.3193463e-02
  3.3129909e-04
  1.3883360e-02
  1.0839719e-03
  2.9677102e-02
 -1.7034299e-03
 -6.6053704e-03
 -7.9962499e-03
 -5.8620940e-03
 -4.3864679e-02
 -4.3685250e-03
  2.3981605e-03
 -4.0153153e-03
 -4.9388859e-02
  1.6880989e-02
 -3.2233703e-03
  1.9858036e-02
  5.6603407e-03
  6.7372201e-03
  3.4080099e-03
 -1.0277550e-03
 -9.6726150e-04
 -4.0681432e-03
  4.6044267e-03
 -1.2390894e-02
 -2.1450508e-03
  5.5222833e-03
  1.2179728e-03
  8.6951107e-03
  8.3724195e-03
 -7.5714216e-03
  1.9566938e-02
  1.0191767e-02
 -7.5201754e-04
  9.0442812e-03
  2.7437022e-04
 -2.3074223e-01
  9.2817079e-03
 -3.9737364e-03
  2.7603142e-02
 -4.6660889e-02
  1.6035050e-02
  3.1591649e-03
 -1.6727163e-02
 -8.6368658e-03
  3.8381692e-02
 -3.0656236e-03
  1.2268644e-02
 -2.1637440e+00
  1.2547567e-02
  1.0543888e-02
  3.9375946e-03
  4.5190070e-02
 -2.9382904e-03
  1.5757632e-02
 -1.4511092e-02
  2.3785535e-04
  6.4158707e-04
 -9.0728715e-02
  2.3470921e-03
  1.3754366e-02
  1.5643863e-02
 -5.6492310e-04
 -4.8824423e-03
 -3.2024696e-02
  4.0328386e-03
 -8.7319855e-03
 -1.0802632e-02
 -7.0207701e-03
 -2.8897789e-03
 -5.1522863e-01
 -2.9428879e-02
  2.1995995e-03
 -1.2994559e-02
 -3.5353135e-02
  1.9420870e-01
 -1.8272166e-03
 -2.5479440e-02
 -4.4583380e-03
  7.0730443e-03
 -1.9442745e-02
 -1.3002629e-02
  2.1904106e-04
  6.0353880e-03
 -1.3859656e-02
 -3.1294569e-02
 -1.3561476e-02
 -8.4071383e-03
 -1.2418116e-02
  1.8151479e-03
  3.3149596e-03
  1.0565780e-02
 -7.5825356e-04
  1.7430589e-02
  8.0819409e-03
 -1.6332902e-02
 -3.3652231e-01
 -3.0047963e-03
 -1.4492769e-02
 -1.1702434e-02
 -2.1191284e-02
  1.9021824e-02
  6.2749512e-04
 -5.7815542e-03
  3.4807504e-03
 -5.6249658e-03
  2.9087563e-03
 -5.8573619e-03
 -5.7700067e-03
  1.5354820e-02
  7.5427629e-04
  2.9967353e-03
 -5.5690981e-03
 -6.8454389e-03
 -1.2528651e-02
 -1.8893428e-02
 -4.6345266e-03
 -1.0724064e-02
  1.8426228e-02
 -1.0137440e-02
 -3.1605756e-03
 -3.8997687e-03
  1.1847108e-02
 -1.7755484e-02
  2.6456598e-02
  5.5903653e-03
  5.5492755e-02
  1.3024273e-02
  3.2684319e-02
  2.9372104e-02
  5.0264644e-03
  2.8100952e-03
 -1.1633416e-02
 -3.0316284e-03
  1.3562081e-02
 -7.9112640e-03
 -3.3802289e-01
 -1.9602682e-02
  1.8474613e-03
  1.7726874e-03
  2.7564403e-02
 -2.7624603e-02
  1.7352590e-02
 -5.9496751e-03
 -5.9319995e-03
  8.6549269e-03
  1.0050440e-02
 -2.1708552e-02
  1.0645427e-01
 -2.4222159e-01
 -2.6248443e-01
  9.7435311e-04
 -2.9907966e-01
 -4.7332451e-01
  5.4440665e-01
  5.9000510e-01
  1.7339867e-01
  3.6751036e-02
 -6.1841909e-02
 -8.3907276e-02
  4.8754957e-02
  2.0402214e-01
 -3.0674910e-02
  1.1762430e-02
  1.1248416e-01
  6.9537818e-02
 -2.0573145e-02
  2.0783064e-01
 -3.3662967e-02
  3.9472455e-01
  3.3740449e-01
  4.2227668e-01
  5.0292498e-01
  1.3421653e-01
  2.1924162e-01
  2.2675641e-01
  1.2203635e-01
  1.3039979e-01
  7.0156825e-01
  3.5272263e-02
 -4.6036627e-02
  8.6390741e-02
 -1.8235545e-01
  1.2390193e-01
  5.2632743e-01
 -1.3508723e-02
 -1.0316250e-01
  1.8291321e-01
  2.4959378e-01
  7.3083006e-02
  1.7483418e-01
  7.8879237e-02
 -9.6715257e-02
 -1.5702677e-01
  8.7378118e-03
 -1.0603305e-01
 -1.0849998e-01
  6.4079322e-02
 -1.4204176e-01
  5.7806622e-02
  1.8579772e-02
 -3.9244434e-01
  2.5905028e-01
 -8.7127286e-01
 -5.7134604e-01
 -3.8293824e-01
 -3.4358971e-02
 -1.0463552e+00
  3.9199945e-01
  1.1978960e+00
  2.8663522e-01
  1.2563309e-01
  6.6974603e-02
 -1.4302874e-01
  8.5784632e-01
  1.1357528e+00
 -2.0590810e-01
  1.8104111e-01
 -8.1716932e-02
  1.1333552e-01
 -8.9488134e-02
  6.1520392e-01
 -1.2655284e-01
 -2.4521489e-01
  1.9096495e+00
 -3.6771864e-01
  5.5591112e-01
  8.0160033e-03
  7.6969820e-01
  3.6106813e-01
  8.7687880e-02
 -2.7843332e-01
  1.0964811e-01
  1.2404845e+00
 -3.2194445e-01
  5.0674994e-02
 -6.0641336e-01
  2.2446482e-01
  4.1605780e-01
  4.7002606e-02
 -2.8407672e-01
  1.6094540e-01
  7.7751911e-01
  3.4678760e-01
  3.6735613e-02
 -1.0359560e-01
 -1.8086962e-01
 -2.6864436e-01
  7.1143985e-02
 -4.8524674e-02
  3.4915254e-01
  2.5851151e-01
 -2.0033616e-01
 -3.4894530e-02
 -3.0933660e-01
  2.0737855e-01
  4.2959327e-01
 -5.7341352e-02
  1.6900671e-01
  1.6307263e-01
 -3.0452979e-03
  1.6843778e-03
  1.0731530e-01
  9.3538511e-01
  1.4880933e-01
 -4.7518309e-02
 -8.8295275e-03
  5.1703835e-03
  1.3179757e-02
 -2.3316373e-03
  1.0796387e-02
  2.7618113e-01
 -4.4997554e-02
 -1.1798982e-04
 -1.2121440e+00
 -1.6988468e-01
  4.7714207e-02
  9.8960735e-02
  5.9004985e-02
  4.2868701e-01
 -3.1271532e-01
  3.8857117e-01
  8.1052244e-02
 -3.3577584e-04
  2.1790836e-02
  3.9307890e-03
  4.9802750e-01
  3.6452379e-02
 -4.2583331e-01
 -2.1803474e-01
  6.6530881e-03
  1.0495340e-02
  2.3894481e-01
  1.2890358e-02
  7.7489662e-01
 -2.8402325e-02
  7.3936763e-03
 -3.6488544e-02
  7.1771659e-02
 -2.1427559e-02
  2.3820368e-03
  7.2121038e-03
  9.1829887e-03
  9.0715599e-01
  1.6127986e+00
  7.9865595e-03
  1.7232805e-01
 -2.2468133e-01
 -1.8492652e-01
  4.0909145e-02
  4.3860152e-02
 -7.9422044e-03
 -2.1109988e-01
 -1.9215529e-01
 -3.1745678e-01
 -3.0449948e-01
 -6.4503007e-02
  2.6267178e-03
  1.3872464e-01
  1.8060146e-02
 -9.2100196e-02
 -4.4035691e-01
 -1.2555554e+00
  3.6901928e-02
 -3.3437219e-01
  6.4111406e-01
 -2.0030515e-01
  2.3650181e-01
  3.1631306e-01
  3.0622688e-01
 -8.3773367e-02
 -7.7196705e-01
  3.5752743e-01
 -1.2473864e-02
  5.5284031e-02
 -8.3801389e-02
  1.0070220e+00
  4.7788523e-02
  6.4869267e-01
 -3.6985663e-01
  5.8457844e-02
 -5.9767205e-02
  1.0778596e-01
  8.0067694e-02
 -6.6311318e-01
 -2.6600529e-02
  9.3079515e-02
  2.2732908e-01
  1.3714026e-01
 -1.5243043e-01
  1.2625318e-02
 -3.2969911e-02
  2.2659624e-02
  3.7062421e-01
  6.8195564e-01
  1.2466712e-01
 -2.7103547e-02
 -3.4209084e-02
  8.7583764e-03
  1.5382294e-02
 -2.4986904e-02
  2.1158891e-02
  2.4620572e-02
 -9.0040835e-03
  6.9552839e-02
 -1.1932663e-02
 -3.8158648e-02
 -3.6026869e-02
 -5.4374650e-02
 -2.7094087e-02
  8.4054732e-04
 -5.4255020e-02
  2.3637251e-03
 -3.2007811e-03
 -3.4206137e-02
  3.5808634e-03
 -4.3995328e-02
 -2.4929063e-02
 -6.0089175e-02
  3.7175745e-02
  4.3867357e-02
 -1.3023610e+00
  1.0982307e-02
 -3.7643883e-02
  8.8029858e-03
 -3.9121687e-02
 -1.3165924e-02
  6.8390295e-03
 -2.0089583e-02
  2.9570989e-02
 -5.7120271e-02
  8.8139065e-03
  1.5483982e-03
  3.5585430e-02
 -9.9560032e-03
  2.7991440e-02
  1.5717599e-01
  3.4735387e-04
 -1.2183253e-02
  1.4717678e-03
 -1.6923571e-02
 -3.4681231e-02
  2.8483232e-02
  2.0934625e-02
  1.3485842e-02
  3.1058472e-02
 -1.3900244e-03
 -9.5049851e-03
  2.3323316e-02
 -1.6881075e-02
  3.5012860e-02
 -7.9582602e-02
 -2.7308181e-01
  3.4149330e-02
  6.3891745e-01
 -4.0353290e-04
  2.4727835e-01
  1.3981175e-01
  4.5465037e-02
 -3.0391449e-02
 -7.4904680e-02
 -5.2824635e-02
  2.2309002e-02
 -4.1924849e-02
  2.3853363e-02
 -1.0793210e-01
 -8.6981161e-03
 -1.5201718e-01
  5.2791387e-03
  7.1657705e-01
  2.0231545e-02
  5.6234498e-02
 -9.6326537e-02
  9.3237646e-02
  2.0920914e-01
  9.9276230e-02
 -1.6773492e-02
 -4.6295244e-02
  8.1389137e-02
 -8.4604822e-02
  4.3968908e-02
 -6.2579634e-03
 -6.7099482e-02
  5.9428684e-02
 -6.9511287e-02
 -3.4902173e-01
 -1.9023089e-02
 -1.5709002e-01
 -1.2074111e-02
  7.1791541e-03
 -8.3674043e-02
  4.0829130e-02
  3.4965735e-04
  2.6850196e-02
 -2.3768140e-02
 -3.9897282e-02
  1.7045444e-02
  1.7885786e-02
  1.5102747e-02
  6.6999726e-02
 -2.7105587e-03
  2.0512290e-02
  5.9557032e-02
 -1.4555627e-02
  3.0688721e-01
  1.0896501e-01
 -1.9192306e-02
 -1.3518428e-02
 -4.6975236e-02
 -5.8176897e-02
  7.8649372e-02
 -3.8950453e-03
 -2.7075492e-02
  1.1357722e-02
  5.4820944e-02
 -5.3879309e-01
 -3.5835316e-03
  2.7149661e-02
  2.8264779e-03
  6.9813624e-02
 -1.8782111e-02
 -8.1113558e-03
  3.1455651e-01
 -2.2287950e-02
  2.1733831e-01
  1.8148927e-02
 -1.0741506e-01
 -3.6739029e-02
 -6.9196634e-03
  1.2640189e-01
 -1.8602531e-02
  4.5957081e-02
  7.3131742e-03
  5.9051517e-02
  2.3830840e-02
 -2.1452077e-03
  4.6886387e-03
 -2.0020472e-02
  5.2979585e-02
 -3.7038216e-01
 -6.9180708e-03
 -6.3091569e-02
  3.0231658e-02
 -2.1165725e-02
  2.7392328e-02
 -2.9912893e-02
  2.9289702e-02
 -2.1575654e-03
  2.1010516e-02
  4.8733860e-02
 -6.7922786e-02
 -2.8115658e-02
 -2.0596391e-02
 -4.7461946e-02
 -8.7724393e-03
 -4.2295777e-03
  3.7349279e-03
 -1.7125456e-01
  7.2977706e-03
 -1.2731428e-02
  1.8967131e-01
  2.4035661e-02
  1.7762572e-01
  1.4127571e-02
  6.5182716e-02
  1.6474839e-02
  2.3224993e-02
 -1.9303240e-02
 -3.6572225e-02
 -2.4568044e-02
 -1.1317009e-03
 -2.2092734e-02
  1.3406039e-02
 -6.6650391e-02
  4.6729768e-04
  1.6550791e-03
 -4.6189594e-01
  8.0795810e-02
 -3.0945061e-02
  1.0700857e-04
  9.4140647e-03
  1.4048455e-03
  4.5604134e-01
 -2.6888043e-02
  1.3016758e-02
 -3.1064592e-02
  1.9216786e-01
 -2.1892264e-02
 -1.6736969e-02
  3.9058987e-03
  4.3670124e-01
  2.4079395e-02
 -3.4621570e-02
  1.4979708e-02
  2.4191099e-03
  9.5676994e-03
 -1.6367629e-02
  6.8019819e-03
 -1.0587744e-02
  7.8231664e-03
 -6.0569816e-03
 -4.3127652e-02
  1.2703450e-01
 -2.3508998e-02
  2.2523737e-02
 -6.5175002e-03
 -1.2233040e-02
  2.7818710e-02
 -4.8146397e-03
 -4.1203280e-03
  3.0404772e-03
  7.7794632e-03
 -2.7668608e-02
  7.9561897e-02
 -9.5032994e-03
 -1.2938553e-02
  1.7989112e-01
 -2.3027006e-01
 -6.1443489e-02
 -1.6410464e-03
 -2.6295222e-02
 -2.3758426e-02
 -7.2211504e-02
  4.1750953e-02
  2.3789823e-02
  3.9832201e-02
  7.1738750e-02
  9.4653770e-02
 -2.4102151e-02
  5.3234164e-02
  4.5824811e-02
  6.5844446e-02
  5.8430973e-02
  7.0844307e-03
  9.9306591e-02
 -4.9813636e-02
 -3.4694657e-02
  3.6513019e-02
 -6.6844530e-02
  7.2921604e-02
 -3.4095645e-02
  7.1565457e-02
 -2.1064901e-03
 -3.0286782e-03
 -1.2080130e-02
 -3.2478977e-02
  9.4460450e-02
  1.7653378e-02
 -3.1392435e-03
  3.4292927e-01
  9.3286866e-03
 -2.4111997e-03
  8.1081413e-02
 -3.5026050e-03
  2.9642293e-02
 -8.0731889e-04
  2.4145789e-02
  6.8096153e-02
 -3.2532640e-02
 -2.0302551e-02
 -2.8816480e-02
 -3.8508590e-02
  5.2511590e-03
 -6.5603643e-03
 -1.4839835e-02
 -3.9580498e-02
  2.2671137e-02
  9.9527456e-02
 -7.5615928e-02
 -1.1194890e-02
  7.6600842e-02
  1.0125261e-02
 -1.8107686e-02
 -1.2632816e-02
  1.0247205e-02
  4.0316723e-02
  5.3185672e-02
  6.2613554e-02
 -1.1030780e-02
  5.6778874e-02
 -2.5492575e-02
  8.9585789e-02
 -2.8871473e-02
  2.4610540e-02
  7.5565621e-02
 -1.6469128e-01
  3.0151898e-02
  1.0872860e-02
  1.1312693e-01
 -5.1536437e-02
 -4.8970081e-02
  5.1505297e-02
 -3.1491607e-02
  7.6606125e-02
  1.0180948e-02
  5.3066179e-02
  9.5380467e-01
 -1.7105250e-04
  2.0898281e-02
 -4.6246573e-02
  7.4734196e-02
  8.8753127e-02
  1.2602748e-03
 -5.7346173e-02
  1.8807063e-02
  1.0398968e-02
  5.0962523e-02
  4.6994049e-02
  2.8726684e-02
 -5.7745185e-03
  2.9461848e-02
  4.1451495e-02
 -3.3374116e-02
 -1.4840151e-02
 -2.3986246e-03
 -6.3588627e-02
 -1.0755222e-02
 -1.2793354e-02
 -2.5314467e-02
  5.3151827e-02
 -2.6507931e-02
  3.3350777e-02
 -2.4922329e-01
  4.6574544e-02
  4.8086110e-01
 -6.9085337e-02
  1.0883735e-02
  1.9666201e-02
  1.7144126e-01
  1.7853767e-01
 -1.2895444e-01
 -1.3381498e-01
  5.1844571e-02
 -9.3813911e-02
  7.1848149e-04
 -1.6294749e-01
  2.6440855e-02
  2.5291355e-02
 -7.4514508e-02
  4.6492666e-02
  4.9692512e-02
  1.3101217e-02
 -1.0070609e-01
  6.0662273e-02
  8.3328418e-02
  5.2610561e-03
 -1.7465687e-01
 -1.1785612e-01
  2.3981174e-02
 -1.4948413e-01
  8.0953428e-04
 -8.1905024e-03
 -4.6530612e-02
  3.0826882e-02
 -1.1378906e-01
 -1.4037678e-02
  2.4562351e-02
 -9.4326176e-02
 -5.1180329e-02
 -1.1998591e-02
 -1.0193475e-01
  1.8056761e-02
 -5.9221398e-02
  2.3173103e-02
 -3.7682783e-02
 -9.2091449e-02
  3.0243097e-02
  6.2349908e-02
 -3.0264683e-02
  1.0589822e-01
  5.0689410e-03
  4.5864796e-03
  9.3043201e-02
  2.2479496e-03
  1.7584054e-02
 -1.0344918e-02
  8.3423342e-04
  3.4085938e-03
  1.3429955e-02
  1.6797800e-02
 -2.2303513e-03
  1.7261388e-02
  1.4644230e-02
 -2.9132526e-02
 -3.6697038e-02
 -2.4389649e-02
  1.5838550e-03
 -2.1146096e-02
 -6.5298951e-03
 -5.9736848e-02
 -2.5288011e-03
 -8.1412112e-03
 -3.0818041e-02
 -1.2894128e-02
 -3.1748638e-02
 -3.1561729e-02
 -6.8691514e-02
  2.3703447e-02
  3.2531604e-02
 -1.2324044e-02
  7.5480696e-03
 -3.8173869e-02
  1.5906209e-02
 -2.9157121e-02
  8.1882598e-03
 -9.4093503e-03
 -3.9915601e-03
  3.4621768e-02
 -4.7640719e-02
 -3.1379886e-02
 -5.7129925e-03
  5.3139357e-04
  3.2774812e-01
 -1.2924789e-03
 -5.9915766e-02
 -1.0114035e-02
 -1.8772241e-02
  1.8441720e-03
 -1.2146704e-02
 -6.1566781e-02
  1.1587206e-02
  2.3519067e-02
 -8.8900258e-04
  3.7106261e-02
 -4.5608664e-03
 -5.1080487e-03
 -2.0041509e-01
 -1.1704595e-02
  4.4908892e-02
  1.0436562e-01
 -1.8703728e-03
 -3.5307158e-02
  6.0078395e-03
 -2.8990222e-02
 -5.0165042e-02
 -1.9006165e-02
 -5.3943038e-02
  9.0367593e-02
  1.4196655e-01
  1.0859321e-01
 -1.8830528e-02
  6.1944865e-02
 -1.6867623e-02
  1.8834837e-01
 -3.9306067e-02
  4.0227633e-02
  7.4189126e-02
  4.9488060e-02
  1.2821509e-01
  1.7953372e-02
  1.4882521e-01
 -6.2080499e-02
 -9.0772308e-02
  4.9415193e-02
 -5.0568782e-02
  1.1737418e-01
 -5.6244198e-02
  1.2964644e-01
  5.1106919e-02
  1.6343338e-02
 -2.5058717e-02
 -9.4353341e-02
  1.6197632e-01
  4.7925130e-02
  3.6137714e-04
  3.2947656e-02
  3.3387542e-02
 -2.2971570e-02
  1.2396815e-01
  7.4265883e-03
  5.6204658e-02
 -1.9443765e-02
  4.8358154e-02
  8.4377639e-02
 -1.2459329e-02
 -2.3159306e-02
 -3.1012552e-02
 -1.1705931e-01
  1.6967609e-03
 -2.6353756e-03
 -4.3654006e-02
  1.6858875e-03
  9.1554481e-04
 -1.1245156e-02
  2.8974877e-03
  2.1516759e-04
  1.4081434e-02
 -3.1793799e-02
 -1.6167166e-02
  1.4369200e-03
  6.6440804e-03
 -3.8826633e-03
 -1.5244712e-02
 -2.0655848e-02
  4.3387683e-03
 -6.2302384e-03
  1.3760705e-02
 -1.6148157e-02
  1.1748345e-02
 -7.4684829e-02
  1.0352687e-04
  1.4342480e-02
 -1.8758513e-02
 -1.0635537e-03
 -1.1106484e-03
  9.4046090e-03
  8.7392824e-03
 -9.8087350e-03
 -5.5796928e-03
 -1.2904867e-02
  1.1576728e-02
 -1.4722324e-03
  2.8558965e-03
  3.8123666e-03
  9.7046345e-03
  1.5057279e-02
  3.7292712e-03
 -5.1965383e-03
 -1.8923692e-03
  1.7073134e-02
 -2.1866476e-03
  1.6603739e-03
 -1.1609727e-02
  3.0411126e-03
 -8.0383697e-04
  1.5552453e-03
  1.0277467e-01
 -9.1523100e-03
  1.8524182e-01
 -7.4989796e-03
  8.4204291e-04
  1.2503084e-03
  2.8850602e-03
 -1.6781715e-03
  6.6298450e-04
  8.3328903e-01
 -1.2015762e-01
  5.9530392e-02
  6.0953844e-01
  5.4511814e-03
 -1.4081613e+00
 -1.7078869e-01
 -2.1677524e-01
 -2.9658338e-01
  8.7961286e-02
 -7.4760780e-02
 -8.9361638e-02
 -7.9320043e-02
  2.3016341e-02
 -1.1716434e-01
 -8.1352137e-02
 -9.2733309e-02
  3.5785545e-02
  1.2545000e-01
 -2.1303900e-01
 -3.0031762e-01
  5.4647632e-02
  2.3495227e-02
 -7.4165501e-02
  5.5887449e-01
  8.1121005e-02
 -2.1247914e-01
  4.1165404e-02
 -6.6583127e-02
  5.8818012e-02
  1.5604289e-02
  9.0849744e-03
 -3.9418070e-03
  5.8260445e-02
 -8.7820373e-02
 -7.6491609e-02
 -3.6655289e-01
 -7.1163885e-02
 -1.7460647e-01
 -2.0042958e-02
 -1.9729824e-01
 -2.2660780e-01
 -7.3551250e-01
 -2.3169782e-02
  6.1428756e-02
 -2.0949442e-02
 -1.2616080e-01
  9.3238667e-02
  3.2555263e-02
  4.2901598e-02
  2.4156731e-02
  3.6553524e-02
  4.1471859e-03
  1.5319252e-02
  1.6655986e-03
  2.6970619e-02
  2.5871567e-02
 -7.7989977e-03
 -1.4161500e-02
  7.2312583e-03
 -1.8097157e-02
 -4.3499782e-03
  1.3516799e-03
 -2.3135738e-02
  2.3830457e-02
  3.6228176e-02
  2.1809973e-02
 -1.0476009e-02
  3.5932962e-02
 -1.4998946e-02
  4.5076203e-02
  7.4211811e-04
 -3.0001974e-02
  2.4483809e-02
  1.9641111e-02
  2.4953058e-02
 -3.5231984e-03
  6.5366179e-02
 -2.3796361e-02
 -1.8543039e-02
  1.4443431e-02
 -3.1918022e-04
  3.4417488e-02
 -3.1084009e-03
  3.7648704e-02
  2.2029881e-03
 -1.0418247e-02
 -3.0664902e-03
 -1.6404115e-02
  2.9618004e-02
  6.1118724e-03
  4.7396730e-05
 -7.2273067e-03
  2.2162013e-02
 -1.4671608e-03
  4.0343665e-02
 -6.6175112e-03
  1.4181033e-02
  3.8867120e-03
  9.8497514e-03
  2.7662734e-02
 -3.7744757e-02
 -1.0309142e-02
  5.3525236e-03
 -3.2418482e-02
  1.1895454e-03
 -5.8816909e-04
 -9.8458631e-03
 -5.0497509e-04
  3.4974294e-03
  8.2975999e-03
 -9.7001372e-03
 -7.8196870e-03
 -5.4284977e-03
 -2.3135624e-03
 -1.5231231e-02
 -4.5135468e-03
 -1.2277391e-02
  3.7860700e-03
  1.4736124e-02
  7.4764192e-03
  9.7133155e-04
 -9.0540145e-03
 -2.7707273e-03
  9.1160564e-03
 -4.2170174e-03
  1.2922992e-02
  1.2729086e-03
 -1.1822947e-03
  2.6634440e-03
  3.4074192e-03
  3.9645296e-02
 -7.0656985e-03
 -8.0867773e-03
  8.9919558e-03
 -1.3479531e-04
  8.7653473e-04
 -1.2473093e-02
  1.6158670e-03
  4.9700979e-03
  1.3812026e-02
 -2.0383322e-03
 -1.0259107e-02
  6.7798323e-03
 -3.7425375e-03
 -1.8346445e-03
 -1.2584902e-01
 -8.1588365e-03
 -7.1300298e-04
 -4.3590140e-07
 -1.2704439e-02
  5.4432447e-03
 -6.9270766e-04
  6.8703364e-04
 -1.0476845e-03
  3.7752101e-04
  2.5270293e-02
  2.4863805e-03
 -1.1591648e-02
  2.6205480e-01
 -9.6510919e-03
 -2.5081178e-03
  1.0525221e-01
  6.6394351e-02
  1.4089368e-01
  7.1665850e-03
 -4.5427240e-02
 -1.6058147e-01
  5.7422161e-02
 -3.8789086e-02
 -2.4698578e-02
 -8.1110068e-02
  5.7807930e-02
  1.0121214e-01
  8.4167682e-02
 -2.4375556e-02
  8.0355257e-02
 -2.2670817e-02
  1.6337287e-01
 -2.8547121e-02
  5.8536360e-04
 -1.4288506e-02
  7.6995641e-02
  5.2833479e-02
  4.3754559e-02
  1.7339239e-01
 -9.1561943e-02
 -9.8196618e-02
  9.3722187e-02
 -3.9059862e-02
  1.1599579e-01
 -9.5808588e-04
  1.3074873e-01
  3.4834214e-02
  2.5557617e-02
  1.3726924e-02
 -9.7293615e-02
  1.5026249e-01
  8.7871954e-02
  2.8747697e-03
 -3.5993770e-02
  1.7220231e-02
 -7.7492602e-02
  6.5839216e-02
  4.2048514e-02
  5.3300411e-02
 -3.0115301e-02
  4.1167580e-02
  8.7112352e-02
 -4.7073312e-02
 -4.4488430e-02
 -3.8912468e-02
 -1.0867844e-01
  5.5516828e-03
 -1.1952766e-02
 -3.6454506e-02
 -5.3910803e-02
  2.5748285e-03
  4.2643710e-03
 -3.7301864e-02
  1.6919638e-03
  4.8207924e-02
  2.8420664e-02
  1.0767816e+00
  1.1154584e-02
  9.7083718e-02
 -2.0642184e-02
 -1.3547371e-02
 -1.1095227e-03
 -4.1827462e-03
  6.9580297e-03
 -1.6201537e-03
 -8.4859822e-03
 -5.8743251e-03
  3.9986756e-02
 -1.1177147e-03
 -3.0293786e-03
 -2.2996182e-02
 -2.5122035e-02
 -2.4061579e-02
  2.6466789e-02
  6.5434170e-03
 -3.2066993e-02
 -1.3777487e-02
 -2.0521060e-02
 -1.1151035e-02
 -2.1986958e-02
 -3.3153819e-03
 -5.9602512e-03
 -2.8701510e-02
  1.5659502e-02
 -1.5454069e-02
  6.5784693e-02
  1.5704121e-02
  8.1388466e-02
 -1.9810392e-04
  3.0427594e-02
  7.0430092e-03
  4.5758296e-02
 -1.1724025e-02
  4.9689440e-03
 -2.6633698e-03
  4.0248096e-01
  7.9937261e-03
  5.3253848e-02
  2.6954878e-03
  5.0205928e-03
 -1.9996095e-02
  4.5488216e-03
 -7.9540471e-03
  2.2936779e-01
  2.0421029e-03
 -8.6010313e-03
 -1.0369504e-01
  4.3761050e-03
  1.4158485e-02
 -2.8125214e-04
  3.5287868e-02
 -1.2769282e-01
 -1.4752743e-03
  4.5057391e-03
 -6.4836689e-03
 -2.0977946e-03
 -3.9576534e-03
 -1.2521522e-02
  1.6006363e-03
 -2.0213772e-02
  1.2826534e-02
 -3.0844365e-03
 -7.1949880e-03
  5.7949904e-02
 -1.7249217e-02
 -1.7252842e-02
 -5.3380607e-03
  1.6957827e-02
  5.8006523e-03
 -1.7977638e-02
  4.4052317e-03
 -1.2960725e-02
  7.1106409e-03
  8.3393930e-04
  7.8777289e-03
  1.3068432e-03
 -1.1705598e-03
  1.8909415e-02
 -9.3493816e-03
 -2.1184683e-01
  5.2633150e-03
  2.0199188e-03
 -1.8189488e-02
  8.7693483e-03
 -8.2789175e-03
 -1.3890782e-03
 -4.6156533e-03
 -1.2354380e-02
  8.7254429e-01
 -7.9319719e-03
 -2.4761848e-02
 -3.1827115e-03
 -3.1714332e-03
  1.1448450e-02
 -1.6258217e-02
  7.4879206e-03
  2.6497904e-03
 -2.5218862e-01
 -3.0478844e-02
 -3.8101476e-01
 -1.0230961e+00
  1.0591501e+00
  6.8286967e-01
  3.1072082e-02
 -2.3756479e-01
 -1.5775502e-01
  5.9823997e-02
 -9.4486482e-02
 -1.3475858e-01
 -1.0880713e-01
  4.4500489e-02
  1.3887317e-02
 -3.1765051e-02
 -1.8794565e-01
  6.1548844e-02
 -4.8253080e-01
 -3.1706625e-01
 -4.5636925e-01
 -2.7339548e-01
  1.3144030e-01
 -2.0222142e-01
 -1.7485166e-03
  8.6954817e-02
 -2.8701472e-01
  1.4972408e-01
 -1.6600130e-01
 -1.2333522e-02
 -1.1170840e-01
 -2.5254618e-02
  1.6433783e-02
 -6.2577623e-01
  1.0707808e-01
 -1.8901366e-01
 -2.7278331e-01
  3.4615772e-03
  3.3073518e-01
 -2.0328743e-02
  1.8077520e-01
 -2.1672037e-01
 -1.9530894e-01
 -8.8670723e-02
 -1.6453858e-01
 -4.6315983e-02
 -1.8719174e-01
  9.0866692e-02
  9.8544069e-02
 -1.9172758e-02
  1.0661285e-01
  1.6219649e-02
  2.5873708e-03
  4.4196878e-02
 -1.1734967e-02
 -8.4625222e-02
  7.1029544e-02
 -3.1545345e-02
 -1.3856321e-02
  3.0373616e-02
 -4.1685469e-02
 -7.2604053e-02
 -4.0024716e-02
 -2.4079299e-02
  2.6757827e-02
  4.4060830e-02
  4.0240981e-02
 -7.4374327e-03
  8.9198269e-02
 -1.7555356e-02
  6.2533073e-02
 -8.9262438e-01
  3.4266800e-02
  2.3998076e-02
  7.2657876e-02
  1.0426092e-01
  1.1227162e-01
  4.5805801e-02
 -4.4918731e-02
 -4.7596794e-02
  3.5631787e-02
 -1.6220000e-02
  5.7439238e-02
  5.4438278e-04
  4.0396854e-02
  1.2766408e-02
 -1.0438262e-02
 -5.5450767e-02
 -4.1557893e-02
  6.1484404e-02
  8.2171939e-02
  1.0191679e-03
  3.4501635e-02
 -6.4127374e-01
 -7.5177946e-03
  4.0219404e-02
 -1.9731685e-03
  3.5119705e-02
 -2.0713793e-04
  2.0975772e-02
  3.4461554e-02
  4.2117792e-01
 -2.2988210e-02
 -2.0512555e-02
 -5.1053122e-02
 -3.0580985e-03
  5.0077909e-03
 -1.5166242e-02
  3.1727556e-02
  3.7510768e-02
 -2.9978567e-01
  2.6863465e-01
  9.4870657e-02
  2.6756164e-01
 -2.2809424e-01
 -4.3719423e-01
  3.8860893e-01
 -1.3044190e-01
  1.7551823e-01
  1.3906924e-01
 -9.8070383e-02
  2.4015058e-02
  2.1325396e-01
 -1.2920037e-01
  1.3758186e-01
 -9.4208695e-02
  1.6933003e-01
 -2.6756370e-01
  6.1484329e-02
  4.5986676e-01
 -1.3472594e+00
  1.3266654e-01
  3.8195759e-01
 -5.0546408e-02
  4.8898667e-02
 -6.9186807e-02
  1.1506321e-01
 -6.9862522e-02
  7.5171269e-02
 -6.6451579e-03
  1.1030947e-01
 -4.1259839e-03
 -6.5048039e-02
  1.3309932e-01
  6.0782183e-02
 -1.1275943e-01
  3.4442219e-01
  2.8738815e-02
  2.5410194e-02
  8.0941997e-02
 -1.4755295e-01
  1.4287788e-01
 -2.8667934e-02
  6.8642601e-02
 -7.2958571e-04
  1.1066100e-02
 -1.4004211e-02
  1.1988369e-01
 -1.0066884e-01
 -2.0973943e-02
 -2.5532386e+00
 -5.1872242e-02
  1.3840984e-03
 -1.8558615e-03
 -4.2922413e-03
 -8.6570811e-03
 -4.8919017e-03
  4.0226492e-01
  4.8053358e-02
 -1.8016916e-03
  3.8266350e-03
  4.5633217e-04
  6.5543158e-03
 -1.3075531e-03
  2.1141032e-03
 -5.2431365e-04
 -6.6117018e-02
 -9.8354565e-03
 -7.6617958e-04
 -5.1047611e-03
 -2.2854272e-01
 -1.0553995e-03
  1.0869734e-02
  8.1001973e-04
  8.2748756e-03
 -9.0514813e-03
 -1.1268388e-03
  8.3915895e-04
  1.0247362e-02
  5.9113833e-03
 -7.4203697e-04
 -2.6722178e-03
  1.4415470e-02
 -1.1565881e-03
 -7.1497887e-02
  1.5707494e-03
 -1.8132096e-03
 -6.6878241e-03
 -8.7702265e-03
 -9.5526248e-02
  2.4137064e-03
 -3.9868366e-02
  1.6021049e-02
  3.2765560e-03
  7.0691905e-03
  1.7172513e-03
  8.4473137e-03
  1.1078892e-03
 -1.3065017e-02
 -1.0558718e-03
 -1.4188451e-03
  3.9842613e-03
 -1.8496474e-03
 -5.2229199e-05
  3.8420644e-03
 -2.1502213e-03
  8.9211315e-01
  2.8789550e-01
 -2.6681003e-01
  1.8308270e-01
  2.0232005e-01
  4.1366589e-01
 -3.6501887e-01
  1.5465263e-01
  2.1186878e-01
  6.8487383e-02
 -2.2317174e-01
 -8.7291263e-02
 -1.4356896e-01
  8.5840121e-02
 -6.2135551e-02
  6.6430159e-02
 -2.6170897e-01
 -3.4522545e-03
 -1.6195355e-01
  4.5528975e-01
  1.2486462e-02
  2.1740511e-01
  4.9316925e-01
  2.8603107e-02
 -6.4101285e-01
  7.7080399e-02
  6.5039337e-01
 -2.6877740e-01
 -1.4180964e-01
  9.5058093e-03
 -3.2993862e-01
  3.4947682e-02
 -1.2066657e-01
 -3.0535319e-01
  1.1693602e-01
 -9.8392412e-02
  4.0767670e-02
 -7.0481198e-03
  2.3784569e-01
  2.0922467e-01
  1.8746091e-01
 -8.7734675e-03
  5.0280612e-02
  1.6517129e-02
  3.8810592e-02
 -5.6775626e-02
 -2.0975667e-01
 -2.9398300e-02
  1.0331312e-01
 -9.0107240e-02
  1.4107284e-01
 -2.1501616e-02
  1.3517839e-02
  1.0164015e-01
  2.1639436e-03
  1.3921338e-02
  1.1552697e-01
 -5.9586046e-03
 -2.2678157e-02
 -3.5005599e-02
  1.2802251e-01
 -8.4029464e-03
 -2.2786546e-02
 -8.6853467e-02
  8.2636744e-02
  1.6406475e-01
  1.3313171e-01
  5.9898693e-02
  8.1821546e-02
 -1.4605762e-02
  2.3577183e-01
 -3.2104939e-02
  5.4224417e-02
  9.3927845e-02
  2.0540670e-02
  9.0503320e-02
  5.9801027e-02
  8.1335440e-02
 -7.2384089e-02
 -9.8073110e-02
  1.9347964e-02
 -4.2905450e-02
  3.0408081e-02
 -2.4320194e-03
  1.7569971e-01
  1.8273678e-02
  1.7335016e-03
 -2.0706166e-02
 -1.1259806e-01
  1.8495013e-01
  6.6968478e-02
  4.3404801e-03
 -3.1543083e-02
  9.9997409e-03
  8.7665031e-03
  1.2756664e-01
  1.5010372e-02
  7.5279266e-02
 -9.5208725e-03
  6.4033203e-02
  1.1987238e-01
 -2.4235703e-04
 -7.3949218e-02
 -9.1092270e-03
 -1.5627591e-01
  7.6810219e-03
  2.4317574e-02
 -4.9413655e-02
  2.6567867e-03
  1.3266083e-02
  4.2671461e-02
  2.3899810e-02
 -8.2586445e-03
 -9.4883339e-03
 -2.1407992e-02
  1.9529727e-03
 -2.0815874e-02
 -2.0869207e-02
  2.4159793e-02
  2.3810843e-02
  3.4348436e-02
  8.4905216e-04
  1.6198160e-02
 -2.0950178e-03
  2.6167804e-02
 -2.3415307e-02
  1.0597458e-02
  1.0885070e-02
  7.6241656e-03
  4.4546023e-02
  1.1374788e-02
  3.4609079e-02
 -2.5864411e-02
 -1.8197589e-02
  5.0119512e-02
 -1.5470669e-02
  3.7733164e-02
 -1.9385237e-02
  2.2951111e-02
  3.6935564e-02
 -1.1686881e-02
  1.1636971e-02
 -2.5907051e-02
  4.2208131e-02
 -6.8576966e-04
 -4.5421151e-03
 -1.8235737e-02
  2.5869890e-03
 -5.6689877e-02
  2.9676106e-02
  3.2820934e-03
  1.1847891e-02
  1.5069872e-01
  7.9396758e-03
  3.2626085e-02
 -2.5782986e-02
 -1.5766261e-02
 -1.5220459e-02
 -2.9091846e-02
  2.2309804e-03
  4.4634840e-03
 -1.3137641e-02
 -3.2626931e-02
 -7.6951340e-02
  2.7558038e-01
 -1.1228660e-02
 -3.2225560e-02
  2.5656402e-01
  4.4792411e-01
  1.5023042e-01
  2.4180558e-02
  1.0828309e+00
 -2.9056996e-02
 -1.1883587e-01
 -1.1020873e-01
 -3.1370058e-04
 -9.3956329e-02
  3.3627123e-02
 -1.7978466e-01
  3.5367094e-02
  7.6271676e-02
 -1.5738469e-01
  6.6646025e-02
 -7.3712774e-02
  6.2555701e-02
  2.1778502e-02
  1.3440640e-01
  9.9131346e-02
 -8.3057418e-02
  2.2942749e-01
 -1.0579820e-01
  1.3641790e-01
 -8.5762173e-02
  6.3881010e-02
  5.9436340e-02
  1.5112162e-01
  1.0619892e-02
  1.5230590e-02
  1.0465937e-01
  3.6334621e-03
  7.9264596e-02
 -1.0375086e-02
  5.3783216e-02
 -3.8185888e-03
  7.5938694e-02
 -5.6160256e-02
 -5.7373695e-02
 -3.8381599e-02
 -1.5202458e-01
  6.9689989e-02
  6.0574006e-02
  5.2468821e-02
  1.1604495e-01
  9.5195761e-03
  7.1960967e-03
  5.3764819e-03
 -2.9358104e-02
 -5.9584886e-02
  2.0454779e-02
  1.2851083e-01
  1.6701790e-02
  8.9268677e-02
  2.9213874e-02
  1.6911286e-01
 -1.9016379e-01
  4.0789250e-02
 -3.6629107e-02
 -7.4879497e-02
 -5.9138283e-02
 -3.9168747e-04
 -6.4459555e-02
  1.0836074e-02
 -1.0301949e-01
  4.7813924e-03
 -3.7638657e-02
 -3.6963597e-02
 -7.3809832e-02
 -1.3559423e-01
 -7.6023981e-02
 -9.8544016e-02
  2.5241548e-02
  5.5790376e-02
 -4.0479854e-02
  6.1136812e-02
 -8.7727286e-02
  2.2315402e-02
 -9.3424961e-02
 -1.4070091e-02
 -6.9451244e-03
  3.5880697e-03
  7.1194708e-02
 -8.2771175e-02
 -1.4708942e-01
 -8.8287564e-03
 -3.2919977e-02
 -9.2596980e-03
  9.2990905e-02
 -9.4842382e-02
  4.8752658e-02
 -2.5133388e-02
  2.5523057e-02
 -2.7439615e-02
 -5.6926861e-02
 -3.6119428e-01
  3.2700025e-02
  2.4456950e-02
  6.7985825e-02
 -1.7234391e-02
 -2.8983853e-03
  3.1041659e-02
 -2.2013951e-02
 -2.1353478e-02
 -7.5829931e-02
 -3.1035643e-02
 -5.4077816e-04
  5.9082422e-02
  3.6439739e-02
  1.7782422e-02
  3.0751057e-02
  1.6451877e-01
 -3.7994627e-02
 -6.3321233e-02
 -4.4558369e-02
  1.2154486e-02
 -4.7670133e-02
  2.0267364e-02
 -1.0198174e-01
  1.8599438e-02
 -4.6807554e-02
 -9.3985321e-03
 -2.7059620e-02
 -7.5819291e-02
 -5.6113921e-02
 -6.1704010e-02
  4.9811102e-02
  4.5020856e-02
 -9.8803110e-02
 -2.0409109e-01
 -7.7559225e-02
  1.2928941e-02
 -8.1570990e-02
  8.0059608e-03
 -1.9760448e-03
  7.5768761e-02
  5.7909049e-02
 -8.3383612e-02
  1.1592399e-01
  4.7915014e-03
  4.3898121e-02
  4.7857832e-02
 -1.5057838e-03
 -6.9170974e-02
 -2.0359555e-02
 -3.1652275e-02
  4.2182272e-03
 -2.8063143e-02
 -5.6466583e-02
  2.9846035e-02
  2.1106740e-02
  2.7231783e-02
  7.2131045e-02
  3.3759110e-02
  1.8901175e-03
  2.9579397e-02
 -1.7696945e-04
 -6.2317372e-04
  1.6163638e-02
  1.4171452e-02
 -7.6115355e-03
 -9.8925553e-02
 -5.5126511e-03
  2.9237815e-03
 -3.6167132e-03
 -7.0411433e-03
 -7.1003297e-03
  1.2107871e-02
  1.2640507e-02
  7.4043358e-04
  5.2389684e-03
 -5.7254252e-03
  2.3527158e-02
 -4.2651468e-03
  6.5839207e-03
  8.1683686e-03
  5.4895505e-03
 -7.9511795e-03
  2.6554747e-03
  1.8585604e-02
 -6.3881963e-03
 -1.6516540e-03
 -4.6131425e-03
 -1.4402764e-02
  5.9972173e-03
  4.6128858e-04
  9.0393638e-03
  9.1882562e-03
 -4.4387016e-03
 -1.9352010e-03
 -1.0434048e-02
  1.8133868e-02
  1.1416072e-02
  1.0735813e-03
  6.2322640e-03
 -2.6924892e-03
  1.5703538e-02
  2.3958767e-02
  1.0703483e-03
  2.3876909e-02
 -2.9617235e-02
  5.2492032e-03
  4.2362232e-04
 -9.5964655e-02
 -9.8114572e-03
 -8.8473530e-03
 -6.4022196e-03
 -9.3334122e-04
  4.8551657e-03
 -4.8443165e-01
 -1.1252438e-02
 -2.2767745e-02
 -2.0141823e-02
 -9.7231539e-03
 -1.5482722e-03
  8.7733809e-03
  1.6444797e-02
 -2.0119874e-02
 -2.4653049e-03
  8.0386754e-03
 -1.1392355e-02
 -1.9094000e-02
 -1.1411000e-02
  6.7818989e-03
 -1.0320799e-02
  1.2080410e-02
 -1.8705750e-02
 -3.5318369e-03
 -3.5446216e-03
 -3.9739944e-03
  3.6985266e-03
 -2.5856588e-02
 -3.6736291e-02
 -3.4584165e-02
  1.1027310e-02
  1.3488049e-02
  2.4522433e-02
 -3.7600737e-02
 -2.4884712e-02
  1.1239616e-02
 -1.7879704e-02
  2.4140524e-03
 -3.2894982e-03
 -1.8625237e-02
  2.0728495e-02
 -2.0635681e-02
 -1.2335303e-02
  7.7598132e-02
  8.7472210e-03
  2.0702474e-03
 -1.5532832e-03
 -1.1545245e-02
 -1.7166288e-03
 -1.4110932e-02
  5.0498513e-03
 -4.4068426e-04
 -2.1437209e-02
  1.7506897e-02
  1.5964305e-02
 -1.3336224e-02
  1.9825127e-02
 -1.1637606e-02
 -1.7726239e-03
  1.9886572e-02
 -5.0264573e-01
 -1.2409499e+00
 -3.8316256e-01
 -8.5029995e-01
  2.8981426e-01
  5.2553493e-01
  1.6868596e-01
  9.0621185e-01
  6.3259639e-02
  3.7227839e-01
  1.4664032e-02
 -4.6367744e-01
 -3.5406715e-01
  4.6502024e-02
 -6.2141556e-01
  3.1435394e-01
 -6.2755477e-01
  3.9595731e-02
  1.3097218e-01
  1.6114376e-01
  8.6673357e-02
 -4.1601732e-01
  5.9975284e-01
 -8.9084202e-01
  2.6501381e-01
  2.0471059e-01
 -8.1244755e-01
  5.8479112e-01
 -1.9253823e-01
  2.3183216e-01
 -2.6126418e-01
  6.7160964e-02
 -2.6548922e-01
 -9.7690463e-01
  1.8033649e-01
 -1.6239630e-01
  5.7001555e-01
  2.8552228e-01
  1.0999467e+00
  4.5701399e-02
 -6.1722898e-01
  2.8790265e-02
 -9.9842153e-02
 -4.4611812e-02
 -6.3363260e-01
 -9.1920108e-02
  6.6074125e-02
 -6.0483038e-02
  7.2515734e-02
  7.0732944e-02
  2.0914744e-01
 -3.1607304e-02
 -1.5813124e-03
  9.2725173e-02
  2.4991708e-02
 -9.2628999e-03
 -2.1628318e-02
  2.4872893e-02
  2.7859148e-03
  6.5847347e-03
 -2.2707637e-03
 -1.5278640e-02
  7.1824589e-03
  8.2950324e-02
  2.0777596e-02
 -4.0905096e-02
 -1.9687370e-03
  5.0068315e-02
 -1.0953952e-02
 -4.6682167e-03
 -3.8579784e-02
  8.0730738e-03
  3.9322369e-04
 -2.1540530e-02
  7.8499578e-03
 -3.6231790e-02
 -1.7323921e-02
 -1.0554299e-03
  1.3188937e-02
  6.0507748e-03
 -3.7270330e-03
  5.3301863e-03
 -3.5062119e-02
  4.0660691e-03
 -2.4429675e-02
 -5.8481570e-02
  7.5524636e-03
  3.3257204e-01
  4.1571865e-03
 -2.4732416e-02
 -1.1209086e-01
 -2.1036940e-03
  7.6821591e-03
 -4.5711551e-02
 -1.0349211e-02
 -1.9350708e-02
  1.5627455e-03
 -8.5053602e-03
  8.4008491e-03
 -6.3899253e-03
 -1.0049981e-02
  2.0393552e-02
  8.0165025e-03
  1.5658529e-02
  2.4483098e-02
  1.6233936e-04
  6.5611289e-03
  1.3112397e-02
 -1.5390447e-01
  1.9858271e-01
  2.1687666e-01
  1.0700665e-01
 -3.6467686e-02
  2.7683931e-03
 -9.7819641e-02
 -2.7086592e-01
 -5.4316130e-02
 -7.8446746e-02
  5.5029519e-02
  7.7643722e-02
  1.0138942e-01
  1.7577454e-03
  6.4591810e-02
 -1.1057176e-01
  1.5380049e-01
 -2.1370269e-02
  1.3643295e-01
  1.5093176e-01
  1.6788489e-01
  9.0284728e-02
  1.2827204e-01
  1.5155107e-01
 -8.9040801e-02
 -8.6214118e-02
  1.6827138e-01
 -3.4894202e-02
  1.1857599e-01
 -5.2760787e-02
  1.1371120e-01
  2.8042201e-02
  3.6981031e-02
  1.1013911e-01
 -2.7201986e-03
  1.3794281e-01
  2.2545448e-02
  5.6069195e-03
 -3.8615223e-02
  2.0272983e-02
  1.6195625e-02
  1.0103928e-01
  2.2010436e-02
  4.6447944e-02
  1.2626666e-01
  4.8874866e-02
  9.7255483e-02
 -6.6094629e-02
 -2.6130125e-02
 -5.3021390e-02
 -1.0905385e-01
  1.7350730e-04
 -8.6254496e-03
 -3.4453426e-02
 -2.1753108e-04
  1.2723994e-02
 -1.3010079e-02
  2.0060812e-04
  1.3043437e-02
 -2.8042533e-03
 -1.2259247e-02
 -2.7925875e-02
 -8.5616885e-03
  1.0449756e-02
 -1.2505696e-03
 -1.5348413e-02
  5.1553715e-03
 -2.6092990e-03
  3.5016927e-01
 -6.2975744e-03
 -1.1420086e-02
  1.1115630e-02
  6.0933284e-03
 -5.3731346e-04
  6.9152471e-03
 -2.8791891e-03
  6.3663921e-03
  4.3017566e-03
 -4.8715724e-03
 -1.0071391e-02
  4.5781187e-03
  1.9657484e-01
 -1.6758213e-02
 -1.1735498e-02
 -1.4552515e-02
  3.2175020e-03
 -2.2988308e-03
  1.5768521e-02
  8.9775752e-03
  1.0419819e-02
 -5.1916651e-03
  5.6882887e-03
 -3.7806975e-03
  4.1383732e-04
  6.7632948e-04
  1.0055932e-02
  1.1085416e-02
  2.7834547e-03
 -4.1768337e-03
  8.3733266e-03
  3.7487415e-03
 -1.2721787e-03
 -3.9186971e-03
  1.4589389e-03
 -7.4693463e-03
 -9.9205533e-03
 -2.7101150e-02
 -1.8593338e-03
  4.2034766e-01
  4.3263125e-01
 -7.2263640e-01
  1.2858468e-01
 -7.1958490e-02
 -6.2660515e-01
 -6.1427104e-01
 -2.9890403e-01
 -2.4676742e-01
 -4.5265070e-01
  2.2536644e-01
  2.4142113e-01
 -3.9202474e-02
 -8.0334887e-02
  3.0556554e-01
 -1.9682094e-01
  1.5066174e-01
 -9.9379450e-02
 -7.0024528e-02
 -2.3601221e-01
  2.5337921e-02
  1.2845981e-01
 -6.8234071e-02
  2.2954045e-01
 -5.8728242e-01
 -3.0310062e-01
 -2.7478602e-02
 -1.3713994e+00
  1.5021306e-01
 -1.5382490e-01
  3.3010857e-03
 -1.8725748e-01
 -8.5459769e-02
 -2.2342063e-01
 -1.7026347e-01
  2.1744734e-01
 -7.0782083e-01
  1.4340962e-01
 -8.0767088e-02
 -1.3684300e-02
  1.2095270e+00
  8.7629330e-01
  4.9185172e-02
  2.6520105e-02
  5.5172759e-01
  7.9825990e-02
  3.7260416e-01
 -1.3378754e-01
  1.0401064e-01
 -1.8071553e-01
 -4.4551936e-01
 -8.2631804e-02
 -5.1925029e-03
  2.4755865e-02
 -3.6080575e-01
 -5.2627069e-03
  2.2151551e-01
 -2.0970343e-01
  8.3591476e-02
 -5.7484168e-01
  3.1318155e-01
  3.2259229e-01
  2.4941771e-01
  1.8779093e-01
 -2.6171027e-02
 -7.1668439e-02
 -5.7622254e-02
  7.5580378e-04
 -1.0228666e-01
  4.0876143e-02
 -1.0728176e-01
 -3.1477116e-02
  1.3208476e-01
  1.8622550e-01
 -1.3625778e-01
  9.5300358e-03
 -1.1974774e-01
 -7.1256682e-02
  1.7553523e-01
  1.5505579e-01
 -8.4014243e-01
 -3.3725408e-01
 -7.4235141e-02
 -9.8028407e-04
 -1.3468289e-01
 -1.4774826e-01
 -6.3003498e-01
  6.1986338e-02
  1.1112730e-02
  3.6906168e-02
  5.7385650e-02
  1.6247861e-03
  1.3132678e-01
 -6.8569807e-03
  3.5349938e-01
 -5.3609755e-02
  2.5503182e-01
 -5.0927628e-02
 -2.9797716e-02
 -2.6098089e-02
 -1.7585902e-02
  3.1838618e-02
  2.9023318e-02
  6.0180224e-02
  7.1009330e-02
 -6.2739789e-03
  6.5252963e-03
  9.2997234e-03
 -4.5091407e-03
 -4.8602894e-03
  1.3414608e-02
  2.0374116e-03
 -1.0633981e-02
 -2.0043291e-02
 -2.3698298e-02
 -1.0230488e-02
 -4.7382277e-01
  4.7888059e-02
  1.5098993e-02
  3.7104508e-01
  1.3046085e-02
 -4.9359295e-01
  1.4155723e-02
  9.3242368e-03
  2.1062842e-02
 -2.1093085e-03
  3.4400342e-05
 -9.2184800e-04
  3.0375952e-03
  2.1991821e-02
 -4.5971852e-03
  1.8064920e-02
  2.0176481e-02
 -2.7283824e-03
  8.1541780e-03
 -5.9767920e-03
  1.6201304e-02
 -1.7761746e-02
 -3.8821260e-03
  7.2670011e-03
 -1.0531475e-01
  1.0648922e-03
 -1.2080761e-02
  3.1647114e-03
  6.2519856e-02
 -6.1392426e-02
 -9.4506359e-03
  9.4507905e-03
 -4.3771164e-03
  1.8835051e-02
  7.9136919e-03
  1.3449199e-02
 -2.4944604e-03
  1.1002654e-02
  1.5890826e-02
  2.7963709e-02
 -7.6751155e-03
 -1.3303142e-03
 -1.0282474e-02
  8.6898699e-02
  5.9330097e-04
 -1.2871486e-02
  9.9735381e-03
  1.8878797e-02
  2.9298756e-02
  2.1108700e-02
  2.7005058e-03
 -1.7142797e-02
 -1.7931389e-02
  1.2396771e-02
 -1.1002273e-02
 -1.3309035e-02
  6.5365937e-03
  1.5661467e-02
  2.8314840e-02
  8.3754957e-03
  1.8669717e-02
  2.7375661e-03
  1.7017663e-02
 -4.9165599e-03
  1.3448270e-02
  3.2378118e-02
  9.1784097e-02
  2.9263619e-02
  4.9661100e-02
  3.1272408e-02
 -1.7914001e-02
 -2.2841023e-02
  2.3187088e-02
  3.2458873e-03
  2.2563813e-02
 -1.3469395e-02
  6.6333733e-02
  3.7031914e-03
 -7.3379586e-03
 -6.0410770e-03
 -2.1976873e-02
  2.8974168e-02
  1.5318694e-03
 -7.0821294e-03
  2.4747970e-03
  7.7568917e-03
 -1.9610939e-03
  2.1896699e-02
  5.8467649e-03
  1.2880119e-02
 -6.1624041e-03
 -4.1968939e-03
  3.0336609e-02
 -1.7721923e-02
 -1.3180902e-03
 -1.3183152e-02
 -1.5495345e-02
 -2.6276044e-03
 -9.6718158e-04
 -2.5343739e-03
 -4.5835250e-04
  4.7975816e-03
 -8.6823897e-03
 -7.6482985e-03
 -5.3149699e-03
  4.8338654e-03
  1.0854345e-02
 -1.5764382e-02
 -1.8268870e-02
  4.5606177e-03
 -1.5184341e-03
 -3.3181473e-03
 -9.7812032e-03
  2.6591700e-03
 -1.7322469e+00
 -7.6893531e-03
 -1.4899794e-02
  1.7055316e-03
 -3.7870562e-04
  5.2228146e-03
 -2.5048167e-02
  5.3831935e-03
 -9.2733102e-03
  5.9151305e-03
  1.7585436e-02
  6.9519682e-03
 -2.3011209e-03
 -2.3963448e-04
 -1.4188700e-02
  2.1569738e-03
 -6.0069184e-03
 -1.8206336e-02
 -3.3097905e-03
 -3.4255728e-03
  6.7256805e-03
 -9.8619042e-03
  1.2109071e-02
 -1.8604514e-03
 -4.2349487e-04
  3.6140866e-04
  3.8956440e-04
  2.0782095e-01
 -7.8988001e-03
 -3.5897677e-03
  6.8469201e-03
  3.6598395e-03
 -5.4852432e-04
 -3.5820371e-03
 -9.8494422e-03
  4.4334871e-03
  1.6062071e-03
  4.4346252e-03
  6.7201052e-03
 -9.2560600e-04
  7.7768886e-01
  1.6346214e-02
  3.8170996e-01
 -2.8257918e-01
  2.3385105e-01
  4.4289494e-01
 -5.8985102e-01
  2.4590521e-01
 -6.9367492e-01
 -2.8006008e-01
 -6.0519919e-02
  7.3902667e-02
  1.6118865e-01
 -1.1814787e-01
  1.9030550e-01
  1.2890725e-01
  3.5193405e-01
  3.8355201e-02
  2.3644686e-01
  2.0699140e-01
  7.2203495e-02
  1.8474220e-01
  1.5519640e-01
  3.8735613e-01
 -3.7719446e-01
  1.6683666e+00
  3.3917126e-01
  2.7546847e-01
  3.6225963e-01
 -3.2807786e-02
  3.5406294e-01
 -5.0601669e-02
  3.1958756e-01
  2.9932681e-01
 -2.6378751e-01
  2.6523423e-01
  1.4640561e-02
  1.0405544e-01
 -6.1272818e-01
  4.7858227e-02
  1.3568348e-01
  2.0812176e-01
 -1.4041817e-01
 -3.0583816e-02
  2.0125233e-01
  1.0184192e-01
  1.5992492e-01
  4.3358166e-02
 -1.5785015e-01
 -8.7587185e-02
 -1.8633501e-01
  9.3670182e-02
 -2.5795693e-02
 -1.1342828e-01
 -1.0008297e-02
  4.1234095e-02
  8.9244032e-03
  1.7001104e-02
  2.6746564e-02
  1.5603972e-02
  2.1534676e-03
 -7.3155486e-03
 -1.0773776e-03
  1.0199073e-02
  1.8946573e-02
  1.1125465e-02
  4.3962893e-04
  8.0802040e-03
  4.0344642e-03
 -5.0174170e-03
 -1.0161169e-04
 -2.1139611e-03
  1.4858049e-03
 -4.4272230e-03
  4.1049821e-04
  1.1761449e-02
 -7.5884480e-03
 -6.2460650e-04
 -1.2036965e-02
 -8.3930427e-03
 -4.1338648e-03
  9.4830347e-03
  6.3996590e-03
 -5.6269473e-05
  2.3717098e-03
 -2.3683798e-03
  6.0549728e-03
 -1.5834005e-03
 -4.0846285e-03
 -1.0771609e-04
  8.3840612e-05
 -7.1487231e-03
 -3.7288785e-03
 -3.5974316e-03
  4.4171046e-03
  4.4264686e-03
 -3.4015584e-03
 -1.0252130e-03
 -3.4511832e-03
  1.5010382e-04
 -9.6147961e-04
  2.1386235e-03
 -1.0340343e-03
  2.1461518e-03
 -1.1023389e-03
  3.6831386e-03
 -4.4384791e-04
  7.0023187e-03
 -1.0267738e-01
  2.0949088e-02
 -2.0471370e-02
 -2.2465131e-01
  1.9685216e-02
 -1.3803418e-01
  2.8173009e-01
  4.9307796e-01
  4.9936040e-03
  2.0121751e-02
 -3.0622879e-02
 -5.7383135e-02
 -4.3339949e-02
 -1.8558562e-03
  2.8061480e-03
  4.6712053e-03
 -6.6374987e-02
  5.9061875e-03
 -4.5250310e-03
  2.4053078e-02
  3.4108985e-02
 -7.8129262e-02
 -1.7877069e-03
 -6.6984616e-02
  3.3455241e-02
  3.2052785e-02
  2.4975599e-03
 -5.2852020e-02
 -5.1299021e-02
  4.2169679e-02
  4.0685704e-01
  3.2567829e-01
 -1.7359812e-02
 -4.5900304e-02
  3.3310920e-02
 -5.4449253e-02
  7.4331678e-02
  2.6946412e-02
  9.3371540e-02
  1.1393891e-01
  4.5765821e-02
 -2.3797665e-02
  6.2645294e-02
 -2.6168656e-02
  4.7292557e-02
 -1.5617765e-02
 -2.1339621e-02
  2.0943083e-02
  1.7608589e-02
 -1.1097080e-02
  5.8764074e-02
  9.4599321e-02
  1.8130745e-03
 -3.0355861e-03
  2.2310307e-02
 -1.2786292e-01
  6.5485753e-02
 -2.5227922e-01
 -1.9829685e-02
 -2.0633301e-02
  1.9279996e-02
 -9.6537046e-02
 -2.3456136e-02
 -3.6884602e-02
  3.8893845e-02
  7.3694140e-02
  4.5940064e-02
 -1.0070966e-02
  4.7468118e-02
  1.4928602e-01
  9.0362772e-02
  4.3775044e-02
  2.5569523e-02
  5.3391386e-02
  1.3665128e-02
  8.3372280e-02
  1.5876895e-02
  1.1743731e-01
 -5.9036203e-02
 -4.7553893e-02
  5.1032141e-02
 -4.3897539e-02
  7.5622663e-02
 -3.2300767e-02
  9.1998272e-02
 -5.0711460e-02
 -2.9282765e-03
  2.1070227e-02
 -6.0061302e-02
  8.3228216e-02
  8.0086067e-02
 -4.9371994e-03
 -9.3409255e-02
  8.5249329e-03
 -8.7310746e-03
  7.0192792e-02
 -1.1659207e-02
  2.5751036e-02
 -1.6760854e-02
  2.4963750e-02
  4.8800536e-02
 -3.0197844e-02
  3.3394801e-03
 -1.7975299e-02
 -3.2218002e-02
 -5.8811236e-02
 -7.9442151e-03
 -3.0238120e-02
  1.0180542e-01
  2.6195092e-02
 -1.0026803e-01
  3.1712931e-02
  3.6675895e-03
 -9.3426794e-02
 -1.0390127e-01
  1.5416187e-01
  4.2880651e-02
  1.0614338e-01
 -1.4172775e-02
 -5.5147476e-02
 -4.3677855e-02
  7.9516228e-03
 -3.9905649e-02
  4.2862277e-02
 -9.1441877e-02
  1.9498033e-02
 -3.3497147e-02
 -1.6097773e-02
  1.3151273e-01
 -7.2738446e-02
 -1.9747546e-02
 -1.1164184e-01
  8.3791934e-02
  6.4418852e-02
 -2.9147064e-02
  9.9343739e-02
 -7.8555755e-02
  6.2232383e-02
 -1.3667843e-01
  2.5809521e-02
  3.2256169e-03
  3.4544790e-01
  5.8656756e-02
 -8.6434133e-02
 -6.7565486e-02
 -1.1461258e-02
 -8.0064434e-01
 -9.4032548e-03
 -7.4713074e-02
 -1.1298960e-01
 -4.8606493e-02
 -3.4833316e-02
  4.5972671e-03
 -3.0169273e-02
 -3.7658490e-02
  3.3264577e-02
  2.0604989e-02
  2.0162202e-03
  6.3929096e-02
 -1.0152021e-02
 -1.9881850e-02
  1.9194331e-02
 -2.8043237e-01
 -1.1545208e-01
  3.8897578e-02
  1.5469822e-01
 -5.9112482e-02
 -6.0034937e-01
  4.9360700e-02
 -2.5134963e-01
  1.9799943e-01
 -1.3462429e-01
  1.4428275e-02
  1.2492944e-01
  1.1506030e-01
 -4.4672549e-02
  8.7542623e-02
 -5.7447802e-02
  2.0302095e-01
 -7.6037566e-03
  8.6491063e-02
  4.4321582e-01
 -2.1537502e-01
  9.0387568e-02
 -3.2436332e-01
  1.8253779e-01
 -8.1762046e-02
 -1.0424840e-01
  2.6449258e-02
  1.9760130e-01
  1.4481683e-01
 -1.5784571e-01
  1.5323514e-01
 -4.9865559e-02
 -9.8815285e-02
  6.9617413e-02
 -7.6687694e-02
  1.4560777e-01
 -1.0302204e-01
 -2.7340677e-02
  5.6589380e-02
  1.2638029e-01
 -6.1525633e-03
  4.7287948e-02
 -1.6716819e-01
  4.3170583e-02
 -2.4144704e-02
  5.1472500e-02
  1.1671905e-01
 -7.8190602e-02
 -6.5711349e-02
  2.1140672e-02
 -1.1842314e-01
  9.1513788e-04
  2.0264093e-02
 -5.8813307e-02
  3.2991122e-02
  1.4402221e-02
  1.4205149e-02
 -1.2253044e-01
 -8.4914351e-03
 -1.0812536e-02
 -5.8355229e-03
 -1.6593477e-02
 -7.0993551e-03
 -2.0778261e-02
  3.4816097e-03
  1.4755750e-02
  1.3015013e-02
  7.3760976e-03
  1.8082263e-02
  1.4150041e-02
  2.0627864e-02
  8.7204517e-04
 -1.2968614e-04
  2.3452049e-02
 -1.6749577e-03
  1.8288380e-02
 -1.0457257e-03
  2.5797164e-02
 -3.6310211e-03
 -1.9496081e-02
  1.0159161e-02
 -4.2036339e-03
  1.6873231e-02
  3.8929849e-03
  2.4624607e-02
  5.7089068e-03
  9.7070145e-04
  9.6537527e-03
 -1.2351573e-02
  2.2451572e-02
  9.4127785e-03
  6.0547584e-01
 -7.2720996e-03
  9.3538448e-04
  1.2558213e-03
  2.0437159e-03
 -1.5399234e-02
  9.4345668e-03
  3.1412247e-04
  1.5330722e-02
  1.6163951e-02
 -7.5531821e-03
  1.9964441e-03
 -2.7980737e-03
 -1.5334300e-02
 -4.9039242e-03
  1.7343302e-03
 -1.2908427e-02
 -5.2169492e-03
  3.2582600e-02
  6.1529115e-02
 -2.1036217e-02
 -5.6489534e-03
 -2.4222089e-02
  2.0798340e-03
 -1.0606611e-02
 -4.1435454e-03
 -1.6899586e-02
  2.7049815e-03
  4.9943820e-02
  4.2777065e-02
 -7.4879895e-03
  3.4560356e-02
 -1.5301982e-02
  6.1573666e-02
 -1.3377882e-02
  7.5633628e-03
  2.9923216e-02
  1.7385621e-02
  6.3083768e-02
  2.3168150e-02
  8.9350723e-02
 -2.2984408e-02
 -2.7924750e-02
  3.7849277e-02
 -1.2610572e-02
  6.6533424e-02
 -2.5387695e-02
  3.1396717e-02
  2.6483204e-02
  6.6887969e-03
  4.7228904e-03
 -4.0544856e-02
  6.9043256e-02
  1.3786698e-02
 -3.7288797e-01
 -8.6184815e-03
  2.5981693e-02
  5.2593751e-03
  4.7443353e-02
  1.7260812e-02
  2.0452360e-02
 -9.1904327e-03
  2.5103524e-02
  3.2642502e-02
 -2.2315528e-02
 -1.7260363e-03
 -1.4561487e-02
 -5.1808588e-02
 -1.5541920e-02
 -5.0321240e-03
 -5.6744475e-02
  9.0809815e-02
  3.6176763e-02
 -3.2374513e-01
  1.5428640e-02
 -9.0517076e-03
 -1.4293228e-03
  1.9565441e-03
  1.0178134e-02
 -8.7664220e-03
 -9.2939837e-03
  1.1397447e-02
  4.4278208e-02
  2.8689917e-02
  6.7299306e-03
  6.7497836e-03
 -4.2043868e-03
  3.6514230e-02
 -1.8613828e-02
  4.3365243e-03
  2.1205241e-02
 -1.9043710e-03
  3.2170620e-02
  1.0869197e-02
  1.0375431e-02
 -1.8639324e-02
 -3.6144748e-02
  1.2855567e-02
 -1.0064848e-02
  4.2116418e-02
 -3.2686207e-03
  1.6583463e-02
 -1.2224353e-02
  6.1780098e-03
  1.3849211e-02
 -2.2560081e-02
  2.1749219e-02
  6.2279375e-03
  3.6643248e-02
 -1.1308360e-02
  7.0451922e-03
 -1.9047637e-02
  3.9874155e-02
 -6.3676243e-03
  1.1981823e-03
 -2.4850832e-02
  1.9221842e-02
  2.9930694e-02
 -1.1811652e-02
 -2.3568250e-02
 -7.6324814e-03
 -1.6625710e-02
 -1.2880828e-02
  1.8956957e-02
 -1.8484619e-03
  2.8434542e-01
  2.7272981e-01
  2.0937860e-01
  2.1259774e-02
 -2.4751911e-02
 -2.1733736e-01
  2.6745161e-01
  6.1817759e-01
  2.8383613e-01
  2.5209910e-01
  1.7505802e-01
  2.7247182e-01
  2.1954705e-01
  4.1843165e-02
  1.6819014e-01
  8.9948304e-02
  2.2172187e-01
  4.2849142e-02
 -1.0773882e-01
 -4.0017641e-01
  7.4301958e-02
  9.3275860e-02
 -3.9551079e-02
 -1.1759314e-01
 -2.2980678e-01
 -1.2500659e-01
  1.1412179e-01
  2.0459816e-02
  1.9072814e-01
  1.2974234e-01
  1.9683585e-01
  1.9649889e-01
  1.9967640e-02
  1.2973866e-01
 -1.2291185e-01
  2.5049269e-01
 -9.0926014e-02
 -1.6902122e-01
  1.5850611e-01
 -1.2446638e-02
 -5.7249159e-02
  1.3958040e-01
 -1.7667712e-01
  1.5320940e-01
 -1.9988255e-01
  7.5073771e-02
  1.1895487e-01
 -9.1663405e-02
 -6.4164072e-02
 -1.0556553e-01
 -1.4507656e-01
 -3.0528033e-02
 -1.2825884e-02
 -5.4687694e-02
 -5.4007344e-04
 -1.3460794e-02
  9.3719929e-02
  4.6593207e-01
 -5.6627799e-02
 -8.5080111e-01
  3.4762076e-01
 -1.8172012e-01
  3.8289249e-02
 -2.2697974e-02
  5.5960584e-02
  6.3844256e-02
  6.5867819e-02
 -1.3463282e-02
  4.9167693e-02
  1.4690643e-04
  1.1463919e-01
 -1.3671892e-02
  7.0137523e-02
  4.5498717e-03
  5.5610791e-02
  6.4504363e-02
  1.7767398e-02
  1.3798071e-01
 -4.8256142e-04
 -5.6181442e-02
  4.8409817e-03
  6.8817422e-02
  1.9688292e-01
 -1.5490977e-02
  8.0799080e-02
 -2.2307858e-02
 -1.4722396e-02
  1.0847228e-01
 -6.5350592e-02
  7.2046995e-02
  5.8653128e-01
 -1.5380112e-02
  3.1150486e-02
  3.9787447e-01
 -3.8709697e-01
  8.7563351e-02
  5.7805944e-02
  2.1535862e-02
 -5.4858536e-02
  2.3294523e-02
  2.0186750e-02
 -3.2210459e-03
 -6.1013442e-02
  1.6916122e-02
 -7.1312919e-02
  1.9791415e-03
 -1.1987542e-02
 -4.5465723e-02
 -2.2759587e-01
 -1.0819775e-01
 -1.1281125e-01
 -6.7145489e-02
  9.5561082e-03
  1.4772299e-01
  4.0286247e-02
 -1.7094137e-02
 -6.9132209e-02
  1.2797448e-01
 -1.2352474e-01
 -2.4855909e-01
 -1.7091548e-01
 -1.8316972e-01
 -1.5892813e-01
  3.9726455e-02
 -3.6687386e-01
  1.7087123e-01
 -6.2500939e-02
 -4.2336630e-03
 -2.4094817e-01
 -1.1716238e-01
  3.9423013e-01
 -1.0316639e-01
  1.4717406e-01
  1.6779788e-01
 -2.5297743e-01
  1.8718241e-01
 -2.5191578e-01
  1.6170675e-02
 -2.0178331e-01
 -8.2078420e-02
 -4.9887862e-02
  8.5228309e-02
  1.7865343e-01
 -2.9485232e-01
 -8.5185073e-02
  1.1076028e-02
 -1.6106602e-02
 -9.2144608e-02
  1.8260112e-01
 -1.2285095e-01
  1.1606234e-01
 -1.1829641e-01
 -2.7182641e-02
 -9.6845709e-02
 -1.8898386e-01
  1.0578752e-01
  9.8450199e-02
  8.1854016e-02
  1.9068167e-01
  6.1932630e-03
  1.9112822e-02
  6.9194026e-02
 -1.2542941e-02
  5.0974158e-03
  1.0221676e-02
 -2.7156963e-03
  1.3022832e-02
 -1.9063218e-02
  7.7804483e-02
  3.1018571e-03
 -7.5553311e-03
 -5.7124565e-03
 -6.3823224e-03
 -4.7589731e-03
  1.1067464e-02
 -3.2446582e-03
  9.3587860e-03
  1.4428744e-02
  2.1718796e-02
 -1.1571634e-02
  1.3118168e-02
  1.5226795e-02
  1.2237460e-02
  6.4672572e-03
  9.0545872e-03
  1.0422781e-02
  3.8617973e-03
  1.1274815e-02
 -2.4257784e-01
  3.5639503e-03
  1.7949875e-02
 -9.2280963e-03
  1.4812385e-02
 -2.6992094e-04
 -3.9327946e-03
 -3.6846062e-03
 -9.6945772e-03
  2.0403810e-02
 -1.3141940e-02
  6.5563881e-04
 -6.2092217e-03
 -2.8330195e-03
  8.3021317e-03
  1.9478720e-02
  2.3609695e-03
 -1.2701392e-02
  3.3971549e-03
  7.7844262e-03
  1.2395254e-02
 -3.7735651e-04
 -4.6759256e-04
 -3.5016474e-03
 -1.7800536e-02
  1.6734745e-02
 -1.1638003e-02
 -3.5494601e-03
 -4.0473472e-02
 -9.3329012e-02
 -1.4791427e-02
 -2.7905088e-02
 -8.9566167e-03
  1.6216105e-02
 -1.2206060e-01
 -1.9746670e-02
  3.9671913e-02
 -9.5075164e-03
 -1.5129544e-02
 -8.8055050e-03
 -8.1369830e-03
  6.1093312e-02
  6.5302232e-04
 -3.3424697e-03
  3.9258373e-01
 -2.0740903e-03
 -3.3910090e-01
 -3.4366362e-03
 -1.6677645e-01
  1.9818367e-02
 -5.0379722e-03
 -6.7369387e-02
 -3.7609592e-02
 -1.4239330e-02
  1.8952478e-02
  3.9684917e-03
  1.2360831e+00
 -3.9306055e-03
  7.0985667e-02
  1.3038890e-04
 -1.6065650e-02
  8.3303660e-01
  6.3448977e-03
  5.6922561e-03
  3.5734072e-03
  5.6630301e-01
 -7.5938380e-03
  4.2808797e-02
  2.2923088e-02
 -2.4091966e-02
  3.2172638e-01
  1.3797950e-02
  1.5690167e-02
  9.4352152e-05
 -1.3857065e-01
 -3.2649092e-02
  2.4213403e-02
  1.6847547e-03
 -1.2102010e-01
 -2.8153697e-01
  1.4826225e-01
 -9.9950962e-02
  1.9087760e-01
  1.9725117e-01
 -3.7658858e-01
 -1.3302903e-01
  4.1005251e-01
 -2.4540957e-02
 -2.6048189e-01
  1.1901976e-01
  1.5184479e-02
  3.6247829e-01
 -9.5979065e-02
 -2.9157875e-02
 -4.0375939e-01
  1.4586143e-01
  5.0184834e-01
 -1.4319923e-02
 -7.2398710e-01
  4.8477361e-01
  1.2161821e-01
 -4.4549215e-01
 -2.2093344e-01
 -1.9892290e-01
  3.7312180e-02
 -5.1472172e-02
 -6.3844967e-01
 -6.3084610e-02
  3.7245852e-01
  1.7221384e-02
  7.8700137e-01
 -3.2472941e-01
  3.3396892e-02
  8.7968089e-02
 -1.6083881e-02
  1.0324879e+00
  8.3488174e-04
 -2.0822453e-01
  2.2357424e-01
 -2.1605723e-01
  4.5750952e-01
  4.8985593e-02
  1.5643957e-01
  7.9279609e-02
  6.5449005e-01
  2.4842569e-01
 -7.3847508e-01
  3.4206118e-02
 -4.5296007e-01
 -1.8011345e-01
 -2.9994088e-01
  3.1005120e-01
  3.6591616e-01
  8.9789271e-02
 -2.7151641e-01
 -4.2877257e-01
 -4.2966542e-01
 -1.3990550e-01
  2.2146234e-01
 -6.0860910e-02
  1.4847301e-01
  4.4694960e-02
  6.8300021e-01
 -8.8466473e-02
 -2.7352640e-01
 -4.3981060e-02
 -9.4989516e-02
 -1.5314728e-01
 -3.3248175e-02
  3.1126732e-01
 -4.3372795e-02
 -1.7582268e-01
  2.5413287e-01
  2.4247214e-01
 -2.6599452e-01
 -2.0276725e-01
  9.2635080e-02
 -3.4554589e-01
  2.3828147e-01
  5.0879627e-02
  6.1211757e-02
 -2.1890700e-02
  1.7621802e-01
  2.4145562e-03
  1.8051749e-01
 -1.5383574e-01
 -1.2165008e-01
  2.6409841e-01
  3.5093728e-01
 -1.3328756e-01
  1.3099167e-02
  5.1255482e-01
  1.7349016e-02
 -4.2630024e-03
  9.4613485e-02
 -5.2012980e-02
  2.3967007e-01
 -9.0172455e-02
  9.8966144e-02
  2.8657395e-01
  1.3948116e-02
  3.6257327e-02
 -1.1350521e-02
 -2.4734342e-03
  1.0105683e-01
 -2.4954043e-02
  2.2318088e-01
  1.4778755e-02
  1.5946185e-03
 -1.2658793e-02
  6.7668062e-01
  2.7776306e-02
 -1.0689913e-01
  1.1945698e-02
 -3.3416085e-02
 -7.3736096e-03
  9.5962761e-03
  3.7191194e-02
 -4.8130974e-02
 -1.5820995e-02
  1.4617804e-02
  1.4528287e-02
  4.4381102e-03
 -1.4981112e-02
 -7.3961834e-03
  1.8952677e-02
 -2.3074886e-02
 -2.1516504e-02
  2.2583839e-03
  1.1447118e-02
 -1.3264464e-02
  3.2977238e-02
 -3.2429002e-02
  4.9641370e-03
  4.5006420e-03
 -4.7106918e-02
 -1.1923552e-01
 -6.5033259e-03
  1.4832685e-02
  1.1955898e-02
  3.4553550e-02
 -6.1394977e-03
 -8.5240584e-03
 -1.5231347e-02
  1.1140247e-02
 -2.6701370e-02
 -1.3772601e-02
 -6.4414926e-03
 -1.5098898e-02
 -8.5158153e-03
  1.5045850e-02
  1.3170535e-02
 -2.5789856e-03
  5.6590172e-03
 -4.3457812e-03
 -1.5810557e-02
  2.7942851e-01
  1.2988195e-01
  1.7427566e-02
  7.3064893e-02
 -6.2258963e-02
  1.0322678e-01
  1.4826532e-01
  7.9972416e-02
  6.3663870e-02
 -2.1357614e-01
 -9.8296426e-02
  8.1089988e-02
  1.6629536e-01
 -4.8081307e-03
  9.5944785e-02
 -1.5461905e-01
 -5.9591878e-02
 -3.4965798e-02
 -1.3702279e-01
 -1.2958193e-01
  4.3549348e-02
  1.7664334e-02
 -8.4584594e-02
  3.9678827e-01
 -2.2242360e-02
  5.8586173e-02
 -7.3804542e-02
 -9.2571594e-02
 -1.7850932e-02
 -2.5359881e-01
  9.6121497e-02
 -6.2315907e-02
 -1.8007377e-03
 -9.0111755e-02
  3.1850573e-02
 -8.5706621e-02
  5.8639166e-03
 -8.8650428e-02
 -3.4942988e-02
  2.7924726e-02
  7.9528332e-02
 -9.6881781e-03
 -5.2969374e-02
  6.2009286e-02
  1.6079156e-02
 -9.0050884e-03
  3.4865648e-02
  3.8684256e-02
  2.4087897e-03
 -5.4630365e-02
  3.8693160e-02
  4.1628864e-02
  1.1386842e-02
  4.6665244e-02
  1.0806193e-02
  8.1884481e-02
  5.7314688e-01
  1.3589573e-02
 -5.3239339e-03
  8.2454398e-02
  1.3788061e-01
 -4.3526274e-01
  2.6991043e-02
  9.4037846e-02
  8.5908053e-03
 -8.7813986e-03
 -7.1832322e-02
 -5.7208195e-02
  5.8734245e-03
 -2.0227095e-02
 -5.5307880e-02
 -1.2466715e-01
  9.7080339e-03
  5.2495776e-03
  2.5495023e-02
 -1.1648644e-01
 -9.2919961e-02
 -3.7899144e-02
 -2.0242037e-01
  2.8626276e-02
 -3.9860532e-02
 -2.8756725e-02
  2.4209477e-02
  1.8109554e-02
  1.7265465e-02
  3.2405688e-03
 -6.1117359e-02
  1.5464215e-01
  9.8008635e-03
 -2.5310086e-02
  3.2844633e-02
  1.4579822e-02
  2.0324159e-01
 -1.1176410e-01
  1.4751121e-02
 -9.1022864e-02
  1.6939720e-02
 -6.3076735e-02
 -2.4712844e-02
 -5.1445509e-03
 -1.1568419e-01
  7.8851134e-03
  7.3390052e-02
  1.6032858e-02
 -1.6071355e-02
 -2.1642694e-02
  1.6428523e-02
  5.7280339e-02
 -2.5926100e-03
 -3.2274950e-01
 -6.3550133e-01
  2.8738511e-01
  5.5639859e-02
 -1.1128466e-01
  8.3491546e-01
  5.4096586e-01
 -6.2343158e-02
 -1.1344312e-02
  3.7275705e-02
 -5.6779420e-01
 -4.6571755e-01
 -3.7056839e-01
 -2.6792789e-01
  3.9873642e-01
 -1.5708938e-02
 -3.0864310e-01
 -7.4585408e-02
  2.7908465e-02
 -1.4726020e-01
 -5.4538870e-01
  1.9364150e-02
  1.8607627e-01
 -4.7784415e-03
 -2.3908390e-01
 -3.0202925e-01
 -2.2434941e-01
 -1.9877149e-01
 -5.7891476e-01
 -9.4780214e-02
  1.9599218e-02
 -4.0982759e-01
 -1.9348328e-01
 -7.3123060e-02
 -7.2409235e-02
 -6.6551089e-01
  1.4278314e-01
  1.2843410e-02
 -3.8175866e-02
 -2.6118448e-01
 -5.3395432e-01
 -1.3565500e-01
 -4.6196714e-01
 -1.8399769e-01
 -2.7995821e-02
  1.6200490e-01
  9.3986914e-02
 -1.1549647e-01
 -2.0691168e-02
  8.0819605e-03
  2.1206990e-02
  1.6193248e-01
  1.8345234e-01
 -1.3524446e-01
  3.2065775e-02
 -1.0593981e+00
 -1.0430743e-01
  3.0538805e-02
  2.4215114e-01
 -1.7160942e-01
 -2.3328167e-01
 -1.1367685e-01
 -7.5956523e-02
 -2.4656671e-01
 -5.1130819e-01
 -3.6841896e-01
  1.7478162e-01
  7.1108145e-01
 -3.9410684e-01
  2.2900528e-01
  5.3340390e-02
 -9.4955780e-02
 -1.6458018e-01
 -3.3612885e-02
 -3.0220288e-01
  2.8387606e-01
 -1.3263111e-01
 -1.9876231e-01
 -1.5220945e-01
  7.3308195e-03
  1.3620438e-01
 -2.1194789e-01
 -3.0591047e-01
 -1.8913485e-01
  8.2473516e-01
 -1.6650997e-02
  2.4353364e-01
  1.6999570e+00
 -8.1598975e-02
  5.1437270e-02
  3.6003608e-02
 -8.2142341e-01
 -1.3205433e-01
  8.4337309e-02
  5.4951698e-02
 -1.4330894e-01
  8.2016150e-03
 -5.6867808e-02
 -1.1624569e-02
  5.5065524e-02
  3.2555604e-01
 -1.4267652e-01
 -1.7342224e-03
  8.2150484e-03
 -9.0649389e-02
 -1.5325353e-02
  4.0146664e-02
  9.2063770e-02
  3.1673945e-02
 -3.8327914e-01
  8.2869075e-02
  1.7932723e-01
  1.1372726e-01
  1.5443330e-01
 -2.0853287e-01
  2.8526038e-01
  4.8157007e-02
 -1.0697633e-01
 -1.5949171e-02
  2.8941041e-02
 -3.0344440e-02
  6.8540134e-02
  5.9588075e-02
 -4.1513547e-02
 -5.8649696e-02
  6.0321603e-02
  1.0333257e-01
  1.7005401e-02
 -8.8532763e-03
 -1.3843577e-01
 -4.8773725e-02
 -3.1872384e-02
 -2.8071744e-02
  2.0809643e-01
  2.9917296e-02
 -2.8570485e-03
 -4.1207656e-02
  5.7277340e-02
  2.6387053e-02
 -9.9336140e-02
 -2.8072664e-01
  6.0507772e-03
  1.7618911e-02
  4.8932582e-02
 -5.5886866e-03
  7.4590616e-02
  9.0027638e-03
 -3.0118907e-02
 -5.0916549e-02
 -5.6861266e-03
 -3.3209261e-02
 -4.4481847e-03
  2.9900521e-03
 -2.2742169e-02
 -6.7296118e-02
  3.7918229e-02
  2.7904008e-02
  3.1877407e-03
  2.5648987e-02
  1.4261444e-02
 -2.8021894e-02
 -1.1938957e-02
 -4.1321170e-01
  4.8938045e-01
  1.5248734e-01
  3.1480032e-01
 -8.9115548e-01
 -1.6135288e-02
 -2.9837298e-01
 -4.6254793e-01
 -2.1608394e-01
  2.4865535e-01
 -1.1424571e-01
  5.8264083e-01
 -6.9529101e-02
  3.4826943e-01
 -9.0075296e-01
  6.4185108e-03
  5.1571824e-02
  7.2339244e-02
 -1.0452741e-01
  2.6118761e-01
  6.6027278e-01
  3.0057567e-01
 -8.6708702e-02
  7.8688942e-02
  3.2151286e-02
  4.8778051e-01
 -1.7639577e-01
 -1.0543668e-01
 -2.0646371e-01
  3.1816545e-01
  1.0621390e-01
 -3.9786331e-02
  4.9670435e-02
 -7.3264223e-03
  6.5577991e-02
 -1.5976888e-01
 -4.8618782e-01
 -1.1583846e+00
  1.3823657e-01
  2.3113545e-02
  1.3639936e-01
 -9.8715532e-01
  2.4459615e-01
 -4.4443008e-02
  5.3919037e-03
  2.1966750e-02
 -1.6115155e-02
  1.5588441e-01
 -9.6075878e-02
  6.3652106e-02
  1.1379584e-01
 -4.6160441e-02
  5.3467229e-02
 -1.4339617e-01
 -5.8599472e-01
  6.0160637e-01
  6.7485511e-02
 -2.4075581e-01
  2.7313149e-01
 -1.8633413e-01
 -3.6803577e-02
  1.3665241e+00
  2.2255853e-01
  5.6205519e-02
  6.0044210e-02
 -4.6579880e-01
  1.5648033e-03
 -1.3980143e-01
 -2.6165518e-01
 -8.5437812e-02
 -1.1881442e-01
  1.3116354e-01
  3.4364653e-01
 -8.8996097e-02
 -8.5444868e-02
  5.7895027e-02
  2.3396479e-01
  9.9830285e-02
 -1.2154288e-01
 -4.6682521e-03
  1.8176337e-01
 -8.8117220e-02
 -8.3978951e-02
  4.1176375e-02
  1.7829260e-01
 -8.0349095e-02
 -1.0702553e-01
 -2.1515279e-01
  4.8084017e-02
  6.0537964e-02
 -3.5062000e-02
 -6.2597925e-03
 -2.4553327e-02
 -7.3331088e-02
 -1.4106615e-01
 -3.2002115e-01
 -1.2876749e-01
 -6.0400544e-03
  1.1168358e-04
 -5.7766363e-02
  2.4896553e-01
 -8.8931993e-02
  5.8504120e-02
 -3.2139543e-02
 -1.3866850e-02
 -5.5798586e-03
 -4.5818102e-02
 -1.0111797e-01
  9.7825611e-03
  4.0281269e-01
 -4.0337431e-01
 -6.2183821e-01
  1.6991591e-01
 -1.5419590e-01
 -1.3825281e-01
 -4.9356245e-02
 -1.8066430e-01
 -1.2807356e-02
 -2.2700630e-02
 -2.0448594e-01
 -6.7893930e-02
 -1.9068725e-01
  3.4248111e-01
  5.5090189e-02
  1.3969338e-01
 -1.2742677e-01
 -2.2280576e-02
 -6.7159578e-02
 -3.3044595e-02
  1.4379176e-01
  1.5985039e-01
  2.3096958e-02
  2.7734360e-02
  6.8423331e-02
  7.9318538e-02
  7.0475444e-02
  2.2856924e-01
  8.0179237e-03
  4.5984060e-02
  5.9054941e-02
  1.6547446e-01
 -4.3205842e-02
 -8.6733535e-02
 -1.5339823e-01
  7.2308220e-02
  9.1462778e-03
  7.7292711e-02
  2.1476869e-02
 -4.1346394e-02
  3.2176232e-01
 -2.2365799e-02
  8.0442652e-02
 -1.0207277e-02
  5.9630193e-02
  1.3425842e-01
 -1.6750960e-01
 -1.7619582e-03
 -2.9831459e-03
 -1.0418310e-01
  2.3329386e-02
  9.1064349e-02
  2.7527289e-02
 -5.2892959e-01
  2.8891793e-01
  4.5392075e-01
 -6.1244363e-01
  4.3968984e-01
  2.0368369e-01
  1.2086526e-01
  6.7229146e-01
 -4.8652135e-02
  3.2894984e-01
  1.1171778e-01
 -5.1951623e-01
 -3.5897069e-02
 -4.3195581e-01
 -4.2575974e-02
  1.6014825e-01
  2.1820223e-01
  1.2334617e-01
  1.0005053e+00
  3.7449199e-01
 -1.9215491e-01
  7.1558438e-02
  7.1735698e-01
  1.1825624e-01
 -2.2603975e-01
  1.5752144e-01
  2.6201323e-01
  3.4468794e-01
 -2.4712202e-01
  5.3803098e-01
 -7.6107703e-02
  1.6183703e-01
  6.5271086e-01
 -3.1580335e-01
  1.3938493e-01
  1.3744490e-01
 -3.1599876e-02
  4.0500045e-02
 -1.2666215e-01
 -1.2681028e-01
  1.2204815e-01
  1.0898492e-02
  7.8530356e-02
  6.5747835e-02
  3.8389284e-02
 -2.0385216e-01
  1.7112032e-01
  4.4938851e-02
  4.4195242e-02
 -3.5843305e-02
  3.2244083e-02
  9.9764951e-03
 -4.2674772e-02
  1.3553926e-01
 -5.1462695e-02
 -8.4532040e-01
  2.0073006e-01
 -2.5242877e-01
  1.2705903e-01
 -2.8233238e-02
  1.4976711e+00
 -3.3979364e-02
 -2.2230737e-02
  5.1634476e-02
 -3.2573272e-02
 -1.1609307e-01
 -6.3862309e-02
 -1.7390347e-01
  2.3772635e-01
  2.2827876e-01
  6.9939569e-02
  1.4770921e-01
  1.6997536e-01
 -4.8439961e-02
  2.3337951e-01
  4.7575414e-02
  7.7488713e-02
  1.2847520e-01
 -1.0760310e-01
  3.9480500e-02
  7.9157524e-02
 -1.0954980e-01
  3.5701167e-02
 -2.0854938e-01
 -8.4665328e-02
  6.0026109e-01
 -2.6426047e-01
 -1.9305538e-02
  7.8389719e-02
 -8.1744507e-02
  4.7841836e-03
 -4.8427621e-01
  3.2477170e-02
 -1.1239799e-01
  2.9202064e-02
  3.9907426e-02
  2.7219737e-02
  5.8313590e-03
  3.2608796e-02
  4.3388329e-02
  3.2366183e-02
 -8.9515768e-02
 -1.3727153e-02
