nep4 3 Ag Cr Se 
cutoff 7 5 80 36
n_max 8 6
basis_size 8 8
l_max 4 2 0
ANN 50 0
  1.2599921e-01
 -4.4669077e-01
  4.4333872e-01
  1.2763599e+00
  8.7082171e-01
  3.0581832e-01
 -1.6467583e-01
  6.9685352e-01
 -7.3395498e-02
 -1.5447800e-01
 -5.1834863e-01
  5.5233812e-01
  1.6349356e-01
  2.0094293e-03
  3.5758829e-01
  9.6005750e-01
  1.4171205e-01
  3.2174158e-01
  3.7116173e-01
  3.0614072e-01
 -1.6503404e-01
 -3.9860559e-01
  5.3397310e-01
 -3.5938773e-01
  6.2451351e-01
  2.9726720e-01
  2.0207064e-01
 -1.6884169e-01
  1.4966990e-01
  3.2611787e-01
  3.6590254e-01
 -3.0643606e-01
  3.2509220e-01
  2.2487745e-01
  1.8468712e-03
  1.6933544e-01
  2.2882295e-01
  2.4969280e-01
  1.5385190e-01
  2.5713438e-01
 -3.9166906e-01
  1.8808654e-01
 -5.4812804e-02
 -1.4652455e-01
  1.1129400e-02
  1.8313553e-02
  5.2587491e-02
 -4.8855282e-03
  6.4446084e-02
  5.0602525e-01
 -1.1737806e-02
  5.8515608e-02
 -1.4568415e-03
  4.0827617e-02
  3.4283113e-02
  3.5838611e-02
 -9.9778682e-02
  1.2009210e-02
 -3.6439680e-02
  1.1338063e-02
  5.5269804e-02
  2.7374428e-02
  1.2115391e-01
  6.0129859e-02
 -6.9519348e-02
 -6.3540637e-02
 -2.2969443e-01
 -4.0645834e-02
 -2.2414284e-02
 -8.5081860e-02
 -1.3629131e-01
 -2.2723129e-01
 -4.8951022e-02
  2.2187546e-02
 -1.7196867e-01
 -2.0094961e-02
 -2.7792448e-01
  8.3991522e-03
  9.6839927e-03
 -1.8158158e-02
  1.2115884e-03
 -2.9393263e-02
 -3.3254940e-02
 -1.7889433e-02
  3.2770734e-02
  2.1437049e-02
  1.3543215e-03
  1.8335028e-02
 -6.0108984e-03
  1.2778302e-02
 -1.1140728e-02
 -1.3117703e-02
  2.3405772e-01
  7.1668210e-03
 -2.4543546e-02
 -1.3787878e-02
 -1.4739254e-02
 -6.6403687e-01
 -1.7126361e-02
  1.2943927e-02
  5.6369882e-03
 -4.6325349e-03
  3.7177145e-02
 -3.2838029e-03
 -2.2183772e-02
 -5.4428517e-03
  1.5522066e-02
  1.1728314e-03
 -1.6668906e-02
  9.2136310e-03
 -7.6824012e-03
  8.5753724e-03
 -6.8666000e-04
 -1.9785490e-02
 -2.5485139e-02
  2.7237218e-02
 -2.4539544e-01
 -5.9525319e-03
  2.0143081e-02
  8.9158043e-03
 -1.3455787e-02
 -9.1723658e-02
 -1.6965292e-03
  1.9245546e-02
 -7.1573853e-03
  1.4430094e-02
 -3.2488533e-04
  4.0054493e-02
  8.7917065e-03
 -1.0277283e-02
  7.6143271e-03
 -2.5416154e-03
  3.5644069e-01
 -1.2226546e-01
 -4.4453326e-01
  1.4062555e-01
 -3.0408517e-02
  6.2840648e-02
  4.7629315e-01
  3.5063976e-01
 -2.8133708e-01
  1.1766074e-01
  7.4114375e-02
  1.6539854e-01
 -6.0351301e-02
  6.8195558e-01
 -1.3428433e-01
  3.8548186e-01
 -4.8572689e-01
  1.0316319e+00
 -8.6901203e-02
  3.9799127e-01
  1.6465832e-01
 -6.4463265e-02
  7.6612073e-01
 -2.1714093e-01
 -1.5102774e-01
  2.8484800e-01
  9.4209254e-02
  5.1563699e-02
 -1.3174116e-02
  6.6945744e-01
  1.6176911e-01
 -3.3529047e-02
  1.5908474e-01
  3.0589688e-01
  7.4560098e-02
 -1.5423289e-01
  4.4947082e-01
  2.9562917e-01
 -4.4820166e-01
  2.1110740e-01
 -4.6985060e-01
  7.4683718e-02
  1.1893993e-02
 -2.2579156e-02
  2.2246277e-02
 -4.5099605e-02
  9.3880340e-02
  3.2469071e-02
 -1.9875735e-02
 -7.6449327e-02
  5.3742088e-02
 -1.9093368e-03
  4.9528189e-02
  5.2508913e-02
  3.8055524e-02
  2.0655496e-02
 -6.6993125e-02
  2.2985404e-02
 -8.1655569e-02
  1.4299065e-02
  4.0664602e-02
 -1.0637344e-01
 -1.2344949e-02
 -2.5022328e-02
  4.3143418e-02
 -1.1952962e-02
  2.7858511e-02
 -4.8493035e-02
 -2.1717336e-03
 -1.1247939e-02
  3.5336021e-02
  1.5664298e-02
 -4.1241352e-02
  5.0996065e-02
 -1.9424349e-02
 -1.0289396e-01
  2.7379155e-02
 -9.6387444e-03
  6.6124583e-03
 -5.3974412e-02
  2.4544606e-02
 -2.9979037e-02
 -1.4169774e-02
 -3.7458714e-02
  2.6854386e-03
  3.7966974e-04
 -9.9260491e-05
  1.6491249e-03
  4.4561091e-01
  6.9387579e-01
  3.6785787e-01
 -4.3573296e-01
 -6.6379815e-01
 -1.1214923e+00
  6.9368887e-01
 -1.3431129e-01
 -1.9488592e-01
  9.9383235e-02
  2.9845324e-01
 -4.3038854e-01
  1.6414426e-01
 -9.6756093e-02
 -1.4645278e-01
  6.0946113e-01
  1.5611707e-01
 -4.9514255e-01
  5.2899759e-02
 -1.8799721e-01
  2.0351116e-01
 -9.0708293e-02
  3.8267270e-01
 -3.0598372e-01
  2.6387936e-01
 -2.8149700e-01
  3.3122543e-01
  6.5559618e-02
 -2.6761618e-01
  1.0124817e+00
  1.1717707e-01
  2.6579332e-02
 -1.0614511e-01
 -3.0698901e-01
  6.5175354e-02
 -3.2014485e-02
  5.5921829e-01
 -4.5561738e-02
 -8.0972761e-03
 -9.1021039e-02
 -4.0175699e-02
 -1.4628078e-01
  4.2712763e-02
 -2.9802829e-01
 -2.0395856e-01
  8.8687912e-03
 -4.1885987e-01
  4.4919953e-02
  6.2921387e-01
  2.0857447e-01
 -2.6550937e-01
 -1.0090114e-01
  4.2946011e-01
 -1.1667413e-01
  6.6703041e-03
 -9.2824198e-02
  3.8256198e-01
 -2.1069527e-01
  3.4490106e-01
  1.9943079e-01
 -3.7925091e-02
  1.4078413e-01
 -9.7745694e-02
  1.1329524e-01
 -1.5102731e-01
  1.9514623e-01
  6.7639984e-02
 -2.4016759e-01
 -2.9582748e-01
 -7.8445509e-02
  1.7117826e-02
  1.5828830e-01
  4.3924045e-02
 -8.7055095e-02
  2.3565075e-01
 -5.3118598e-02
  9.7508971e-03
  1.0260524e-01
 -8.3753824e-02
  6.3584065e-01
 -1.0664513e-01
  2.3746303e-01
 -1.6809484e-01
 -3.2333308e-04
  1.0038307e-01
 -7.3611446e-02
  2.4602760e-02
 -5.7448521e-02
  2.4494728e-01
 -8.5842505e-02
 -3.4367985e-01
  1.9207792e-01
  1.3989104e-01
 -1.1374423e-01
  3.8793962e-02
  5.6276387e-01
  6.6626064e-02
  5.8234297e-02
 -1.3108109e-01
  3.9042782e-02
 -8.5957870e-02
  1.3796358e-01
 -1.1966134e-01
  7.0625311e-04
  1.6790260e-02
  2.7475980e-01
  2.1183002e-01
  9.9075980e-02
  6.4203374e-02
 -3.4220840e-03
 -1.5881883e-01
 -1.8325572e-01
 -5.6194551e-02
 -6.7317776e-02
 -1.0106813e-02
 -5.0110888e-02
 -1.4576836e-01
 -6.0398612e-02
  7.9184873e-03
  2.6636487e-02
 -3.4203295e-02
  1.5633340e-01
  9.8006777e-02
 -8.4728375e-02
  3.6994345e-02
 -4.6668723e-02
 -4.9798168e-02
 -2.5881832e-02
  5.6482468e-02
  7.7484198e-02
 -5.4940279e-03
  4.9537662e-02
 -1.6268434e-01
  2.7506966e-02
  1.2700334e-01
  5.4287064e-01
  3.8021216e-01
  2.9189844e-02
  1.3491748e-01
  2.5348413e-01
 -5.4169476e-01
 -1.4307609e-01
 -1.9440977e-01
  7.9414897e-02
  8.4682532e-02
 -9.0439834e-02
  2.1400146e-01
  4.4391656e-01
 -2.2138813e-01
 -4.7513671e-02
  2.8824675e-01
  1.3765535e-01
 -9.4938390e-02
 -1.0227737e-01
  3.8317326e-01
  2.1731019e-01
 -1.5080930e-01
  4.7634026e-01
 -1.7972524e-01
 -3.2686532e-01
  1.5688499e-02
  8.7207860e-01
  2.6402378e-01
  2.1290582e-01
  1.8134711e-02
  6.5965913e-02
  2.3740364e-02
  2.2121182e-01
  1.7384915e-01
  1.5178275e-01
  7.7244572e-02
 -2.3779195e-02
  5.9180766e-02
  8.5440185e-03
 -4.6484889e-03
 -1.5125042e-01
 -2.9346375e-03
  5.3431871e-03
 -1.7994104e-02
 -1.4038237e-02
 -6.8319608e-03
  2.3369617e-03
  6.7002499e-03
  7.1388315e-03
  4.7336817e-03
  1.3508000e-02
 -8.6458569e-04
 -8.9591071e-03
 -4.6711131e-03
  2.7825364e-03
 -3.0136099e-03
  3.6179282e-02
 -7.6305699e-03
  1.1885586e-03
 -7.7255056e-03
  5.7781087e-03
  5.8480245e-03
  5.6531015e-03
  2.5056538e-03
 -5.8649536e-03
  5.1663299e-03
  2.1189801e-01
  9.7952690e-03
 -2.3277991e-03
  2.8247263e-02
  6.9578430e-03
  7.4051097e-03
  7.2407331e-03
  5.4439274e-03
 -4.6400566e-02
 -1.1253674e-01
 -1.3363987e-03
  6.2522828e-03
  5.5868961e-03
  1.4001488e-04
 -3.3871790e-03
  7.3106145e-03
  7.2424733e-03
  3.0393412e-02
 -4.1458840e-03
 -2.5513412e-02
  3.4673154e-02
 -6.6236742e-03
 -3.8383428e-02
  3.9479144e-02
  9.0292860e-03
 -4.4667635e-02
 -4.4900864e-02
 -3.8691416e-02
 -4.6195015e-02
 -3.3356421e-02
 -8.0519989e-03
  4.2387653e-02
  4.7707793e-04
  8.4686056e-02
 -2.1449056e-02
 -1.8110014e-02
 -9.5986985e-03
 -2.0188110e-02
  2.5489687e-03
 -4.6152037e-02
  2.0879835e-02
  4.4633877e-03
  4.5797899e-02
  1.1444614e-02
  4.9001720e-02
 -3.9055504e-02
  2.0567127e-02
  3.3393469e-02
 -2.5906738e-02
  1.9335201e-02
  2.5786577e-02
 -2.4592713e-02
  2.2349674e-02
  4.6012397e-03
  6.4780518e-02
 -1.7579664e-02
  2.8506452e-02
  1.8598141e-02
 -1.1662539e-02
 -1.4153251e-02
 -2.1009590e-02
  1.2137197e-02
 -2.5990991e-02
  1.4989293e-01
 -3.8460290e-01
  2.3611262e-01
 -1.7845958e-01
 -1.0955645e+00
 -7.7834733e-02
  1.2229431e-01
  5.2698761e-01
 -4.8502910e-01
 -1.0650174e-01
 -3.2062793e-01
 -1.4365458e-01
  7.5312726e-02
  1.4378559e-02
  2.4616213e-01
 -1.4969167e-01
 -6.2373020e-02
 -1.4469197e-01
 -2.0519465e-01
  4.7069424e-01
 -1.1099932e-01
  1.2118687e-01
  4.0687478e-01
  1.1845349e+00
 -3.7079984e-01
 -7.3562223e-01
  2.5188911e-03
  1.6633639e-01
  9.6794969e-01
  4.8842274e-02
 -3.3261240e-01
 -2.1941136e-01
 -1.5767264e-01
 -3.9366794e-01
 -1.4582205e-01
  2.5045183e-01
  6.7424305e-02
  1.6464051e-02
 -8.1322268e-02
  2.1726134e-01
 -5.3598601e-01
  5.2078348e-03
  8.2062893e-03
 -6.6813037e-02
  1.5507925e-01
 -6.4298159e-01
 -3.4833770e-02
  2.3881051e-01
  2.5662370e-02
  1.3746841e-01
  1.9351466e-01
 -8.5440323e-02
  2.8407151e-01
  1.7821451e-01
  2.6917651e-01
  2.2591734e-01
 -1.7723732e-01
  1.4352162e-02
 -1.4315371e-01
  2.9957494e-01
  2.2964457e-02
  1.7746735e-02
 -2.8471884e-01
  1.1485517e-01
 -7.8914016e-02
 -1.0337716e-01
  1.2442262e-01
  3.8858086e-01
  6.2109745e-01
  4.4898614e-01
 -6.3562506e-01
  1.2797326e-01
 -9.2567429e-02
  6.5783679e-02
 -7.1150947e-01
 -7.3853913e-03
  1.1806497e-01
  1.2852648e-02
 -2.1054149e-02
 -1.3788190e-01
  8.8380054e-02
 -5.3386785e-02
 -4.1055780e-02
  4.6974719e-01
 -1.2730731e-01
  7.5447477e-02
  1.2378221e-01
  1.6951883e-02
 -1.2066434e-02
  2.4598619e-02
 -1.8642027e-02
 -1.7360695e-02
  1.0796218e-01
 -1.1867301e-01
 -4.0615494e-03
 -2.6385609e-02
 -3.1034857e-02
 -1.1909414e-02
 -3.8595725e-02
 -3.6720730e-02
  7.7222101e-03
 -1.1527235e-02
  2.6318381e-02
 -1.3997192e-02
 -1.6218157e-02
 -2.1440931e-02
  6.8366588e-03
 -1.1442150e-02
 -2.1883538e-02
  1.2692548e-02
  2.6817521e-02
  2.2197198e-02
 -1.6219411e-02
  5.8331811e-03
  2.6561517e-02
 -2.2586528e-03
  2.5827106e-02
 -2.2614475e-02
  3.2297373e-02
  9.0104202e-03
 -7.2889058e-03
  1.0403922e-02
  2.3843693e-03
  1.7832298e-02
 -8.0043925e-03
  1.0483116e-03
  2.5244651e-02
  1.2856084e-02
  1.0943646e-03
 -4.7637313e-03
 -7.5280350e-03
 -5.1222024e-03
 -6.3567594e-02
 -3.1493989e-01
 -2.5533432e-01
 -1.2150970e-01
 -5.2489571e-02
 -7.9567544e-02
 -2.7290955e-02
 -3.2761753e-01
  3.0452988e-01
  1.6092530e-01
  2.1559699e-01
  9.2296705e-02
 -2.7420780e-01
 -2.3878776e-01
 -1.1202583e-01
  1.4661497e-01
 -7.1409188e-02
 -3.0446133e-01
  1.1505800e-02
 -1.8737204e-02
  4.4028200e-03
 -7.0076115e-02
  2.2344449e-01
  3.2626203e-01
  3.2931188e-01
 -2.4021706e-01
  5.1104558e-01
  1.2122513e-01
 -4.7856901e-02
  2.3532322e-01
 -1.7014290e-01
 -5.9650713e-03
  1.0090243e-01
 -1.2258424e-01
 -1.0439171e-01
 -1.2754948e-01
  9.0688251e-02
 -9.5304154e-02
 -2.7255125e-02
 -5.4103855e-02
 -1.2086252e-01
 -1.7528482e-02
 -5.7834941e-03
 -4.7229800e-02
  7.5416133e-04
 -1.5529588e-01
  4.3376809e-01
 -9.6139766e-02
 -9.3141012e-02
 -1.2780626e-01
 -6.8585113e-02
 -1.0824783e-02
  4.7136880e-02
 -4.6581700e-02
 -7.1191072e-02
 -1.9467181e-02
  3.8850486e-02
 -3.7570868e-02
  9.4568394e-02
 -9.4919186e-03
  2.5421851e-03
  5.9685763e-02
  5.5047840e-02
 -2.4984737e-01
 -1.2698987e-01
  2.3739588e-02
  1.4907993e-02
  9.8269418e-02
 -1.4778835e-01
  6.8621911e-02
 -1.4880148e-02
 -4.9596529e-02
  4.4521052e-02
 -4.1988682e-02
  7.3600233e-02
 -3.3293548e-03
 -9.0200439e-02
 -2.3829918e-03
 -8.9237979e-03
  6.8105422e-02
 -9.4106039e-03
  3.2663170e-02
 -3.4845334e-01
  1.7776661e-02
  9.1157719e-02
  4.0509729e-03
  4.3921405e-03
 -1.0950003e-02
  2.0504010e-01
 -8.5376069e-02
 -4.4676805e-01
 -1.0020794e-01
  2.0705125e-01
  7.9405829e-02
 -1.6083494e-01
  1.9913329e-01
 -1.0429856e-01
 -5.9274543e-02
  3.1687789e-02
 -3.0512931e-02
 -6.4438730e-02
 -2.5555545e-01
  2.0842455e-01
  3.2559220e-02
  1.4488536e-01
  1.1643846e-01
  4.9532373e-02
  1.5663758e-01
  5.5155635e-02
  7.8139141e-02
 -6.6088885e-02
 -3.8085231e-01
 -1.7493503e-01
  8.9831725e-02
 -2.7196905e-01
 -5.7266466e-02
  7.3638014e-02
 -2.1596816e-03
 -1.0000390e-01
  5.3412835e-03
 -6.3443340e-02
 -2.0160082e-01
 -1.7292972e-01
  9.7561918e-02
 -1.1182990e-01
  6.3157968e-02
 -6.7290679e-02
 -1.8242526e-01
 -8.6023390e-02
 -6.5119140e-02
  1.6919611e-02
 -4.3450296e-02
 -3.3014391e-02
  9.4214484e-02
 -7.6149888e-02
 -8.0971681e-02
  4.2410560e-02
 -2.6456283e-02
 -1.2608376e-01
 -3.7084520e-02
 -5.6350145e-02
 -5.0639529e-02
 -8.3142892e-02
 -5.0605066e-02
  8.6300828e-02
 -3.1173320e-02
  1.0173015e-01
 -7.8939892e-02
 -7.0978366e-02
  3.7549283e-02
  3.6201209e-02
  6.1361812e-02
 -9.8973081e-02
  5.9624914e-02
 -6.3686423e-02
  1.0133456e-02
  1.2086306e-01
 -5.7562146e-02
 -8.4504209e-02
 -4.1913614e-02
  9.9965103e-02
 -1.4143659e-01
 -3.5020545e-02
 -2.3039945e-03
 -4.7413934e-02
  4.5455541e-02
 -9.1085481e-03
  1.0044648e-01
 -4.1504614e-02
  6.7099482e-02
  3.6126174e-02
  2.6656700e-02
 -3.5233494e-02
 -1.5616682e-02
  1.4601337e-02
 -3.3776861e-02
 -1.4783527e-02
  4.0417671e-02
  9.0136556e-03
 -3.6187198e-02
 -1.8238692e-02
  1.2716965e-01
 -6.4036971e-01
 -1.0459749e-01
 -6.8811752e-02
 -2.9252497e-02
 -4.9399961e-02
 -7.6976637e-03
  4.7552362e-02
 -3.2238185e-02
  6.1054796e-02
 -1.3849346e-02
 -2.6513794e-02
 -2.4366837e-02
  3.6914161e-01
  1.1363463e-02
 -6.0110606e-02
  1.4913154e-01
 -6.2422478e-03
 -2.6920485e-01
  4.3400964e-03
  3.5067730e-02
  1.6845314e-01
 -1.9037200e-02
  1.3905345e-02
 -1.7725751e-02
 -1.9690704e-02
  3.6023747e-02
 -3.5461374e-02
 -2.0662767e-01
 -7.5805788e-03
  3.8535144e-02
 -2.4205051e-02
  4.2245820e-02
  2.9925050e-02
 -2.2821773e-02
  6.4490303e-02
 -9.7704993e-04
 -1.2836076e-02
 -2.1978177e-02
 -1.2665993e-01
  5.1725185e-01
  2.8239989e-01
 -4.0347594e-01
 -4.3329111e-01
 -4.2409697e-01
  1.7958757e-02
  2.9020047e-01
 -1.4278704e-01
 -2.1937212e-02
 -1.3444880e-01
 -9.5051654e-02
  4.6634418e-01
  1.1049992e-01
  2.1339934e-01
 -5.1110554e-01
 -8.4182292e-02
  2.6740016e-02
 -1.0161921e-02
  3.6511639e-01
  1.7231455e-02
  5.0371265e-01
 -9.6187890e-01
  1.0244455e-02
  3.6851391e-01
  5.7292804e-02
 -3.0580565e-01
  1.2994352e-01
 -1.3771262e-02
 -4.0256909e-01
 -3.1453803e-01
 -1.1388995e-01
 -1.3898179e-01
 -5.8664232e-01
  8.0735363e-02
 -6.1475329e-02
 -6.4615381e-01
 -5.3861666e-02
 -2.2035278e-01
  3.7712699e-01
  1.7205015e-01
 -2.4638368e-02
  3.4432665e-02
 -5.2637622e-02
 -7.4021625e-03
  7.1298175e-02
 -9.5929736e-03
 -1.1930838e-03
 -1.8839709e-03
  9.3831487e-02
  1.6408285e-02
  2.2548565e-03
 -1.1693451e-02
 -4.5110071e-03
 -1.5603185e-02
  7.8271022e-03
 -1.2992692e-02
 -6.2980587e-03
  1.3499512e-02
  2.0127414e-02
 -1.0991700e-02
 -2.1628324e-02
 -9.4710710e-03
 -1.3660943e-03
 -2.8819190e-03
  2.6866603e-03
  3.6216594e-02
  2.5713153e-03
  1.3316973e-02
  3.5015265e-03
 -8.3854515e-03
 -2.8874537e-03
  2.3416756e-02
  1.9829755e-01
  1.9522462e-02
 -1.7454331e-01
 -1.4160749e-03
 -1.8773386e-02
  4.6579554e-03
  5.4386100e-03
  1.8759057e-03
 -4.1046636e-03
  2.8963836e-03
  1.4200303e-02
  1.3358978e-03
  7.7868975e-03
  6.2490074e-04
 -2.9389868e-02
  1.4769614e-01
  4.0420722e-02
 -1.4544667e-03
 -3.2524172e-02
  8.1537157e-02
 -8.0040835e-02
 -2.4354087e-02
 -3.5578310e-02
 -4.4767633e-02
 -4.7057711e-02
 -3.7189391e-02
  8.1237890e-03
  3.8950603e-02
 -6.4016782e-02
  5.9478737e-02
 -1.3760012e-02
 -1.9051937e-02
 -2.4985841e-02
 -8.5054584e-02
 -1.2877398e-02
 -3.6340352e-02
  3.3769008e-02
  9.4617130e-03
  1.1656788e-01
 -7.5396397e-03
 -8.2440823e-02
 -2.1775846e-01
 -2.9646711e-02
  3.8946304e-02
 -1.7442046e-02
  2.0240569e-02
  2.1292178e-02
 -2.0798801e-02
  2.1102678e-02
 -3.7018796e-03
  4.7286537e-02
 -1.8675983e-02
  2.8260952e-02
  4.0622104e-02
  2.1196377e-02
 -2.8547965e-02
 -1.6660953e-03
 -4.2099226e-03
 -7.9869879e-03
 -6.8238289e-03
 -2.0877320e-02
 -2.9389507e-01
 -1.2263065e-01
  9.8706894e-03
  5.9118855e-01
 -9.1554970e-02
 -3.3348486e-01
 -2.5072244e-01
 -3.3405986e-01
  1.7129913e-01
  5.7927415e-02
 -6.5022423e-03
  8.9073712e-03
  1.2330887e-01
  8.8894591e-02
 -2.1748599e-02
 -3.9638788e-03
 -3.4219563e-02
 -4.3154699e-01
  1.3028283e-01
  9.9765569e-02
  1.9577938e-01
 -5.8506034e-02
  1.0645822e-01
  2.5590497e-01
  2.7469108e-01
 -2.8977271e-02
  3.5210602e-02
  1.0938008e-01
 -7.6497816e-03
  1.1049795e-01
  1.7014863e-01
 -4.5313954e-02
 -1.7549567e-01
  1.4489961e-01
  2.0569023e-02
  6.8580270e-02
  2.7318304e-02
  2.4423257e-02
  1.0500606e-01
 -6.9917731e-02
  7.2068900e-02
 -2.0092478e-01
  3.5338171e-02
  2.9171249e-01
 -1.4098816e-01
 -1.4039114e-02
  2.2219440e-01
 -8.1614116e-03
 -1.3979857e-01
 -2.8783128e-01
 -1.1956090e-01
 -1.0171485e-01
 -3.3197376e-01
 -1.1336243e-01
  8.7259337e-02
  1.7108451e-01
  1.7875044e-01
 -7.5932264e-02
 -6.6595882e-02
  4.2925186e-02
 -4.5891169e-02
 -1.1535922e-01
 -7.3323689e-02
  5.6487605e-02
 -6.4125270e-02
  1.8119748e-01
  6.5603569e-02
  2.2871518e-01
  1.4003459e-01
 -3.0624349e-02
  1.3315021e-01
  3.3418056e-02
 -1.6471436e-03
  1.4942685e-02
 -2.2721931e-01
 -6.9880001e-02
  7.3122174e-02
  9.0694770e-02
 -2.1605866e-02
  9.4570622e-02
 -9.5673287e-03
  1.4155801e-02
  2.9563373e-03
 -9.1306046e-03
 -1.6215846e-02
  3.4258828e-02
  7.5613190e-03
  3.6271894e-01
  2.3808163e-02
  9.6012894e-03
  2.3443904e-02
  1.7876272e-03
 -2.9058536e-04
 -1.0381029e-02
  4.7848251e-01
  1.8130563e-02
  1.5869327e-02
 -7.5010182e-03
 -7.6773884e-03
 -2.8152869e-03
 -1.2717968e-02
 -2.2988781e-02
  1.8212555e-02
  2.7175425e-03
  1.2187249e-02
 -1.3389713e-02
  3.9770617e-03
 -4.8967088e-03
 -1.4462356e-02
 -6.0495371e-03
 -3.5938073e-02
  1.3262810e-02
  8.9229429e-03
  1.1699272e-02
  5.1917966e-02
 -5.9174713e-02
 -1.3686673e-03
 -1.1537274e-02
  2.0629661e-02
 -1.8608712e-01
  1.3288318e-01
 -4.2889778e-02
  1.9720287e-04
 -1.8970516e-02
 -1.0352801e-02
 -7.3482324e-03
  1.0192750e-02
  1.4372941e-02
 -7.4581965e-04
  9.8103080e-03
 -3.6017498e-01
 -4.4315609e-01
 -6.6135980e-02
 -2.1252316e-01
  1.9547404e-01
 -1.3765940e-01
  3.4896904e-01
 -2.4511543e-01
 -4.8539484e-01
 -6.0815956e-02
 -7.5677089e-02
 -1.5047461e-01
  4.0268475e-01
  1.7400256e-01
  1.3043451e-01
 -2.7507082e-02
 -2.2259885e-01
  5.7636533e-02
  4.1148654e-01
  1.6179575e-01
 -8.6355433e-02
  7.2458647e-02
 -4.3085501e-02
 -1.0041115e-01
 -2.3002763e-01
  2.3320790e-01
 -1.5971945e-01
 -3.6069758e-02
  2.3636600e-02
  2.2197368e-02
  1.7395546e-01
  1.7414084e-01
 -1.2530157e-02
 -1.8130560e-01
 -4.4123124e-02
  9.8428085e-02
 -1.8728936e-01
  9.9159174e-02
  4.0222800e-01
 -6.8564251e-02
 -4.8462071e-02
 -5.3294547e-02
 -3.9905526e-02
  1.8874744e-02
  1.4584358e-03
  3.9637028e-03
 -1.6532581e-01
  5.0421892e-04
 -4.3186708e-03
 -5.7678805e-03
  8.9590792e-03
 -3.2991022e-02
 -3.7960869e-01
  1.7500278e-02
  4.7695399e-03
 -1.3993049e-02
 -1.2175469e-02
  7.5493078e-03
 -1.1147987e-02
 -1.0057948e-02
  2.9470751e-03
  2.5782737e-04
  1.0718263e-02
 -6.9730305e-03
  1.1139295e-02
 -4.8886486e-03
  1.3440059e-02
  2.7199080e-03
 -5.3114495e-03
 -8.3748335e-03
  1.1316570e-02
  1.0936889e-02
 -1.5842974e-02
  1.6259745e-02
 -6.5732128e-03
 -1.2915567e-02
 -1.9350308e-03
  6.1430741e-04
  1.0292757e-01
 -1.0127591e-02
  1.8262502e-03
  1.0229085e-04
 -1.6415862e-02
 -5.9078946e-03
  2.8942944e-04
  1.4735700e-01
 -1.7109391e-03
  1.6017929e-02
 -5.2977684e-03
  1.6617388e-02
 -6.4614280e-03
  3.4115338e-03
 -3.9664793e-04
  8.3382549e-03
 -8.0772474e-02
 -3.0728260e-03
 -5.5389162e-03
 -4.6854261e-03
  2.4658320e-03
 -3.4125804e-04
  2.8283715e-01
 -1.3582036e-02
 -3.6757972e-02
  2.1429485e-01
 -7.1468190e-03
 -1.0398772e-03
  9.2207985e-03
  9.8863826e-04
  9.4477916e-03
  8.6164130e-03
 -5.1431847e-03
 -3.6530402e-03
  3.4485585e-03
 -1.6198858e-03
 -1.4736446e-03
  1.1586653e-03
 -8.4182411e-04
  1.3394525e-02
 -2.8002991e-03
  5.0150263e-03
  3.1386621e-02
  3.5843865e-03
  4.6115546e-03
 -8.4859896e-03
 -1.4462644e-02
  1.4280606e-03
 -7.7852695e-03
  7.2362944e-03
 -1.2328967e-02
  2.9064331e-02
  1.2314346e-03
  8.1493538e-03
  2.9674983e-01
  4.8227388e-02
  3.3576810e-01
 -2.9578796e-01
  1.1803375e-01
 -4.4371006e-01
 -6.9299765e-02
 -2.5055960e-01
 -1.7906028e-01
  2.7621463e-02
 -1.0371742e-01
  4.4364459e-03
 -3.0202091e-01
 -1.8207549e-01
  1.9135000e-01
  9.6779011e-02
 -3.1188898e-02
  1.4408292e-01
  2.8210881e-01
 -3.0728787e-01
 -3.9429253e-01
  1.6400942e-01
  1.6550584e-01
  4.3048296e-02
  1.0743017e-01
  1.9007458e-01
 -1.0730534e+00
 -6.7619093e-02
  1.1299621e-01
  5.0358310e-02
  9.0175629e-01
  1.0202896e-01
  3.5931420e-02
  1.5131085e-01
  4.0378031e-01
  2.8600109e-01
  7.6756417e-04
 -1.7742170e-02
  4.4950306e-02
  1.7384179e-01
  7.4141286e-02
  4.5658827e-02
  1.1553474e-02
 -1.4775171e-02
 -9.1650799e-02
 -8.2275516e-01
  1.7030199e-01
 -2.0785907e-02
 -2.4258843e-02
  4.2671084e-02
  1.1736362e-01
 -1.3814808e-01
  8.2638606e-02
  8.1602417e-02
  1.2246718e-01
  2.9322546e-02
 -9.3811050e-02
  5.0686579e-02
 -1.4843442e-01
  6.4612918e-02
  1.6472235e-02
  4.4862688e-01
  1.6787907e-01
  1.4087835e-01
  8.5142240e-02
 -8.1438787e-02
 -8.8251911e-02
 -6.6175707e-02
  2.9309678e-01
  4.0793151e-02
  6.2652402e-02
 -7.7876493e-02
 -5.2184690e-02
  4.4281136e-02
 -8.8400379e-02
 -2.8868869e-02
  7.0549913e-02
 -3.7297311e-03
  5.7718448e-02
 -6.6568919e-02
 -1.9482215e-01
 -5.3125553e-02
 -3.4532305e-02
 -8.9664735e-02
  2.4318008e-02
 -1.9488836e-03
 -2.1579494e-03
  2.2359282e-02
  4.9307398e-02
  1.3602343e-02
 -5.2368129e-03
 -2.2571348e-02
 -4.0133037e-02
  2.9342640e-02
 -4.4059992e-02
 -5.8857929e-02
 -2.0924008e-02
 -2.1778204e-02
 -3.5770776e-04
 -2.8364005e-02
  2.2531401e-02
 -1.2275047e-02
  2.4682105e-02
 -4.4753924e-03
 -1.4429683e-02
 -2.9258361e-02
 -4.0682363e-03
  1.0405636e-03
 -2.4165533e-02
  4.3710860e-04
 -1.1134978e-02
  9.7849006e-03
 -4.6759471e-02
  9.9845743e-03
 -9.8725315e-03
  3.8765767e-03
 -3.0220691e-02
 -8.1292698e-03
  1.0028055e-02
 -2.4275654e-03
  1.0133384e-01
 -3.0622184e-01
 -1.3408751e-02
  2.6344588e-02
  4.3883827e-02
  7.5913942e-03
  5.8130473e-03
  6.5052886e-03
  3.7100334e-02
 -1.3877999e-02
 -2.0610448e-03
 -5.9484323e-03
 -3.1094532e-02
  2.1296911e-02
  3.1941223e-03
 -3.9191432e-02
 -2.1967741e-02
  2.3065740e-02
 -3.6833022e-02
 -3.3009168e-02
 -3.2172017e-02
 -3.6095146e-02
 -2.1645170e-02
 -2.2297012e-02
  3.1001709e-02
 -1.3583488e-02
  6.7231171e-02
 -2.9260915e-02
 -1.4259135e-02
  1.2837514e-01
 -1.5140886e-02
 -1.6662309e-01
 -4.5789480e-02
  1.0173874e-02
 -1.6547430e-02
  1.0900745e-01
  1.1456863e-03
 -2.7550617e-03
 -3.0552095e-02
 -3.4954462e-02
  3.5807621e-02
 -1.1350737e-02
  2.3127813e-03
  1.3835458e-02
 -1.8632421e-02
  1.6826643e-03
 -3.1507882e-01
  4.8108842e-02
 -1.4116924e-01
  1.5846068e-02
  1.9948367e-02
  1.6142389e-02
 -8.5089607e-03
 -6.8252057e-02
 -4.2125070e-03
 -1.0952838e-02
  1.3069345e-01
  4.1018912e-01
 -3.8466424e-01
  1.2587255e-01
  1.3484019e-01
 -4.7817001e-01
  7.4414328e-02
 -9.7306505e-02
 -1.2835519e-01
 -9.2041805e-02
 -2.2326668e-01
 -1.6226083e-01
  1.8782863e-01
  2.1013814e-01
  7.2294593e-02
  7.6379411e-02
 -1.2696756e-01
 -2.6465431e-02
  2.1672996e-02
 -3.5979226e-01
  1.2185492e-02
  1.0640656e-01
 -2.8298793e-02
  1.8309462e-01
  3.5652184e-01
  1.5596357e-01
  2.2130962e-01
  9.5383093e-02
  2.0955890e-01
  9.9154763e-02
  6.2152654e-02
  2.7261706e-02
 -1.7996722e-01
  3.2593306e-02
  3.4871507e-02
  7.2572276e-02
 -5.2607223e-02
  4.4337496e-02
  4.0340018e-02
 -9.8464340e-02
  2.1925297e-02
 -1.0873208e-02
 -2.0825936e-02
  2.6267327e-02
 -9.8617554e-01
  1.8236496e-01
  4.3874189e-01
 -1.4513151e-01
 -9.6210301e-01
 -1.0396242e+00
  4.2237428e-01
 -1.7944783e-01
 -3.5262164e-01
  2.9914820e-01
  2.9421532e-01
 -1.0078096e+00
 -1.3583463e-01
  4.6959347e-01
 -2.7384594e-01
  7.6710379e-01
 -4.9934947e-01
 -3.4925193e-01
  1.0821307e-01
 -4.1263950e-01
  3.7778482e-01
 -1.6216561e-01
  1.9916628e-01
 -1.2481533e-01
  1.3654926e-01
  7.0441437e-01
 -1.1049092e+00
 -2.5975609e-01
 -2.6336467e-01
  3.4780797e-01
 -3.4312159e-01
  1.5118885e-01
  3.1331226e-01
 -4.6078923e-01
 -5.3519446e-01
  4.7049481e-02
  3.7616679e-01
  9.1932636e-01
 -6.5087497e-02
 -2.5304398e-01
 -1.2838571e-01
 -1.6590185e-01
 -5.7736695e-02
 -5.1735157e-01
  3.5246766e-01
  2.1202855e-02
 -1.8552674e-02
 -2.6455844e-02
  3.8775433e-02
 -9.3645297e-02
 -6.0990572e-02
 -4.7546811e-02
 -5.1985573e-02
 -3.9719075e-02
 -3.7284546e-02
  6.1756012e-04
  3.9611798e-02
 -1.4768393e-02
  6.4846158e-02
 -1.3255157e-02
 -3.5293501e-02
 -2.3938354e-02
 -2.1563940e-02
 -1.3302830e-02
 -5.4694399e-02
  3.1563628e-02
  1.0583552e-02
 -2.1567954e-02
 -9.4788158e-03
  2.4145003e-02
 -2.6399184e-02
 -3.6959633e-02
  6.4073958e-02
 -1.3022495e-02
  1.5377971e-02
  2.1207465e-02
 -1.7135043e-02
  1.1354211e-02
  2.2121735e-02
  5.1964711e-02
 -1.9549169e-02
  3.7454512e-02
  8.4833940e-03
  8.2247481e-03
 -2.7693233e-01
 -3.0448448e-03
 -4.5392504e-03
  1.0796480e-03
  4.1260282e-03
 -8.1346437e-02
  2.2792762e-02
  3.2097775e-02
 -1.4739314e-01
  8.3728470e-02
  3.1182429e-02
  5.0300244e-02
  1.6775064e-01
  2.6600745e-01
  5.8496159e-02
 -8.3229672e-03
 -2.3160376e-01
 -9.0394486e-03
 -5.0647531e-02
  1.4857974e-02
  3.3351371e-01
  8.4246732e-02
 -3.7836008e-02
  3.0674778e-02
  3.1285718e-02
 -1.1039814e-01
  6.9853708e-02
 -1.2816311e-01
 -1.7712215e-03
 -4.9225241e-03
 -7.4469045e-02
  6.7906724e-03
 -7.5636372e-02
  2.2927793e-02
 -8.6737454e-02
 -8.3594225e-02
  2.8982118e-02
 -6.1818417e-03
  1.3862370e-02
 -3.7286356e-02
  1.7367246e-02
 -2.1678267e-02
 -5.9473544e-02
 -1.0524455e-02
  2.7246982e-02
  3.4719231e-03
 -9.5258895e-03
  5.6010108e-03
 -5.7259116e-02
  4.1533101e-02
  2.3767188e-01
 -5.0759677e-02
 -1.1358114e-01
  1.2669207e-01
  1.1144700e-02
 -6.5227956e-02
 -9.2163188e-03
 -2.6458681e-02
  2.9204514e-02
  2.5415817e-02
  1.6693309e-02
 -4.2280972e-02
  7.8004040e-02
  7.8601226e-02
 -3.8573256e-04
  2.8729931e-01
 -2.1717680e-01
 -1.2854589e-02
  1.9516300e-01
  3.5134546e-02
  8.8340953e-02
  4.0881135e-02
  5.5457577e-02
  8.8492960e-02
  4.6970155e-02
 -1.4980322e-02
  5.2183095e-02
  7.7647112e-02
  3.5276797e-02
  5.3382419e-02
  9.3221022e-03
  1.5424548e-02
 -2.7080698e-02
  6.9338240e-02
  1.0179981e+00
  4.2443965e-02
  2.6569591e-04
  1.8096052e-02
 -1.5957763e-02
 -1.1350569e-02
  1.7226273e-02
 -9.1223098e-02
 -8.9452788e-03
 -2.8180163e-02
 -1.6661771e-02
 -1.6893350e-02
  1.0099507e-02
  2.5166882e-02
 -4.6542574e-02
 -1.6666882e-02
 -4.5589420e-01
 -1.3448594e-02
 -1.6857581e-02
 -1.2272218e-02
  1.4682897e-02
 -7.4722501e-03
  3.0018924e-02
 -1.3692484e-02
  7.8288196e-03
 -3.1058203e-02
  6.9607981e-05
 -3.0400924e-02
 -1.3440156e-02
  1.2191396e-02
 -9.9220229e-03
 -2.6122271e-03
 -4.1350499e-02
 -1.9287160e-01
  4.3282988e-03
 -2.9036300e-03
  1.6031718e-02
 -1.3746598e-02
  9.5072025e-03
 -6.8899179e-03
  4.5959568e-03
  1.7665094e-02
  5.5786795e-03
  2.5123388e-02
 -1.0578599e-02
  1.0298315e-02
  2.4866369e-03
 -2.1521195e-03
  3.9270362e-03
 -5.0093918e-03
  2.8020979e-03
 -9.3027642e-03
  5.9787393e-02
 -5.7169028e-02
 -1.2468533e-01
 -1.4291762e-01
  2.0514434e-02
 -2.3216890e-01
  4.8083147e-01
 -5.5216972e-02
 -4.1383926e-02
 -8.2663529e-02
 -7.4039027e-02
 -1.6284949e-01
  1.4543766e-01
  2.4164203e-01
  2.3364946e-01
 -2.4056113e-01
 -2.3259434e-01
  1.0620403e-01
  2.2247566e-01
  9.2383858e-04
 -1.1529356e-01
  3.1355858e-02
 -4.8375535e-03
  6.0010705e-02
  1.3303766e-02
  2.3023368e-01
  4.1282076e-02
  7.8343019e-02
  5.0538868e-01
 -2.3303224e-01
  6.0484897e-02
  1.0113943e-01
 -5.1166281e-02
  3.7008531e-02
  1.8218407e-02
  1.3194969e-01
  2.6505082e-03
  7.0655487e-02
  6.4833589e-02
 -6.8290584e-02
 -8.8091277e-02
 -2.7758123e-02
  2.7516002e-03
 -2.1534879e-03
 -7.0783615e-02
  1.7225608e-03
 -3.1341068e-03
  8.6074919e-03
 -6.6323592e-03
  1.9346208e-03
  7.4736988e-03
 -2.7712954e-03
  3.8308760e-03
  1.4783109e-02
  3.4162782e-03
 -2.4123613e-03
  1.8351699e-03
 -2.8003356e-03
  8.9561176e-03
  4.6679538e-04
  6.4575451e-04
  1.3346514e-02
 -2.3065014e-03
 -7.8173552e-04
 -4.1155028e-03
  1.6955652e-03
  1.0036157e-02
 -2.6337169e-02
 -9.0764180e-02
 -6.5172568e-02
  5.5999239e-03
  2.0063077e-03
  9.7573595e-03
 -4.0504467e-03
  9.0448456e-03
  9.7273774e-03
 -1.9010205e-02
 -4.3325252e-03
 -1.7846770e-03
  2.5364941e-03
 -4.9903118e-03
 -2.0686446e-02
 -4.7403863e-03
 -5.5606882e-03
  3.8802601e-02
 -2.5008449e-03
 -7.5810036e-04
  5.9340935e-04
 -3.3424061e-04
  1.4907644e-02
  4.4086523e-02
 -2.0965973e-02
 -1.9585629e-01
 -5.4683000e-02
 -8.1443690e-02
 -6.5832450e-03
  1.0358818e-02
 -3.4247146e-03
 -7.0567336e-03
 -6.3777696e-03
 -4.6458002e-03
 -1.1979732e-02
  3.9782919e-02
 -2.2685739e-01
 -2.0090651e-02
 -1.9325517e-02
  1.6811552e-02
  3.8000527e-01
 -2.2382293e-02
  3.0451026e-02
  1.0685798e-02
  7.3614866e-01
 -6.6592027e-03
 -1.7809844e-02
  1.0066233e-01
 -1.2913049e-02
  2.3076301e-03
 -5.5557732e-03
  1.1691582e-02
 -5.6296806e-03
 -2.2437572e-02
  7.0363530e-03
 -1.8710956e-02
  8.2041584e-03
 -1.4726005e-02
  1.8857773e-02
  3.0200090e-02
  1.6035622e-02
  7.8264102e-03
 -7.9729790e-03
 -2.6789448e-01
 -1.1764979e-02
  4.6343720e-01
 -7.7142924e-02
  3.7105224e-01
  4.6105406e-01
  6.6399628e-01
  3.0296028e-01
 -3.0756620e-01
 -5.3415376e-01
 -2.8654546e-01
  1.5668678e-01
  2.3285949e-01
 -1.8091652e-01
  9.4186105e-02
  2.6008755e-01
 -9.8945066e-02
 -2.4769580e-01
 -4.8172051e-01
 -6.8208688e-01
 -1.7447312e-01
 -2.9569665e-01
  4.4123462e-01
 -3.9447002e-02
 -8.2764998e-02
 -4.0667298e-01
  5.6877816e-01
 -4.0981030e-01
 -1.4613262e-01
  3.5364702e-01
 -4.3485159e-01
 -6.2944256e-03
  1.7666617e-01
 -4.2964077e-01
  1.3086890e-01
  4.2776206e-01
 -8.4380582e-03
  2.1734990e-01
  9.0623759e-03
 -5.8809169e-02
 -1.1862755e-01
 -8.5989889e-03
 -1.2349968e-01
 -6.1410438e-02
 -6.6807799e-02
  1.2702142e-01
  3.2650717e-02
 -3.5601452e-02
  3.7688756e-01
  5.6035381e-02
 -4.1359961e-02
  4.5569874e-02
 -3.0650318e-01
  2.2045940e-02
  4.8099168e-02
  3.7100486e-02
  1.3587520e-01
  3.6999989e-02
 -5.6239054e-02
  2.4231553e-02
 -7.3252827e-02
  9.8680388e-03
  1.3792712e-02
  7.7693835e-02
 -5.2197717e-02
 -5.1611885e-03
  4.1180816e-02
 -5.3606760e-02
  1.3555888e-02
 -1.4225839e-01
 -3.8285807e-02
 -2.8252373e-02
  6.8155818e-02
  1.5345202e-01
 -7.1501814e-02
  3.3012990e-02
 -5.3935092e-02
 -1.9610668e-02
  2.6652740e-02
 -1.4697058e-02
  1.8589150e-02
 -5.2616831e-02
  1.7466160e-02
 -3.5170145e-02
 -5.5565864e-02
 -2.6408462e-02
  3.0961651e-02
  2.0340428e-02
 -8.2122264e-03
  1.1985418e-02
  8.0346977e-03
 -1.6778094e-01
 -9.9311292e-02
  1.0607795e-01
 -3.1549177e-01
 -9.7769164e-03
  6.6870481e-02
  2.7603132e-01
  2.4038871e-01
  6.4554162e-02
  1.6640554e-01
  5.6799140e-02
 -1.2234544e-01
 -3.6734948e-03
 -1.6702929e-01
  1.4522580e-02
  9.7835913e-02
  1.4113653e-01
  3.4551886e-01
  2.1631265e-01
  1.4003596e-01
 -4.1010253e-02
  9.9770598e-02
 -2.1401532e-01
 -2.0238759e-01
 -4.4205477e-03
  7.0673473e-02
 -2.8364576e-02
 -1.5538096e-01
  2.8884318e-02
  2.3919491e-01
  1.0144508e-01
  1.0226966e-01
  1.4481463e-01
  7.1195643e-03
 -1.5504642e-01
  2.3591810e-01
 -4.6318918e-02
 -1.4977735e-01
 -7.6832920e-02
 -1.0183492e-04
 -2.7034212e-02
  5.9785056e-03
  2.8874711e-03
 -1.6608460e-02
 -3.9441727e-02
 -7.2833791e-02
  8.4988801e-03
 -3.8544661e-01
  9.5785163e-02
 -7.6543130e-02
  9.7698970e-03
 -1.1620234e-02
 -3.5375237e-02
 -5.0088007e-02
 -7.3990906e-03
  3.2677259e-02
 -3.7197720e-02
  6.4988472e-02
 -3.1613331e-02
  2.6170006e-01
 -9.1186166e-02
 -5.0536793e-01
  2.5909023e-02
 -7.6184161e-02
  4.6949089e-02
 -3.4514049e-03
 -1.5629742e-02
 -4.0993169e-02
 -3.7422602e-03
 -1.1193068e-01
 -3.1564250e-03
  3.3128083e-02
 -2.6081506e-02
  1.5289843e-03
  7.3214009e-02
 -2.1075359e-02
  1.8468981e-03
 -4.4821607e-04
  2.3263890e-02
 -1.1497047e-02
  2.6272643e-02
  2.0946652e-02
  2.9770786e-02
 -6.9606654e-02
 -2.0487178e-03
  8.5837133e-03
 -1.8737578e-01
 -2.3641759e-01
  7.2125658e-02
  1.2063932e+00
  9.7177759e-02
 -1.7070675e-01
 -1.2413353e+00
  3.0070052e-01
  5.4266855e-02
 -7.3806353e-02
  8.8586129e-02
  1.0847951e-01
  6.0547415e-02
 -1.5869422e-01
  9.1435641e-02
 -1.6964962e-01
  1.3180906e-01
  1.0895202e-01
  1.6541015e-01
  6.3731521e-02
 -7.8493282e-02
  7.5075977e-02
  6.3162302e-03
  2.4310556e-01
 -1.3332091e-01
  1.4903433e-02
  2.5903100e-01
  3.3900551e-02
 -2.7324125e-02
  1.6675439e-01
  1.1985462e-01
 -1.0576899e-01
 -1.0345354e-01
 -2.6754758e-01
  8.0153309e-02
  5.0213002e-02
  1.1308138e-02
  8.3235331e-02
 -8.8545896e-02
 -9.8668754e-02
 -3.9754920e-02
  1.8301453e-01
  3.8708858e-02
 -3.3172734e-02
  4.8159916e-02
  1.4988072e-02
  1.3952829e-02
  9.0667466e-04
 -7.1888012e-03
  2.8366575e-04
 -1.0263809e-02
  1.2531263e-02
  8.2270252e-03
 -2.3554463e-03
 -8.0506615e-03
 -1.5558658e-02
 -3.7489692e-03
  3.7704238e-03
 -6.3024305e-02
 -3.9214250e-02
 -2.5693192e-03
  9.8608062e-04
  2.7235788e-03
 -1.1849902e-03
 -5.1944698e-03
 -1.3445871e-01
  3.9518778e-03
  6.3879214e-02
 -1.3131784e-02
 -4.9241935e-03
  6.2906258e-03
 -1.3091187e-01
  6.0840333e-03
  4.4323523e-03
 -1.9139301e-02
 -9.4598755e-03
 -1.2046883e-02
 -1.1906573e-03
  1.6729515e-02
  8.0327075e-03
 -8.5006272e-03
  8.0995383e-03
  4.7475370e-03
  1.3162481e-02
 -2.7126994e-03
  6.0393359e-03
  7.8679677e-03
  3.0536123e-03
 -5.3213467e-03
 -3.0777040e-03
  4.7389790e-03
  1.3199572e-03
 -1.0991964e-02
  4.2946227e-03
 -1.3049752e-02
  8.7526105e-03
  2.6222691e-04
  6.2273191e-03
 -7.2789681e-04
  5.0848625e-03
 -2.9729300e-03
  3.1606000e-02
  8.5177077e-03
 -2.7067366e-01
 -1.1131163e-02
  7.3017828e-02
  7.4703190e-03
  9.9875955e-03
  2.4401894e-02
 -1.4113271e-01
 -3.8047477e-03
 -1.9837303e-02
 -4.0243031e-03
 -8.5632214e-03
 -4.1460869e-04
 -1.2840401e-02
  1.3963342e-01
  3.9411816e-03
 -8.6070243e-03
 -3.4138798e-03
  4.8128190e-03
 -2.5155324e-02
 -1.7193025e-02
  9.4019639e-04
 -8.0057364e-03
  3.8804358e-03
 -1.0365869e-03
  1.6337292e-03
  4.4603776e-03
 -1.1305333e-02
 -1.2160413e-02
  1.9637918e-02
  1.3386597e-02
  3.5498887e-01
  4.5720097e-02
 -1.5782312e-01
 -8.9662381e-02
 -6.9458969e-02
 -1.9517043e-01
  4.7866365e-01
 -1.8179205e-01
 -9.9973649e-02
 -4.8782766e-02
 -1.7954366e-01
  3.3047352e-02
  7.4587412e-02
  2.7123382e-02
  1.5185373e-01
 -2.9949762e-03
 -7.7175751e-02
 -7.1029119e-02
  5.8495123e-02
 -6.8952970e-02
 -9.0683095e-02
  5.7030290e-02
  1.9574267e-01
  1.5091768e-01
  1.0066516e-01
  5.6566492e-02
  8.2370058e-02
 -3.4104235e-02
  7.1048975e-02
 -7.8981511e-02
  3.4985237e-02
  9.0994395e-02
 -8.2508489e-02
  8.1960991e-02
  1.1777591e-03
  6.6408828e-02
 -2.6688216e-02
  2.3036352e-01
  1.4735603e-01
  8.0639515e-03
 -5.0698657e-02
  7.7182078e-01
 -2.1311987e-02
 -3.6280155e-02
 -1.3362370e-01
  3.9352059e-02
  1.7768556e-02
  1.1103324e-02
  2.1923527e-02
 -5.2295387e-01
  4.9191639e-02
 -2.9682061e-01
 -2.4495404e-02
 -2.9267766e-02
 -3.0087367e-02
  1.2930821e-02
  2.6770512e-02
 -8.5186930e-03
  5.5349179e-02
  3.7854329e-02
 -6.0494270e-02
  4.3353114e-02
  1.4979683e-02
 -1.0362079e-01
 -1.2836219e-01
  1.6862584e-02
  4.4399168e-02
  6.5892622e-02
  3.7282817e-02
  4.7694527e-02
 -1.3087334e-01
  9.3643181e-04
  4.4072334e-02
  4.4602562e-02
  1.8771916e-03
 -9.3336034e-01
 -1.1950630e-02
 -4.0814456e-02
 -3.4879815e-02
  3.5270769e-02
  5.9829219e-03
  3.0496802e-02
  6.0856376e-02
 -1.4055934e-03
  1.0845486e-01
 -2.0881191e-02
 -6.9671562e-03
  7.0399122e-04
  4.2698568e-01
  4.7302011e-02
  1.2390405e-02
  7.3910469e-01
 -6.2457114e-03
  3.4344122e-01
  2.3511542e-01
  2.0330068e-02
 -3.0541969e-02
  6.2327359e-02
 -3.0223425e-03
 -2.4552605e-01
  3.5209662e-01
  2.7105669e-03
  1.5273395e-01
  2.8021109e-01
  4.4309184e-02
 -2.2283782e-01
 -3.7700832e-02
 -5.3878665e-01
  4.7218404e-03
 -1.5854437e-02
 -2.9251957e-01
  4.6693963e-01
  1.0826474e-03
  6.5975085e-02
 -5.9098168e-03
 -8.1143342e-03
 -3.2940283e-02
 -8.3429396e-02
 -4.9557427e-01
 -9.0858452e-03
 -7.6525532e-02
 -4.4453412e-01
  1.5202405e-02
 -1.6473763e-02
 -7.4936658e-02
  1.3885743e-02
  8.8546641e-02
 -5.4482487e-03
 -7.9175435e-02
 -5.0990337e-01
  1.8478600e-02
  1.6895622e-02
  6.1417107e-02
 -5.3324735e-01
 -8.2986662e-03
 -5.6399562e-04
  9.9946223e-03
 -3.6380231e-02
 -6.9995421e-01
  1.6859688e-01
 -5.9671029e-02
  4.3134943e-01
  1.5441111e-01
  8.0634928e-01
 -6.1525357e-01
  2.3047273e-01
 -3.9996091e-01
  2.5224844e-03
 -1.3778096e-01
 -4.2425677e-01
  4.0017080e-01
 -6.5589085e-02
  4.1272834e-01
 -1.7970608e-01
 -3.8359281e-01
 -2.7644831e-01
 -1.2454890e-01
 -5.2475351e-01
 -2.8431570e-02
 -1.3183394e-01
 -3.3745897e-01
 -3.9545465e-01
  4.1554663e-02
 -2.8891233e-01
  2.4491224e-02
 -7.3205288e-03
 -2.6525533e-01
  2.5763157e-01
 -5.1143497e-02
 -1.0574616e-01
 -3.5119787e-01
  9.2322314e-01
 -1.2177274e-01
  8.5187078e-02
 -1.6827014e-01
 -4.5625884e-02
 -2.9746139e-01
  6.1688428e-03
 -6.5584727e-02
  4.3871054e-01
  1.5413995e-01
  1.9915938e-01
 -1.1908072e-01
  3.2363248e-01
 -1.5401766e-02
 -5.1838979e-03
 -1.9566932e-01
 -1.3328943e-01
  1.4468519e-01
  1.0571553e-01
 -8.9218311e-02
 -3.3182971e-02
  3.1739093e-02
  5.1776011e-02
 -9.3576469e-02
  7.6817147e-02
 -9.4652906e-02
 -1.7969957e-01
 -1.5043661e-02
 -1.1676846e-01
 -7.5828224e-02
  4.4845622e-03
  1.3475644e-02
  3.3837968e-01
  1.2505902e-01
 -1.1541682e-01
 -3.4636050e-02
  2.8781208e-01
 -1.0631219e-01
  7.8717865e-02
  7.0353530e-02
 -4.2093154e-02
  2.1765172e-02
 -2.3519740e-02
  9.1270536e-02
 -1.2535415e-02
 -2.1521006e-02
  2.7905357e-01
 -1.7316362e-01
 -1.3550253e-01
 -8.2244620e-02
 -1.7363640e-02
  6.0941685e-02
  3.6503501e-02
  1.6920039e-01
  4.1935354e-02
  2.0418592e-02
 -4.8686355e-01
  1.2495770e-02
  3.8735485e-03
 -2.0095173e-02
  2.0516999e-02
 -4.7966704e-01
 -9.3694262e-02
  1.5777721e-01
  1.6697089e-01
  1.8793461e-01
 -4.5287436e-01
  3.7867284e-01
 -6.8833661e-01
 -8.2080066e-02
  1.0349000e-01
  1.8055125e-01
 -8.1569090e-02
  8.8855535e-02
 -1.2789693e-01
 -1.2914910e-02
 -9.9898979e-02
 -1.9845431e-01
  4.7697964e-01
  1.4927770e-01
 -7.7507481e-02
  3.7006444e-01
 -2.1639708e-02
 -8.0913186e-01
  1.6278466e-02
 -1.2840720e-01
 -8.0620125e-02
 -1.6308118e-01
 -1.1151254e-01
  2.7199757e-01
 -3.1763172e-01
  5.2211542e-02
 -1.5211704e-01
  3.0981600e-01
  8.4563605e-02
 -2.6178034e-02
  1.2909195e-01
 -1.0748044e+00
  1.3892658e-02
 -2.1687849e-01
  4.1098408e-02
 -1.2577002e-02
 -5.2704412e-02
 -2.2224490e-02
  4.3978166e-02
 -3.1006699e-02
 -1.8934157e-02
  8.9824358e-03
 -3.2799876e-01
 -1.9468524e-03
 -1.5378255e-02
  1.1253336e-02
  3.5333782e-03
 -8.7121958e-03
  2.2116493e-02
  3.0423941e-02
  1.6391894e-02
  2.7463539e-03
  4.9091373e-03
 -5.2865962e-03
 -8.0195582e-03
 -5.9501864e-03
  1.3037448e-01
  2.8694652e-03
 -2.4511920e-02
  1.2582465e-02
 -2.4722442e-03
 -3.8405339e-04
  1.1391541e-02
  8.6493585e-03
  1.1814885e-02
 -5.4169171e-03
  7.0579131e-03
  5.3475909e-03
  8.7885084e-03
  9.5400726e-03
 -1.1665124e-02
  6.4835208e-03
 -1.7585814e-02
 -5.9204116e-03
 -8.0931745e-03
  7.1283695e-03
 -7.2869219e-02
 -7.7088862e-03
  1.2175752e-02
 -6.4957556e-03
  1.2499533e-03
 -8.6962208e-03
 -5.5207498e-03
  5.1143568e-02
  1.9035105e-02
 -4.1430596e-02
 -2.6341902e-02
  6.8555094e-02
 -4.4223998e-02
 -9.7936302e-02
 -2.4823407e-03
  1.5768608e-02
 -1.4010097e-01
  3.3733572e-03
 -1.3090354e-01
 -5.9807651e-02
 -2.7770681e-02
  9.3335491e-03
  6.8195514e-02
 -2.7445434e-02
 -8.0958806e-02
 -2.9910512e-02
  1.1955831e-01
 -9.6440472e-02
 -2.1554904e-02
  3.9875521e-03
 -2.9774356e-01
  6.8421133e-02
 -1.5773265e-02
  7.8357242e-02
 -9.5184287e-03
 -2.6293749e-02
 -5.7326734e-02
 -3.5522539e-02
  3.2429885e-02
 -6.5440744e-02
  5.1285185e-02
  9.5797367e-02
  2.9300535e-02
  9.1851652e-02
  6.1024893e-02
  1.3817466e-02
 -2.7220234e-02
  2.0314356e-02
 -6.0830317e-02
 -2.3582170e-02
  1.6582962e-02
 -2.2883378e-02
 -1.5352506e-02
  8.1990138e-02
  2.5357023e-02
 -4.1163538e-02
 -1.5262288e-01
  2.3493914e-02
 -4.1222598e-02
  1.0689273e-02
  3.7751306e-02
 -2.7526063e-03
 -1.9864896e-01
  2.2929305e-02
  1.6169382e-02
 -9.6627511e-03
 -1.2785337e-02
  4.0628985e-03
 -1.6062260e-02
  8.0331657e-03
 -6.7510251e-03
  4.8147194e-02
  8.0178734e-03
 -2.1660060e-02
  1.3872247e-02
  1.1478355e-01
  9.6980277e-03
 -1.5320663e-02
  8.4140133e-03
  1.1227937e-02
 -9.2080673e-03
  1.7930295e-02
  1.0310533e-02
  3.3024635e-02
  3.4405096e-03
 -2.4557758e-02
 -1.0378685e-02
 -2.2921458e-01
 -2.1537494e-02
 -1.3217947e-02
  1.2959310e-02
 -3.1919058e-02
  2.0688824e-02
  3.6841806e-02
 -1.5869567e-02
  9.8645359e-02
 -3.4035508e-02
 -3.8500484e-03
 -6.2942272e-04
 -8.3325624e-02
  2.8319243e-01
  1.0319505e-01
  1.4364746e-01
  3.5026096e-02
  1.8266171e-01
 -3.7046226e-03
  1.4269702e-01
  5.8046285e-02
 -3.2985337e-02
 -1.2840360e-02
 -1.2637852e-01
 -1.1768685e-01
  2.4834354e-01
  3.1318676e-02
 -1.1256796e-01
  1.8886797e-01
 -6.3917357e-03
  1.2751988e-01
  6.4667203e-02
  1.1098509e-01
  3.4623608e-02
 -5.9800405e-02
  1.4877054e-01
  5.6012176e-02
  1.9684210e-01
  3.8325343e-02
 -1.9019808e-01
  1.9485645e-02
 -2.5396517e-02
 -1.3607159e-01
 -6.9393776e-02
  4.6451680e-02
 -6.8457521e-02
 -5.0216392e-02
  2.0549143e-02
  4.5877669e-04
 -2.4413377e-02
  1.2582299e-01
 -2.6559979e-02
  4.0603963e-01
 -1.3256501e-03
  5.4144957e-03
 -8.7767579e-03
  6.1238385e-03
 -8.6824540e-03
 -4.3443032e-03
 -4.1086106e-03
  7.2435401e-03
 -1.6308112e-02
  4.0756091e-03
 -1.6102364e-02
 -6.7572348e-02
  5.6983726e-03
  1.3504666e-03
  1.4574966e-02
 -3.3260814e-03
 -1.8281006e-03
 -1.2120989e-02
  1.4107116e-02
 -1.9054661e-02
  9.0622157e-03
  4.3302556e-03
 -6.8854459e-02
  1.8483616e-02
 -1.3010058e-02
  8.4462836e-03
 -1.6520122e-02
 -9.3420511e-03
 -3.6674901e-03
 -8.6549977e-03
 -5.7087569e-03
 -1.1241396e-02
  3.0734083e-03
  1.0520570e-02
 -1.4347753e-01
 -1.7024761e-02
  7.2595170e-03
  2.2922582e-03
 -1.1587045e-01
  1.2666568e-04
  5.4625506e-03
 -3.7932482e-03
  1.1098943e-02
  1.0821192e-02
 -7.1476476e-04
 -6.6200471e-03
  1.4067575e-03
  3.2219468e-03
  8.8784173e-03
 -3.0255234e-02
  4.3382469e-04
  5.4608886e-03
 -6.1066741e-05
  3.7597988e-02
 -7.1833516e-03
  5.5624186e-03
  5.1538255e-03
 -8.2724597e-03
 -4.4243908e-03
 -1.0467621e-02
 -8.1699500e-03
 -3.9082058e-03
  6.5518543e-03
  5.5172467e-03
  2.5548527e-03
 -7.4167401e-03
  2.9696950e-03
 -1.0457465e-01
 -5.5237282e-03
 -3.4677747e-01
  1.5352680e-03
 -2.4288136e-03
 -1.5302439e-03
  3.1615391e-03
 -1.0873892e-02
 -7.5655333e-03
  4.6247402e-03
 -3.0414206e-03
 -1.2196294e-02
  9.9271111e-02
  9.2820087e-03
 -6.2749372e-03
  2.6251348e-03
  8.0343811e-03
  1.3994989e-01
  9.5251184e-03
 -7.1345959e-03
 -2.3135655e-01
  2.3489734e-02
  1.1413746e-01
 -6.8438388e-03
  1.7993021e-01
  4.3760296e-02
 -1.7160779e-02
 -1.9375189e-01
  1.2027025e-01
  6.5934651e-02
 -3.3249047e-02
  9.9417247e-02
  4.1662887e-02
  6.2798524e-01
  2.1932417e-01
 -9.4318502e-02
 -2.8843975e-01
 -4.1664767e-01
  7.0147187e-02
 -2.1561105e-02
  2.2669308e-01
  1.7043348e-02
 -4.9220962e-03
 -1.7612150e-02
  5.2182101e-02
  2.8632155e-02
 -1.2748530e+00
  1.2564157e-01
  4.4108033e-02
  2.1661627e-01
  1.6272364e-02
 -4.4285876e-01
  8.0499016e-02
  5.5941049e-02
  1.8270925e-02
 -2.4730731e-02
 -1.3583827e-02
  4.8836734e-02
  1.4111546e-01
  1.6524080e-02
 -4.7791720e-04
 -2.4420222e-02
 -1.7914912e-02
  5.6240191e-03
 -1.4699441e-01
 -1.9747725e-02
  3.4331143e-02
  2.0743070e-02
 -3.0117515e-02
 -2.7375814e-02
  7.2827019e-02
 -1.2131986e-01
  3.0479978e-03
  1.3747241e-01
  5.4027595e-02
  1.1461821e-01
  3.1672541e-02
 -1.4244516e-03
  2.3067892e-02
 -5.6654233e-02
  1.3879900e-01
 -9.1707885e-02
  3.0953771e-02
 -1.4522901e-01
  9.9382937e-02
  2.8661497e-02
 -1.1752788e-01
 -3.6647439e-02
 -5.8484867e-02
  2.1861130e-02
 -8.8792786e-02
  1.2737459e-01
  2.8996289e-02
  1.4885605e-02
  8.4483303e-02
 -2.2686822e-02
  1.1365920e-01
 -1.8712003e-02
 -1.1240348e-01
 -1.2975641e-01
 -9.9261686e-02
 -5.5785596e-02
 -1.0882487e-03
  3.2713056e-02
 -1.3339437e-02
  1.1370269e-01
  8.8613247e-03
 -5.7489168e-02
 -2.0460704e-01
  3.2314643e-01
  1.1703729e-01
  1.9095965e-01
  2.0138516e-01
  6.0132466e-02
  8.3853342e-03
  9.5627636e-02
 -3.8218576e-01
 -2.7573344e-01
  5.2302635e-01
 -1.9678326e-01
 -9.6435867e-02
 -5.1457826e-02
  5.4167554e-02
  2.5711533e-01
  4.4905640e-02
  9.1439269e-02
 -1.0502955e-01
  2.2213873e-01
 -2.7288952e-01
  4.0791880e-02
  2.5446884e-02
 -9.1428891e-02
 -4.2850621e-02
 -3.3081856e-02
  1.6384724e-01
 -1.8588040e-02
 -1.4322755e-02
  3.8923848e-01
 -5.2498337e-02
  1.9036217e-02
 -1.2992954e-01
 -3.5830040e-02
  8.4304832e-02
  9.8218262e-02
 -4.7061011e-01
  7.3508322e-02
  7.1082950e-02
 -4.6764635e-02
  2.9847043e-02
  3.0161990e-02
 -2.4047511e-02
  4.7638796e-02
  6.7393733e-03
  1.6948190e-02
 -1.3003207e-02
 -4.7970712e-02
  4.5005633e-03
  1.8663416e-02
 -2.5422368e-02
 -3.5865077e-01
 -1.9612901e-03
 -4.1745204e-02
  2.5454657e-02
 -3.7446618e-02
 -2.1754326e-02
 -2.0820837e-02
  2.0616692e-03
  1.0320548e-02
 -3.9467602e-03
  1.6391294e-03
 -2.1551145e-02
  3.0601766e-02
 -5.1099960e-02
  5.7044290e-03
  5.9467521e-03
 -1.9628501e-02
  8.5208332e-03
 -9.7716991e-03
  3.8930718e-02
 -5.7755341e-03
 -6.7973305e-03
 -1.9364693e-03
 -8.4052067e-03
 -5.2397638e-03
 -2.2887478e-02
  5.8222353e-04
 -1.0482057e-01
  1.8367389e-02
 -2.2820558e-02
  1.9500008e-02
 -5.5995185e-02
  2.1789463e-03
  6.1966423e-03
  1.3113958e-02
 -1.0598727e-02
  3.4580515e-03
  6.3573904e-02
  8.9517673e-03
 -3.5073656e-01
 -9.1477536e-02
  4.8066080e-01
  7.6424092e-02
 -1.4729773e-01
  4.2753404e-01
  1.9907100e-01
 -1.5912162e-01
 -1.1308168e-01
 -1.1055351e-01
 -8.0584086e-02
 -8.8090226e-02
  5.1941960e-03
 -2.1579593e-01
 -1.2581633e-01
  1.2375500e-01
  2.1425823e-02
  4.0384296e-02
 -7.3163509e-03
 -8.7789774e-02
  5.8182355e-02
 -4.3445926e-02
  9.6234895e-02
 -2.0420749e-02
  5.4005720e-02
 -1.1591157e-01
 -5.8510289e-02
 -4.9527469e-01
  5.4419535e-01
  2.6654336e-01
 -1.2735784e-01
  1.2837806e-01
  1.4552265e-01
  1.1694018e-02
  3.1139967e-01
  7.7276833e-02
  2.3974163e-02
 -4.4753369e-02
  6.0331332e-03
  2.0700501e-02
 -1.4523646e-02
  3.3280104e-02
 -2.1695685e-01
 -3.1365056e-02
 -6.1150234e-02
 -1.3599187e-03
 -4.0405584e-03
  8.8064030e-02
 -1.7088458e-02
 -1.9104554e-01
  1.5343691e-01
  1.0905054e-01
 -2.4888145e-02
  4.0139083e-02
  5.9334271e-02
  3.5673793e-02
 -1.1279983e-02
 -4.7908429e-02
 -3.2021493e-01
 -9.2637390e-03
 -2.0822331e-02
 -5.7416349e-03
  8.7838888e-02
 -1.4438991e-02
 -3.2336287e-02
  2.9388519e-02
  1.9574969e-01
 -2.1729700e-02
 -3.3836663e-02
  8.1215724e-02
  2.1690290e-01
  1.1683392e-01
  5.1488345e-03
 -7.6734811e-01
  1.6132273e-02
  1.6238857e-02
 -2.9392380e-02
 -4.2556588e-02
  1.5891990e-02
  1.2682092e-02
  3.5864420e-02
  7.9929782e-03
 -8.8592339e-04
 -2.4153816e-03
 -8.3995116e-04
  6.3306917e-03
  2.1837195e-02
  1.0874073e-02
 -1.7536782e-02
 -3.9978167e-03
 -8.6913243e-02
  1.4838949e-02
  1.2712613e-02
  2.0739656e-02
 -8.8321241e-03
 -4.6677541e-02
 -8.6779762e-03
 -3.6556780e-02
 -1.4553559e-02
 -3.8556005e-03
  1.7732495e-02
  1.8014491e-02
 -6.5014965e-04
  1.0214906e-02
 -1.1504483e-02
  3.3885691e-02
 -4.3066647e-02
 -6.0378248e-03
  6.6998145e-03
  7.9045944e-02
  9.4081834e-03
  2.2431475e-01
  5.1009644e-02
  1.6292844e-02
 -2.1865463e-02
  8.5992828e-02
 -1.3181390e-02
 -5.4325499e-03
 -1.9383630e-02
 -1.4587483e-02
  5.2053146e-02
  8.6114835e-03
 -2.3065863e-02
  2.3786630e-02
 -1.0974141e-03
 -8.2419729e-03
  2.0343745e-02
  9.3777152e-03
  4.3041501e-04
  3.4881891e-03
 -5.4101058e-04
  6.3428481e-04
  7.4888375e-03
  5.5358014e-03
 -4.5953829e-02
  7.5656609e-03
  6.9814036e-03
 -3.5222259e-03
 -9.4720861e-03
  2.8521484e-03
  5.1731215e-04
  1.8333174e-02
  2.9478893e-03
 -4.4783955e-03
 -2.3489473e-02
 -1.3121658e-02
 -6.0563516e-03
 -1.2688967e-02
 -3.8574378e-03
 -1.1574384e-02
  7.8683928e-02
  1.4181138e-03
 -1.5697813e-03
  1.5526069e-03
  7.3445807e-03
  3.4262801e-03
 -3.1336804e-03
 -8.3341999e-03
  6.0094222e-03
  1.4412593e-02
 -8.0920337e-04
  2.5349510e-01
 -2.7806722e-03
  1.8494398e-03
 -5.4942518e-03
 -1.0510022e-02
  1.3838879e-02
  4.0056226e-03
  5.3425324e-03
  7.6572155e-03
  1.2508323e-03
  1.2339950e-02
 -7.9572694e-03
  5.3319368e-03
  1.9977652e-02
  8.5167103e-03
 -8.4554575e-02
  3.3355367e-01
  2.7413309e-02
  6.2720166e-03
  2.2463991e-01
 -1.4529958e-02
 -2.6008338e-02
  1.7137790e-01
  4.6793926e-03
 -3.6522083e-02
 -1.1617305e-02
 -6.2645609e-03
  3.0087229e-05
  6.7063004e-02
 -6.1398703e-03
 -1.0535419e-02
 -6.6418978e-03
  1.6178789e-02
 -2.4378797e-02
 -9.5227419e-04
 -3.9532346e-01
 -1.4830061e-02
  1.2423538e-02
 -1.4309501e-02
 -3.3053172e-01
 -9.9007576e-04
 -1.1722210e-03
 -1.5337046e-02
  3.6224632e-03
  3.2893673e-02
 -1.1812044e-02
  2.8252311e-03
  3.1505894e-02
  1.0731130e-02
 -8.0668647e-03
  2.1878704e-03
 -1.0492392e-02
 -7.8998478e-03
 -5.4480121e-02
  1.8730594e-03
 -4.7257873e-03
  8.5451473e-03
 -2.0853861e-01
 -4.2423099e-02
 -7.7189684e-02
  9.3939021e-02
  8.6244836e-02
  5.3723898e-02
  1.2042281e-01
 -2.6804185e-01
 -1.9326140e-01
  2.4446020e-01
 -8.8939734e-02
  1.1010776e-01
  2.8754566e-02
 -7.3289536e-02
  1.1459666e-03
 -2.1605647e-01
 -3.4034190e-01
  2.0335077e-01
  2.2988126e-01
 -2.6818854e-01
  1.6039963e-01
 -6.3536540e-02
  2.6286098e-01
  4.6147663e-02
 -5.4017991e-01
  2.2035772e-02
 -1.3798931e-01
 -5.4450061e-02
 -1.3211643e-02
 -6.4102894e-01
  5.7559457e-02
 -4.3525536e-02
  9.4563805e-02
  7.2511852e-02
 -3.7716843e-02
  5.0781611e-02
  7.1348727e-02
 -1.9774685e-02
 -3.7804279e-01
  1.6946694e-02
  2.1814480e-02
 -1.1628623e-02
  1.3240447e-02
  4.6260282e-02
  1.4847619e-02
 -2.2811458e-02
  1.5701571e-02
  2.1665123e-01
 -1.5030373e-03
  4.6916711e-03
 -2.3789604e-01
  1.1325505e-02
  6.8897748e-04
  1.5497854e-02
  5.5314235e-02
  8.4719351e-03
 -1.8700976e-02
  5.4384014e-03
 -4.0710014e-03
 -1.0905515e-01
 -8.8678114e-03
  1.8830177e-03
  2.8874984e-03
  3.7393528e-03
 -9.6236169e-04
 -2.9560893e-03
 -1.2296813e-03
  8.8318260e-03
  1.0197643e-01
  8.7253712e-03
 -1.1008060e-02
  1.0794136e-03
  2.3189655e-02
 -4.2457776e-03
  9.7268587e-03
  5.1450948e-03
  6.9414988e-02
 -7.8951027e-03
 -1.7739290e-02
  8.2367826e-03
  2.3477526e-02
 -8.8491151e-03
 -4.0597219e-02
 -7.3568285e-03
 -7.2119823e-03
 -4.9151052e-02
 -2.4001817e-04
  6.3870540e-03
  1.7205277e-02
  1.1892135e-02
 -1.0737310e-01
  3.8307741e-02
 -7.4386245e-01
 -1.2916194e-01
  9.3948632e-01
  2.0981742e-01
 -7.5761400e-02
 -3.5293985e-02
 -1.6809650e-01
 -2.4285044e-01
 -5.5833673e-03
 -3.8823623e-02
  1.7132251e-02
  2.5394950e-03
  6.3078351e-02
  7.3423311e-02
 -9.0978909e-05
  4.7467663e-03
 -2.4173647e-02
  1.6523858e-03
 -5.7990156e-02
  2.3953389e-02
 -8.4073499e-02
  2.1635124e-02
  2.6191534e-02
 -4.1669730e-02
  5.5164294e-03
 -7.0934229e-02
 -9.6323853e-03
  2.8446779e-01
  7.5549530e-03
 -9.8563125e-03
 -7.3034310e-01
  3.4426071e-02
  1.2562118e+00
  2.7244018e-02
 -3.5382152e-02
 -7.9674209e-03
  2.9819341e-02
 -1.3183490e-02
 -1.5732399e-03
  7.8532230e-03
 -2.0937333e-01
  4.2702100e-01
  6.6682935e-01
 -6.4358336e-01
  1.1594678e-02
  1.5991853e-01
  5.1297265e-01
  2.1434044e-02
 -6.3078696e-01
 -3.8126811e-01
 -7.1546659e-02
 -2.1558549e-01
 -8.0018230e-02
  3.6508966e-02
  3.4268002e-03
  3.4876516e-01
 -2.2754644e-01
 -3.9454943e-01
 -1.1330627e-01
 -1.7634612e-03
 -2.0645393e-01
  5.2688688e-02
  1.7179821e-01
 -2.2847502e-01
 -2.1790291e-01
 -7.6545820e-02
  1.6224268e-01
 -8.4801324e-02
 -5.5847760e-02
 -2.6632285e-01
 -1.2844601e-01
  5.0052065e-01
 -2.4321025e-02
 -2.6204370e-02
  3.4151393e-01
  2.4784504e-02
 -5.0563682e-02
  2.5216559e-01
  3.1024337e-01
 -6.9715798e-02
  3.3236825e-01
  3.1555668e-02
 -2.3983452e-02
  2.3070167e-01
  3.6714363e-01
 -2.5826272e-01
  6.5210558e-02
  1.3491897e-01
 -1.9211225e-01
  5.4032141e-01
 -5.9045285e-02
 -1.3327341e-01
 -1.2603220e-01
 -1.0201138e-01
 -5.3390339e-02
 -1.2115747e-01
 -8.6269736e-02
 -1.1589994e-01
  4.4684499e-03
  1.7256223e-02
  3.4904289e-01
  3.8397992e-01
 -9.9132299e-02
  1.3819352e-01
 -1.7214109e-01
 -5.6121312e-03
  1.9057195e-01
 -1.4777158e-01
 -2.4287823e-01
 -3.5077274e-02
 -9.7614015e-03
 -1.3638887e-01
 -4.7011707e-02
  5.9466615e-02
 -4.4852275e-02
  1.1567565e-01
 -4.3953189e-01
 -5.6983694e-02
 -1.4258303e-02
  6.2012039e-02
 -1.6357264e-01
 -6.8793483e-02
 -1.3291861e-01
 -7.1040936e-02
 -1.7280284e-02
  3.7651181e-02
 -2.5223963e-02
  1.9389391e-02
 -9.4114088e-02
 -3.4864908e-03
 -1.0520515e-02
 -2.1786282e-03
 -4.3287326e-02
 -5.4500201e-03
  2.2393774e-02
 -4.5637684e-03
 -7.8991717e-03
  7.0173167e-02
  8.7979577e-02
  3.9236430e-02
  3.8763553e-02
  9.9609084e-03
 -1.0200245e-02
 -1.5718015e-02
 -1.3636765e-02
 -5.8943357e-02
  9.9157887e-03
 -3.6545705e-02
  3.4880366e-02
  6.5091248e-03
  4.7540390e-01
  1.2601135e-02
  6.5308227e-03
  8.5967630e-03
 -3.0778617e-02
  9.8385336e-03
  2.2334761e-03
  1.1042872e-02
 -4.2355035e-02
  2.9520914e-01
  6.9940859e-03
 -2.5993027e-04
 -6.0626045e-02
 -9.9499244e-04
  9.0766430e-04
 -1.4511998e-02
 -1.5687654e-02
  1.3429893e-02
  3.8894464e-03
 -1.2083754e-03
  6.7749522e-03
 -5.6051277e-03
  3.2172605e-01
 -3.0421570e-01
 -8.4321058e-01
 -1.7740943e-01
 -3.1329566e-01
  5.2090939e-02
  1.7782612e-01
 -2.2763015e-01
  1.2731679e-01
  4.1802782e-01
 -1.2025593e-01
  2.4701002e-01
  9.9069946e-02
  3.5676152e-02
  2.5545815e-01
 -3.7304026e-01
  4.2029563e-01
 -1.0630388e-03
  6.8549998e-02
 -1.3379660e-01
  2.1855283e-01
 -3.7200246e-03
  1.7931825e-01
  2.3192817e-01
 -4.1153213e-01
 -2.1023164e-02
 -1.5558477e-01
  1.9383429e-01
  6.3152343e-02
  2.2433648e-01
  1.9187506e-01
 -6.6923058e-01
 -6.7084855e-03
  9.3950056e-02
 -2.1412301e-01
 -9.1111176e-02
 -5.6303674e-01
 -2.4987923e-01
  5.7096994e-01
  2.3286132e-02
 -3.7127420e-02
 -5.2079562e-02
  3.1677496e-02
 -8.7394841e-02
  3.9645094e-02
  5.7857106e-03
  1.1005923e-02
 -1.0130508e-02
  3.9109971e-02
  2.2859372e-02
 -5.2949611e-02
 -1.8920137e-02
  1.8347636e-03
 -8.4207326e-02
 -1.3399584e-02
  3.0055173e-02
 -4.6741661e-02
  4.7068056e-03
  1.1645428e-02
  4.9741421e-02
 -5.0817137e-03
  1.1906186e-01
 -1.6991332e-02
  8.7474316e-02
 -6.9055900e-02
 -6.0050688e-03
  1.1408994e-02
 -4.2535078e-02
 -2.8224054e-03
  1.7346764e-03
  5.1261112e-02
 -1.8767724e-02
 -1.0587253e-02
 -2.6351122e-02
  7.2414562e-02
 -3.9585363e-02
 -1.5280652e-01
  2.0646293e-02
  6.1372295e-02
  3.4841716e-02
 -6.3041672e-02
  3.8060248e-02
 -4.1620810e-02
 -1.3029663e-02
  6.9355175e-02
  6.2315392e-01
 -1.6915241e-02
  1.5616656e-02
 -9.8030521e-03
 -3.1102020e-03
  8.8071972e-03
  2.3014357e-02
 -3.1025177e-03
 -3.9598541e-03
  3.0767399e-01
 -3.4334545e-03
 -1.4697188e-02
  1.5161952e-02
  2.0120952e-03
  2.3471363e-02
  2.4538709e-02
 -1.6576585e-03
  1.2806769e-02
 -1.2678698e-02
 -6.2346675e-02
 -3.2842919e-02
  9.7466940e-03
  5.2770679e-03
  2.3393018e-02
  1.4072773e-03
  2.1356046e-03
  1.8161827e-01
 -1.0990926e-01
  4.4593611e-04
  4.4640256e-03
  3.1918380e-04
  4.8665702e-03
  6.6896235e-03
  6.2837838e-03
  1.1523978e-02
  7.9130111e-03
  2.5948971e-03
 -1.1975305e-01
 -9.0182666e-03
 -2.2875613e-01
 -1.1500869e-02
 -4.0031970e-04
 -4.7322982e-03
 -1.0199593e-02
 -1.0933903e-01
  1.4940079e-02
  6.6376645e-03
  1.1743812e-01
 -1.9091543e-02
  9.9090427e-02
  5.1103406e-02
  7.5619912e-01
 -6.6862009e-02
 -2.4761984e-02
 -1.8009119e-01
 -1.3192660e-01
 -6.9550142e-02
  2.5688173e-02
 -4.3950535e-02
 -1.3473277e-02
 -8.0244904e-03
  1.7980964e-01
  4.5208193e-02
 -1.8939767e-02
 -3.3382513e-02
 -4.1090880e-02
 -2.2034056e-03
 -4.5426000e-02
  2.5349496e-02
  5.3900741e-02
 -2.8285380e-02
  8.0801815e-01
 -1.4194719e-01
  7.2517797e-02
 -6.9558145e-03
 -2.9453211e-03
  1.2773314e-01
 -2.3328548e-02
  3.1881541e-01
 -1.2401579e-02
  9.0320725e-03
  7.1630068e-02
  3.4938432e-02
 -5.0239933e-01
  1.8082855e-02
  2.6506585e-01
 -1.4390663e-02
 -2.7682126e-02
  1.5145574e-02
 -1.4272261e-02
 -4.2837388e-03
 -1.0845774e+00
 -1.2616672e-02
 -5.6316817e-01
 -1.2580012e-01
  7.2102271e-02
 -1.5973943e-01
  2.3134867e-02
  2.2010383e-01
  4.5217586e-01
  3.2978389e-01
  1.3854666e-01
  2.4683835e-01
  2.1957740e-01
 -1.8582827e-01
  4.0675759e-02
 -2.7051783e-01
  3.2178417e-01
  5.6834303e-02
  2.4467489e-01
 -5.2157313e-01
  2.4945337e-01
  5.0724532e-02
  6.4391094e-01
  2.3227696e-01
 -2.5894064e-01
  9.3622223e-02
 -1.5909617e-01
 -2.6193076e-01
  1.2364348e-01
  8.8458771e-01
  1.4857364e-01
  1.0414670e+00
  1.9351217e-01
  3.0538691e-02
 -1.5453517e-01
 -2.2696881e-02
  4.7381228e-01
 -2.5707567e-01
 -2.3060836e-01
  2.9468689e-02
  2.7150758e-02
 -6.5124586e-02
  3.3834685e-02
 -2.0402100e-02
  8.5342648e-03
 -5.3085531e-03
  1.3575051e-02
 -1.1551723e-02
 -5.4876949e-03
 -6.9058682e-03
 -3.8627917e-03
 -6.5164104e-02
  4.7596935e-03
 -1.9933095e-02
  8.7186350e-03
  1.1363292e-01
 -2.5233021e-02
  6.8145210e-04
  4.8094229e-03
  2.8024504e-03
  7.3076993e-02
  3.3300507e-04
 -2.6718485e-03
 -2.8287573e-02
 -9.7028520e-03
 -1.5214190e-02
 -8.4726503e-03
 -4.9225730e-03
  4.2119730e-02
 -4.2416293e-02
  1.0341603e-02
 -5.9926673e-03
 -1.4475256e-02
  2.5860621e-02
  4.5574103e-03
 -4.1634291e-03
 -6.8376479e-03
  8.0683436e-03
  7.8486092e-03
 -2.3002131e-03
 -1.2314188e-01
  1.4920183e-02
 -7.4972804e-03
  7.8873839e-03
  1.6210987e-03
  3.1857654e-03
 -6.9285897e-03
  1.3031899e-02
 -6.1077666e-03
 -5.3747627e-03
 -2.5219724e-02
 -4.0792402e-02
 -1.6320556e-02
  4.7276057e-03
  9.1372868e-03
  5.0938264e-03
  1.8411065e-02
  1.7814955e-02
 -7.1796835e-03
  1.8032409e-02
  1.2246162e-02
  8.5703013e-03
  7.2720191e-03
 -6.2665665e-03
 -1.4169338e-04
 -2.3382099e-03
  1.4588501e-02
 -9.9115316e-03
  3.2350693e-02
  1.1683710e-02
 -1.1240968e-02
 -2.7668125e-03
 -1.7841385e-03
  1.2274630e-02
 -5.3221479e-02
  6.5447256e-04
 -2.5522651e-03
  2.6869640e-02
  7.0406599e-03
  4.4024569e-01
 -5.7338672e-03
  2.5074232e-02
 -2.3250587e-03
 -1.2926198e-02
 -1.7836200e-02
 -1.9175665e-03
  8.7436050e-02
 -1.7339386e-03
  4.0928670e-03
  2.5331354e-01
 -7.1741436e-03
  1.6774652e-03
 -6.1232626e-01
  2.6515004e-01
  1.4843844e-01
 -2.0878543e-01
 -1.2591125e-01
 -2.9519066e-01
  2.0282848e-01
  9.0799993e-01
 -9.1958575e-02
  3.3050632e-01
  1.4890385e-01
  2.5956208e-01
  1.1131258e-01
 -4.6991720e-03
 -2.0875989e-01
 -1.2562719e-01
  1.2878105e-01
  1.7089260e-01
  1.2116426e-01
 -3.3773971e-01
  4.9423534e-01
 -1.6372096e-02
 -1.5881538e-01
  1.8145706e-01
  1.2571739e-01
  6.0923841e-02
 -1.6213869e-01
  4.7065131e-02
  5.2216059e-01
  2.1350548e-01
  1.0994717e-01
  3.6032951e-01
  4.4247389e-01
  1.1515941e-01
 -1.0541886e-01
 -1.7962365e-01
  4.0256211e-01
 -2.0645326e-01
 -2.0668912e-01
 -6.8896629e-02
  1.4519121e-01
 -3.9882857e-02
  3.2268826e-02
 -3.6131471e-02
  3.1005967e-02
 -5.7903171e-02
  2.3882733e-01
  4.0067308e-02
 -1.2182861e-02
  4.7430046e-02
 -2.5443070e-02
 -5.3740785e-02
  2.0049348e-01
  1.0758099e-01
 -2.0287350e-02
  5.4898534e-02
  6.8127416e-02
  3.3738755e-02
 -8.0177812e-03
 -3.1702012e-02
  1.4655773e-02
 -1.1926442e-01
  1.9262366e-02
  2.4701104e-01
  1.6882697e-01
  1.7895490e-02
  3.4700330e-02
 -1.4585933e-02
 -2.0661337e-02
 -9.9067725e-03
 -5.7687804e-02
  1.5949501e-01
  2.3135407e-02
 -1.2377565e-01
  3.1289395e-02
 -1.4647064e-02
  3.6538068e-02
  2.1691104e-02
 -2.0840271e-01
 -6.5648817e-03
 -6.7602938e-01
 -4.9629737e-02
  4.7714174e-02
  1.7634010e-02
 -1.8365365e-02
  4.3280065e-04
 -1.5670425e-03
 -3.2398343e-02
 -1.2400286e-01
  1.4360283e-02
 -1.5313303e-02
 -1.3954137e-02
 -4.9995202e-01
  7.2179397e-04
 -1.7420528e-02
  1.9116431e-01
  6.9060558e-03
 -3.7559424e-02
 -8.9525664e-03
 -1.7624898e-02
  2.0854384e-02
 -7.5647896e-03
  7.8963386e-03
  9.1033382e-03
  2.4078850e-02
  3.3508705e-03
 -1.4880269e-02
  3.8851134e-02
 -1.8868476e-02
 -4.9607879e-03
  5.1373511e-04
  7.0913456e-02
  3.3361573e-02
 -1.1211567e-02
  1.6088035e-02
 -4.8581129e-03
  6.7655407e-03
 -2.2580456e-03
  1.9781594e-01
  3.3195694e-03
 -1.8478254e-02
  4.8041638e-02
  2.2331702e-02
  7.4066021e-03
  1.5447216e-02
  1.7739885e-02
 -2.5250926e-03
 -8.9163277e-03
  6.0475976e-03
 -3.7036009e-02
 -3.2096251e-03
  7.3573617e-03
 -9.5873043e-02
 -4.8459411e-02
  1.0063356e-02
  8.7915976e-03
 -1.5729830e-02
 -1.2289247e-02
  1.4752284e-01
  1.1349048e-02
  1.0379962e-02
  4.8370112e-02
 -1.5082363e-03
  3.7826233e-02
  2.3946557e-02
  1.2233863e-03
 -1.1209410e-02
 -1.6111435e-02
 -2.0673284e-03
 -1.9910457e-02
  9.1633834e-03
 -3.0754143e-02
  5.6167715e-03
 -5.1920377e-03
  7.1173850e-03
  1.2634719e-02
 -1.6462935e-02
 -2.6439816e-02
 -2.0558519e-02
  6.5848427e-03
  1.2446832e-02
  3.0950930e-02
  4.3889210e-03
  7.3690983e-03
  1.5340189e-02
 -2.1183125e-03
 -5.8308631e-02
 -1.1274010e-02
  2.1269254e-02
 -2.1482456e-02
 -1.3206081e-02
  1.1727990e-02
  5.9041852e-04
  3.2112889e-03
  8.0210762e-03
 -2.0517789e-02
 -2.9369084e-02
 -9.5281908e-03
  2.7005407e-03
 -1.9322000e-02
 -8.8398997e-03
  5.8998512e-03
  2.8569400e-02
  7.0933802e-03
  3.3682719e-02
  3.2320533e-02
  2.1035692e-03
  3.8325429e-02
  1.6266370e-02
  8.4399842e-03
  7.2281854e-04
 -1.0318889e-02
 -8.5124653e-03
 -5.3618740e-02
  2.5600607e-02
 -1.3466097e-02
  3.1695899e-02
  1.6961891e-03
 -6.3796610e-02
  1.1605088e-02
 -1.4121908e-01
  4.1922959e-03
 -2.5333421e-02
  7.7224164e-03
  1.2433605e-02
  5.2830949e-03
  1.4536872e-02
 -9.7427843e-03
  9.6780732e-03
  1.7047592e-03
 -9.9704908e-03
  3.1445187e-02
 -1.6581003e-03
  1.5133522e-01
 -4.3716477e-03
  7.3836576e-03
  3.1384265e-01
  2.1480177e-02
  5.6947641e-02
 -1.7519427e-02
 -3.1028179e-02
 -1.0217746e-02
 -7.2879970e-02
 -7.3695786e-02
 -5.3686000e-02
  1.2417136e-02
  1.1827398e-01
  7.1707346e-02
 -2.1128023e-02
  2.2829218e-01
  9.2442883e-03
  2.8391667e-02
  9.7376220e-02
 -6.2858097e-02
 -2.1019010e-02
 -1.0674892e-01
  6.2398124e-02
  1.3906774e-01
  7.6136917e-02
 -1.2792522e-01
  1.8830964e-01
 -3.0392030e-01
  7.5156033e-02
  1.0455576e-01
  1.1632508e-01
 -2.1452408e-01
 -1.2598661e-01
  5.7455793e-02
  7.2906986e-02
  1.1130992e-01
  6.6242941e-02
 -9.2261232e-02
  1.0058589e-01
 -1.3896015e-02
 -2.3547970e-02
 -7.9127401e-02
  1.0089178e-01
 -1.0370597e-01
 -7.1899563e-02
  6.0678605e-02
 -1.2682213e-02
 -3.1385019e-02
  3.5829578e-02
 -4.3249033e-02
 -5.9934366e-02
 -9.4475925e-02
 -4.2099002e-01
  5.4766815e-03
 -3.2174008e-03
 -1.5272844e-03
 -4.3023257e-03
  8.2772961e-03
  5.7038362e-03
  2.0517552e-02
 -6.6740746e-03
  1.9504949e-02
  1.9586987e-03
  1.6083633e-05
 -7.4861781e-03
  4.5983838e-03
  1.1376515e-02
  2.1822860e-02
  1.9273005e-02
  1.2622480e-03
  1.8604975e-02
  6.8621873e-03
 -2.1498119e-03
  2.6316307e-03
 -4.8513666e-06
 -9.4829146e-03
 -1.0350388e-02
 -8.2494337e-03
  1.2504395e-02
  1.3770372e-02
  4.0863543e-03
  9.4695408e-03
  1.5379389e-02
 -3.5694311e-03
 -1.3841501e-02
  1.1967603e-04
  4.2135779e-02
 -5.1300693e-03
  1.0704281e-03
  1.0643563e-02
  1.3714001e-03
 -1.5469686e-03
 -5.0505361e-04
  2.3015906e-01
 -3.1058589e-04
  3.6188033e-01
 -4.5778802e-01
 -2.3175582e-02
  1.8911566e-01
 -3.8648534e-01
 -5.5799204e-01
 -2.2689608e-01
  1.0177188e-01
 -3.6742750e-01
 -1.2534003e-01
 -8.3645147e-01
 -1.7153679e-01
 -1.1098708e-01
  2.9423464e-02
  7.9826206e-02
 -3.7951005e-01
  5.5372435e-01
 -6.6365622e-02
  1.5216985e-01
  5.4329801e-02
 -8.9521781e-02
  8.9129710e-01
 -1.4328200e-01
  3.4635887e-01
 -1.5472482e-01
  1.4815608e-01
 -3.5589150e-01
 -1.0343783e-01
  3.1762695e-01
  5.8292019e-01
  4.7085035e-01
 -2.3102914e-01
  1.5988104e-01
 -1.5894328e-01
  2.5978503e-01
 -4.2139822e-01
  1.5051541e-01
  7.9452768e-02
 -8.1907302e-02
  5.7112647e-04
  5.9582457e-02
 -4.9822152e-02
 -4.8591036e-01
  1.3008676e-02
 -2.8456671e-03
 -6.8545807e-03
 -4.1465857e-03
  1.3654510e-02
  3.0661717e-01
  9.3414903e-02
  7.6385979e-03
 -4.5980839e-03
 -3.2131996e-02
 -6.3094407e-02
 -1.4429805e-02
  1.2962355e-03
 -5.8219135e-03
  6.1348132e-03
  2.0378873e-02
  4.5806036e-04
  3.5963124e-03
 -1.2488090e-02
  3.6421530e-02
 -2.0515796e-02
  1.0733538e-03
  5.1779136e-02
 -1.0856801e-02
 -2.4662919e-02
 -2.7032666e-02
  2.0694742e-02
 -1.3776086e-01
 -9.8030278e-03
 -2.4692575e-02
 -6.9743074e-03
  1.7378675e-03
 -1.2239803e-01
 -9.2578968e-03
  2.4309494e-02
 -2.6417273e-01
 -5.2120648e-03
  1.8177291e-02
  2.5798890e-03
 -6.8072989e-03
 -1.8081598e-02
  7.0907678e-03
 -1.6512163e-02
 -1.1166173e-03
 -7.7385619e-02
 -7.6950483e-02
  1.0694473e-02
  7.6522208e-03
 -3.3089094e-02
 -1.2343624e-02
  3.0084066e-02
  1.1966105e-01
  6.2691811e-03
  1.0822424e-01
 -2.8349091e-03
  5.9481300e-02
  1.4535157e-03
  2.3662869e-02
 -1.1539691e-02
 -3.7320416e-02
 -6.0300357e-03
 -9.4291046e-02
  3.2557040e-02
  1.5897709e-01
  2.1007907e-02
  5.2518442e-02
 -1.1535552e-01
  8.1146076e-02
  4.3430947e-02
  1.5519268e-02
 -6.0817607e-02
  1.6312044e-02
  3.0738996e-02
  7.0109166e-02
  3.5452638e-02
 -1.3816327e-01
  5.6330837e-02
  1.1898932e+00
 -8.4308937e-02
 -1.0106760e-01
  2.5510733e-04
 -3.1299483e-02
 -2.6400369e-03
  1.1425434e-02
 -8.2894433e-03
 -1.7627971e-02
  8.5296640e-03
 -1.7907565e-02
  3.2437027e-01
 -1.1042563e-01
 -3.1901069e-02
  1.2290993e-01
  1.0940250e-01
  8.6985730e-02
 -3.2976469e-01
 -2.1257013e-01
  1.5451512e-01
 -1.7501658e-01
 -3.6970358e-02
 -1.6291389e-01
 -7.7245876e-02
  2.4645511e-02
  2.0691954e-02
  1.4029305e-01
 -6.4970769e-02
 -3.3449805e-01
 -1.5575877e-02
  1.5261549e-01
 -2.3411191e-01
  4.2899776e-02
  2.3695298e-01
 -1.0841631e-01
 -2.2074212e-01
 -3.6121771e-02
  5.8530919e-02
 -3.3673935e-02
 -3.7540317e-02
 -2.9332662e-01
 -4.1091230e-02
 -2.9783452e-02
 -9.5969960e-02
 -1.9344962e-01
 -3.7455341e-01
  1.2543224e-01
 -3.1036937e-01
  1.0617463e-01
  1.6912301e-01
 -5.2011847e-02
 -1.0092963e-02
  2.7230967e-02
 -1.5708433e-02
  1.0122941e-02
 -6.6298634e-02
  1.5522509e-03
  1.0343478e-01
  3.6572295e-01
 -4.4216228e-01
 -1.6067009e-02
  1.1477310e-01
  5.0449595e-03
  2.9594971e-02
  2.7156869e-01
  3.9094683e-02
  1.9721219e-01
  1.4637890e-01
  6.0710199e-02
 -1.7444031e-02
 -7.7164568e-02
 -2.0705529e-03
 -2.6684733e-02
  8.6429052e-02
 -1.0112098e-01
  1.4562473e-01
  2.9529933e-02
 -1.3873447e-02
  9.3205974e-02
 -1.3970145e-02
  4.6815082e-02
 -1.7765497e-01
  5.3035483e-02
  5.4293785e-02
  4.3530293e-02
  7.1156695e-02
 -1.4495182e-02
  1.0048211e-01
 -1.2137862e-01
 -7.6122545e-02
 -5.5160817e-02
 -1.1513272e-02
 -1.0965223e-01
 -1.3821684e-02
  7.2596423e-02
 -5.7448274e-03
 -5.6028895e-02
  5.3572975e-02
 -6.4806513e-02
  2.7484006e-01
  2.8216091e-01
  4.3821055e-02
  2.0618497e-01
  2.2667678e-01
  1.3566197e-01
 -1.8034153e-01
  5.1003742e-01
 -6.9083907e-02
 -2.8460166e-01
  2.9505366e-02
 -3.0469954e-01
 -1.6260950e-01
 -8.7514833e-02
 -5.9902482e-02
  1.0956944e-01
 -6.6914088e-01
  1.1865383e-01
 -1.0338021e-01
  6.1038011e-01
  1.8433375e-02
 -4.3820876e-01
 -4.1524805e-02
 -6.1778825e-02
 -2.5690413e-01
 -4.8478797e-02
 -9.4741322e-02
 -3.1927377e-02
 -7.1272112e-02
  6.0128742e-01
 -7.0988953e-02
  4.0095553e-01
 -2.8337732e-01
 -9.7755017e-03
  2.3041709e-01
  1.2582859e-01
 -4.5985496e-03
 -1.9633739e-01
 -1.9795509e-02
 -8.7588951e-02
  3.2578297e-02
  4.0619824e-02
 -4.7911860e-02
  8.7116428e-02
 -6.8415731e-02
 -2.0937245e-02
 -8.3965801e-02
 -1.1036565e-02
 -3.0691175e-02
  1.1065621e-01
  1.0988660e-01
  4.9001846e-02
  2.4840251e-02
  6.3633531e-02
 -2.1471255e-02
  5.2883737e-02
  3.3892415e-02
  2.5168719e-02
  7.1387947e-02
 -4.9686812e-02
 -8.6689241e-02
 -1.9706752e-02
  4.2563356e-02
 -6.2318477e-03
  1.4492585e-01
 -8.5240882e-04
  6.4685687e-02
  3.3463851e-02
  9.0586171e-02
  1.8619768e-03
 -5.0873242e-02
  1.4108735e-02
  6.0412444e-02
  4.6733972e-02
  1.2790508e-02
 -1.8441378e-01
 -9.6922413e-02
 -5.4630440e-01
 -8.8010013e-02
 -9.8295726e-02
 -1.9146402e-01
 -2.9412901e-02
  8.6775132e-02
  8.8173067e-03
  1.4331583e-04
 -3.3104264e-03
  1.4134356e-02
 -9.9154087e-03
  1.7276688e-02
  2.4365325e-02
 -5.9779670e-02
  6.2535763e-02
  3.8746241e-02
  2.4790732e-02
 -4.3149803e-02
 -3.5142355e-02
  7.7385847e-03
 -7.8146867e-02
 -4.3509495e-02
 -6.6623211e-02
 -2.8926359e-02
 -6.5799290e-03
  9.1556273e-02
  2.2260826e-02
  2.7756598e-03
 -9.5299315e-03
 -1.2519302e-02
  3.9562885e-02
 -6.1083592e-02
 -1.3767030e-02
  2.7018122e-03
 -3.7895679e-02
 -2.1708993e-02
 -1.3261471e-02
  4.5774363e-02
 -1.5541131e-02
 -1.3947187e-02
  6.8452202e-02
 -2.3547892e-02
 -1.7680297e-02
 -5.4419842e-02
  2.6213254e-03
  5.7942320e-02
  2.8061572e-02
  9.2565559e-02
  2.8658196e-02
  1.4373843e-02
 -2.3288688e-02
 -4.9493844e-03
  1.2652605e-02
 -1.3993472e-02
  1.3593908e-02
 -3.2545492e-01
 -1.8144108e-02
 -4.7830015e-01
 -1.5284305e-02
 -1.1704181e-01
 -6.3155144e-01
 -1.3827568e-01
  4.5435709e-01
  4.5970258e-01
  5.2192074e-01
  2.7187772e-02
  1.4808539e-01
  2.2524197e-01
 -1.8982114e-02
  6.6795386e-03
 -5.2047927e-02
  5.8688742e-01
 -1.7028818e-01
  7.3828056e-02
  8.2218066e-02
  3.9428160e-01
  6.3871825e-01
  2.1589296e-01
  2.9630640e-01
 -2.7214095e-01
  4.2044871e-02
 -2.4222438e-01
 -1.6559705e-01
  8.8021703e-02
 -2.0309404e-01
  1.6438261e-01
  3.8939774e-01
  4.4216982e-01
  1.3694078e-01
  1.8317336e-01
  5.8971312e-02
  1.2002888e-01
 -3.8315102e-01
  2.9594386e-01
  9.8467059e-02
  2.1267749e-02
 -2.7479632e-02
  4.8809212e-02
 -1.1482894e-01
  4.6737206e-01
  5.1264733e-02
  4.6536601e-01
  7.2652608e-01
 -2.1055833e-01
 -6.2634188e-01
 -3.3317840e-01
 -7.6750904e-02
 -2.9619849e-01
  9.9334545e-02
  1.6684255e-01
  3.3589008e-01
  1.6481505e-01
  1.4913021e-01
  6.3765323e-01
  2.3924884e-01
 -3.8781270e-02
  1.0539431e-01
  5.6167956e-02
 -2.4714196e-01
 -3.2039109e-01
  5.8595031e-01
  5.3325903e-01
  9.7131021e-03
  9.1751260e-01
 -1.9029563e-02
 -4.5185760e-02
  2.3897056e-01
  9.2654981e-02
  4.4033378e-02
  8.0630153e-02
 -8.3439112e-01
  3.4410319e-01
  3.4218177e-01
  2.8527926e-03
  1.2961432e-01
  7.5059041e-04
 -3.1664684e-02
  1.1388390e-01
  2.3970513e-02
 -5.8006015e-02
 -1.1547340e-02
  2.6390351e-02
 -2.0787534e-01
 -2.6523920e-02
 -4.3394109e-03
  9.0668774e-01
  6.9788955e-03
 -6.4250329e-03
 -7.1217651e-03
  4.7694952e-03
  1.2439821e-03
  1.6908066e-02
  2.1498976e-02
 -6.5771051e-02
  2.1787368e-02
  9.3643470e-03
  1.2738209e-02
  6.4580776e-03
 -4.4340016e-03
  1.8009826e-04
 -1.5377234e-02
 -5.5583593e-02
 -1.3399238e-03
  2.4368443e-02
  1.3169158e-02
  5.2583572e-03
  1.4017717e-02
  7.7731285e-04
 -2.8938651e-03
 -2.3881743e-02
  1.2108292e-02
  7.2824406e-03
  2.8967917e-02
  2.3043610e-02
 -1.9726349e-02
  6.4674206e-03
 -3.1187087e-03
 -3.5069637e-02
 -1.5296355e-02
 -1.0465115e-01
 -1.2704792e-02
  1.5930042e-03
  3.1960171e-03
 -1.4917304e-02
 -6.7610005e-03
 -1.6009467e-02
 -2.3363927e-01
 -4.3112751e-02
 -2.2007863e-03
  2.0648349e-02
  1.2774524e-01
 -2.9401341e-02
 -4.9481368e-01
  4.8655089e-02
  6.1236609e-02
 -3.2232404e-02
  7.5408891e-02
  1.0276968e-02
  7.0927843e-02
  3.6091059e-02
 -3.1449923e-03
 -1.5774444e-02
 -2.3665816e-02
  7.5816070e-03
 -1.3756505e-01
  2.4634423e-02
 -6.3488908e-02
  5.6383912e-02
  3.4457687e-02
  1.2314224e-02
  3.7448872e-02
 -5.4888758e-03
  1.1092054e-02
 -4.0769588e-02
  3.8362632e-03
  2.1246022e-02
  3.3334352e-02
 -1.4905578e-01
 -3.2113027e-02
  5.6975730e-02
  2.2934576e-02
 -5.5252660e-02
 -2.2392830e-02
 -1.4966333e-01
 -3.4010634e-02
  6.8246089e-03
  9.1765514e-03
  8.5078934e-03
 -1.4788414e-02
  7.7709043e-03
 -8.6268364e-03
 -2.3269664e-02
 -2.8271023e-03
  8.8523906e-03
  1.5290268e-03
 -1.3368268e-02
 -2.0022411e-03
  2.6141895e-02
  2.8794116e-01
  2.0672518e-03
  2.1277487e-02
 -9.6426224e-03
  6.9611214e-02
  1.8150022e-02
  8.0479998e-03
 -1.5812846e-02
 -7.8762304e-03
 -9.5176126e-04
 -3.7225105e-03
 -7.4485213e-02
 -2.2242812e-02
  2.9779430e-02
  8.4976498e-03
  3.6014130e-03
  3.6791710e-03
 -3.2500375e-02
  1.0543673e-02
 -3.0987822e-02
  1.2656197e-02
  1.4710395e-03
 -3.9122836e-03
  6.3197039e-02
  3.9109197e-03
  1.7977605e-02
  4.1507427e-03
 -1.8383073e-02
 -1.4082195e-01
 -7.4092321e-02
 -1.3751940e-02
  5.8812186e-02
 -4.3182126e-03
 -5.4095429e-03
  1.1802758e-03
  6.1218301e-03
 -8.8540241e-03
  1.0758667e-01
  1.3874860e-02
  1.1141995e-01
 -2.6097190e-02
 -1.8948361e-02
  2.7796617e-02
 -1.1235650e-02
  2.4580320e-02
  2.7251348e-01
  1.1340757e-02
  5.0526464e-01
  5.4814531e-03
  9.7225018e-02
  5.7150245e-02
 -1.9277032e-02
  3.9331242e-03
 -2.5406396e-02
 -2.0284133e-02
  3.0370983e-03
 -5.8231838e-02
  3.3217129e-01
 -2.8424779e-01
  1.9399522e-02
 -1.0397031e+00
 -1.8818635e-02
  9.8355245e-03
  1.4052075e+00
  7.8401649e-01
 -5.3972732e-03
  8.7645473e-03
  3.8814232e-01
 -2.1093441e-02
  6.6377656e-03
 -7.1842000e-02
 -2.4075150e-03
  9.2193484e-02
 -8.5031884e-03
  9.2385828e-02
 -5.4532615e-04
  1.8175894e-02
 -8.2354712e-01
  9.9123478e-02
 -9.6710443e-02
  3.7944302e-02
 -5.4395786e-03
  5.1191051e-02
 -3.3646661e-01
 -7.5108320e-03
 -4.8265052e-03
  6.4732321e-03
 -2.1067123e-01
  3.9125252e-01
  3.0623266e-02
 -2.1721081e-01
  7.8726560e-02
  2.5988394e-01
 -3.4221701e-02
 -1.9282909e-03
  2.7856171e-01
  2.2555079e-01
 -4.8236951e-01
 -7.9521723e-02
 -2.7486265e-01
  1.3549350e-01
 -7.8494661e-02
  1.4849052e-02
 -3.9424997e-02
  2.5570357e-01
  1.8774802e-02
 -1.0191301e-01
 -4.5202905e-01
 -3.5706562e-01
  7.9461582e-02
  5.2567178e-01
 -1.4268620e-01
  3.8075946e-02
 -1.8166231e-01
  5.6644189e-01
 -1.6212381e-02
  4.0313184e-02
  5.2461833e-01
  1.4127052e-01
 -5.0861690e-02
  7.1865208e-02
  5.9836302e-02
  3.7687898e-01
  3.2256335e-02
 -5.8448118e-01
 -5.2321408e-02
  1.3501866e-01
 -2.9711846e-01
  5.8024323e-01
 -5.8505183e-01
  1.5383601e-01
 -1.1902395e-01
  7.5502682e-01
  6.6960698e-01
  5.1559474e-02
  1.2980254e-01
  6.6725135e-02
  1.7569360e-01
  8.7185688e-02
  1.3003211e-01
 -4.9760827e-01
 -2.4629094e-01
 -1.9404344e-01
  1.7963260e-01
 -3.6404943e-01
  3.1821617e-01
  2.6378137e-01
  3.3762375e-01
 -3.4533465e-01
  6.7518276e-01
  1.5665534e-01
 -1.2619056e-01
  3.7176095e-02
  2.7944806e-01
 -1.1529703e-02
  1.2290468e-02
  2.2791563e-02
  3.4073332e-01
  2.2137833e-01
 -1.0675698e-01
  4.9041748e-02
  8.2645155e-02
  4.3152952e-01
  2.4378189e-01
 -1.0288665e-01
  4.5404541e-01
 -2.9038119e-01
  1.0622963e-01
 -2.3243493e-01
  4.6290874e-01
  2.6742804e-01
 -3.6397716e-01
  2.2573259e-01
 -6.7616627e-02
 -1.7279657e-02
  6.8381332e-02
 -8.0692478e-02
 -3.9382350e-02
  1.7272466e-01
 -2.3532312e-01
 -4.1860852e-02
  9.2317787e-04
  3.7774425e-02
  7.9995152e-03
 -1.0209549e-01
  1.3040416e-02
  4.3897290e-02
 -1.0648495e-02
 -1.8666795e-02
  3.4713212e-02
 -1.1002275e-02
 -6.5665166e-03
 -1.0087087e-02
  3.8397755e-02
  4.6140201e-02
  7.6390910e-03
 -4.0706221e-02
 -2.2549298e-02
 -6.4306823e-03
  4.0206786e-02
  3.3925291e-02
  6.5292278e-03
  1.9680509e-02
 -9.2443591e-04
  1.7162472e-02
  5.2916743e-02
 -1.0688473e-02
 -1.4758556e-02
 -2.3882635e-02
  1.2962754e-02
 -2.5213310e-02
 -1.5426938e-02
 -1.2471099e-02
 -2.2980699e-02
 -5.1520795e-01
  8.8727042e-02
 -3.1797801e-05
  1.0408350e-02
  9.6553453e-04
  1.4000185e-03
 -5.3880937e-02
 -2.8995249e-02
 -1.7864712e-02
  1.4747280e-02
 -3.6539030e-03
 -1.8945242e-01
 -9.9414542e-02
 -1.5658183e-01
  5.1214516e-02
  5.3042328e-01
  1.7318398e-01
  2.7271470e-01
 -3.1370547e-01
 -2.0537503e-01
 -2.0628940e-01
  1.8083351e-02
  3.8445055e-01
 -5.0421137e-02
  8.8713206e-02
 -1.5792398e-01
 -4.0288337e-02
 -1.9159447e-01
 -1.9265361e-01
 -2.7104685e-01
 -3.1716305e-01
 -9.0995677e-02
 -3.2019943e-03
 -1.7526140e-02
 -8.8215023e-02
  2.2462705e-01
  1.0408347e-01
 -2.1369430e-01
  5.5831429e-02
 -1.1740561e-01
  3.9802782e-02
 -2.0712794e-01
  3.1296760e-01
 -1.4679700e-01
 -2.5543532e-01
  4.7846153e-01
  1.4230245e-01
 -2.0263310e-01
  1.4587015e-01
 -3.6050174e-02
 -9.4703570e-02
  5.9110258e-02
 -6.2861484e-01
 -2.9879183e-02
  1.9095877e-01
  3.5297722e-01
 -3.0980846e-02
  1.6892651e-01
  1.5856393e-01
  1.4875346e-03
  2.3318331e-01
 -2.6578709e-01
 -7.9384536e-01
  5.0674874e-01
  3.3467016e-01
  8.1098154e-02
 -1.0429019e+00
  4.5563313e-01
  4.1369832e-01
  3.3264855e-01
 -7.6881546e-01
  4.4036058e-01
  3.7530906e-02
 -1.3749489e+00
 -7.0700042e-02
  7.0214815e-02
 -2.8886992e-01
 -2.1452617e-02
  1.9378158e+00
 -9.0907311e-01
 -2.2645132e-01
  2.9876241e-01
  2.8285456e-01
  1.9793491e-01
 -1.3043094e-02
 -3.2895339e-01
 -3.1232998e-01
  6.2778980e-02
  7.3778468e-01
 -9.7089186e-02
  1.2760001e-01
  1.7345841e-01
 -8.9847341e-02
  6.8475765e-01
  1.2421204e-02
 -1.0272958e-01
  4.4490304e-02
 -4.2596433e-01
  6.2800750e-02
  7.3043406e-02
  7.7912994e-02
 -1.9798554e-01
  4.1066644e-01
 -1.5270866e-01
 -2.2936034e-01
 -8.5776106e-02
 -3.3180851e-01
  5.0169487e-02
  1.6169313e-01
 -1.9645205e-02
 -2.8359888e-02
  3.8807414e-02
  9.9371567e-02
  7.7565178e-02
  2.0677951e-01
 -1.5861507e-01
 -4.6690725e-02
 -9.3477465e-02
 -7.4645191e-02
 -1.5337972e-01
  4.8657048e-02
 -2.3558525e-02
  1.4803889e-01
  7.1576923e-02
  6.3705087e-02
 -8.3978064e-02
  4.2287421e-01
  1.3664579e-01
  1.1105657e-01
  1.1926652e+00
  1.2722899e-01
  7.7635355e-02
  8.8345937e-02
  9.7740978e-02
 -9.6787095e-02
  1.2810515e-01
 -1.9663128e-01
 -2.1636574e-01
  3.7136234e-02
 -2.5922680e-01
  1.1984707e-01
  8.7788152e-03
 -2.9980510e-01
 -4.4134763e-01
  3.5524055e-01
  5.5524272e-01
 -7.0739001e-02
  1.7069390e-01
 -8.2358904e-02
  5.9734899e-01
  9.3332060e-02
 -2.9594448e-01
 -7.7517055e-02
 -4.5785752e-01
  8.6409755e-02
 -8.6187221e-02
 -4.7122043e-01
 -1.2824427e-01
 -5.6911063e-01
  2.0926371e-01
 -3.2850429e-01
 -2.0405129e-01
 -6.7901200e-01
 -1.2141706e-01
 -1.3596600e-01
  4.9703011e-01
  1.5359426e-01
 -3.4877580e-02
  1.9334817e-01
 -1.1756394e-01
 -2.7942434e-01
 -4.3076834e-01
  3.6021334e-01
 -1.7954141e-02
 -9.8528288e-02
  7.2434360e-01
 -5.1706976e-01
  1.7258766e-01
  1.2158659e-01
 -9.3715899e-02
  1.1901072e-01
  1.0503856e-01
 -6.3828632e-02
 -9.9478602e-02
 -1.8273176e-01
 -3.0023541e-02
  2.0385098e-02
  1.6614567e-01
 -8.7209207e-01
  4.6488780e-01
 -5.4156631e-01
  6.4927846e-01
 -1.2306491e-01
 -1.0258549e-01
  3.5068056e-01
  3.7743849e-01
  2.6424870e-01
  1.4582570e-01
 -3.1549191e-01
  8.9695968e-02
 -5.2990955e-01
 -2.1941860e-01
 -1.7444158e-01
 -4.2991474e-02
 -1.5586558e-01
 -5.8905825e-02
  1.2710167e-01
  4.2341664e-02
  9.4863422e-02
  3.3299035e-01
 -8.8135637e-02
  1.4510109e-01
  5.1459146e-01
 -6.5385312e-01
  8.6527482e-02
  1.8708709e-01
 -2.7873573e-01
  2.1116053e-01
  3.6307875e-04
  4.1090116e-01
 -6.8502676e-01
 -3.4721408e-02
  1.3021138e-01
  2.6696268e-02
  3.6385193e-02
  1.4692521e-01
 -1.0429966e-01
 -1.5033844e-01
  2.3169066e-01
 -2.6154432e-03
 -7.1095072e-02
  6.3090891e-01
 -8.2619011e-01
 -4.1379124e-01
  7.2350377e-01
 -8.3145148e-01
  1.3267088e-01
  1.0515553e-01
 -5.0983053e-01
  3.9683726e-01
  9.3504214e-01
  7.0901208e-02
 -8.8597375e-01
 -6.9501704e-01
  1.5661163e+00
 -8.1520069e-01
 -2.5489805e-02
  5.3166223e-01
 -1.2245496e-02
 -3.4536320e-01
 -7.3435634e-01
  9.7776783e-01
 -1.0052586e+00
 -6.5941435e-01
  3.3839440e-01
 -1.3708761e-01
  3.2110339e-01
  3.8602620e-02
  5.5381620e-01
  3.5472396e-01
 -2.3512509e-01
  4.4086716e-01
 -1.4610630e-01
 -1.5513587e-01
  6.7838931e-01
  2.8046864e-01
  6.0568109e-02
 -4.5826936e-01
 -4.7958416e-01
 -3.2485351e-02
 -1.1988940e-01
  2.1000366e-01
 -5.5433470e-01
 -8.5315686e-01
 -2.2462767e-01
  2.5043616e-01
  6.8040162e-01
  9.5155396e-02
  8.7656456e-01
  7.3548317e-01
  1.1446724e-01
  6.7993373e-01
 -1.4904571e-01
 -1.1350154e+00
  3.6850217e-01
 -4.1720107e-01
  6.5662366e-01
  8.1930041e-02
  4.7753492e-01
 -3.4187523e-01
 -5.4927737e-01
 -2.1658532e-01
 -8.2820123e-01
  2.8553855e-01
 -2.3997951e-02
 -3.8405481e-01
  2.2767630e-01
 -3.1888330e-01
 -6.3671567e-02
  8.0138646e-02
 -1.6072710e-01
  7.2379664e-02
  7.5008303e-01
 -2.5627169e-01
  2.5868103e-01
  2.1077864e-02
 -2.8086409e-01
  3.0059852e-02
  1.6229486e-01
 -4.4953245e-01
 -2.8258130e-01
  4.1996393e-01
 -8.8333738e-01
  2.3010314e-01
  9.0413138e-02
  1.1395690e-01
  2.3052144e-01
  3.2126099e-01
 -8.9697585e-02
  1.9306011e-01
  6.1851930e-02
  5.9825979e-02
  9.2791349e-02
  1.7498422e-03
  8.4049687e-02
  2.0573781e-01
 -2.9041246e-02
 -6.6951439e-02
  5.3992115e-02
  1.4757521e-02
 -6.7554940e-03
  7.7387817e-02
 -7.1598738e-02
 -1.2742716e-01
  7.2467282e-02
  4.1239861e-02
  1.7369730e-02
 -4.7649562e-02
  1.5300612e-01
  4.1921880e-02
 -1.3470562e-02
  2.6115250e-02
 -8.4719323e-03
 -4.7208570e-02
 -4.5709882e-02
  5.2378816e-03
 -1.9505925e-02
 -7.3893801e-03
  9.5726296e-02
 -3.8092702e-03
  3.4582436e-02
  6.5727481e-03
  5.4427959e-02
 -1.2265449e-01
  1.7700988e-01
 -2.8698778e-02
 -1.3342008e-02
  1.1168663e-02
  7.2703990e-03
  3.5087830e-01
 -4.9788444e-03
 -1.3775161e-02
  1.8911352e-02
 -1.5914357e-01
  3.0152413e-01
  2.0834471e-01
  2.2712229e-01
  5.3808436e-02
  6.1965948e-01
 -1.2294541e-01
 -5.8389622e-01
  4.9701950e-01
  5.8335811e-01
 -1.0371369e+00
  1.7872353e-01
 -7.0765920e-02
 -5.8109713e-01
  4.0081430e-02
 -1.0624168e+00
 -1.3082129e-01
 -2.7262303e-01
 -8.6000019e-01
  8.3713070e-02
 -3.0145263e-03
 -1.0749785e-01
  4.0082514e-01
  1.7677450e-01
  2.1576723e-01
 -4.4922251e-01
  3.2413641e-01
 -3.4841922e-01
 -1.7834027e-01
 -6.9701087e-01
  3.2408971e-01
  3.7197390e-01
  1.0888188e-01
 -4.2132553e-01
  3.3270714e-01
  5.1826006e-01
 -1.2554773e+00
  1.3644339e-01
 -9.1443732e-02
 -5.0731635e-01
  2.0648715e-01
  3.8033217e-02
 -9.8205799e-01
 -2.7807236e-01
  1.1891244e-01
 -1.9249460e-01
  4.9825081e-01
  7.1735466e-01
 -4.7916928e-01
 -3.9738517e-02
  2.8168857e-01
  5.6625682e-01
  2.4464464e-01
 -1.0020312e-01
  2.3780827e-01
 -3.7744779e-02
 -1.9294377e-02
 -4.2119026e-01
 -3.9658687e-01
 -6.0995990e-01
  6.5268624e-01
 -6.2233653e-02
  2.4072230e-01
  3.0913752e-01
 -1.0520506e-01
  5.3235143e-01
 -2.1023653e-01
 -4.1717026e-01
 -4.4409508e-01
  2.6204544e-01
 -1.0819298e-01
 -4.8485395e-01
 -6.5681420e-02
 -2.4058612e-01
 -3.0336311e-01
  8.1975013e-02
  2.2275601e-01
  2.5211143e-01
  1.0015457e-01
  9.5581844e-02
 -3.1920728e-01
 -2.1866873e-01
 -9.8090991e-03
 -3.1601733e-01
 -2.8979644e-01
 -2.0359484e-02
  1.5933733e-02
  2.6381388e-01
  7.2153783e-03
  1.2008944e-03
  1.0354505e-02
 -7.2708316e-03
 -7.3977197e-03
 -6.7416397e-03
 -8.2253367e-01
 -6.1591517e-02
  7.5895481e-02
  7.4507281e-02
 -5.0234483e-03
  8.7982835e-03
  1.4319012e-02
 -7.0198500e-03
 -1.8219953e-02
 -1.3096289e-02
  1.8732330e-02
 -1.3975725e-02
 -1.1402427e-02
 -8.0209784e-03
 -2.2822572e-02
 -1.8808115e-02
  9.5158797e-03
 -2.0917258e-03
 -8.2206004e-04
 -1.1989348e-01
 -7.1606310e-03
 -1.0231449e-02
  1.8567020e-02
 -1.1527089e-03
  7.3455097e-03
 -8.2043459e-04
  1.2473937e-02
 -3.1798990e-03
  4.4093751e-03
 -1.6736535e-02
 -4.2341135e-02
  5.7812226e-03
 -1.2312482e-02
 -6.5961946e-03
  5.6010359e-03
 -1.4478125e-02
  1.6041884e-03
 -2.3755319e-03
 -4.1227542e-02
 -6.3806563e-03
 -4.5835897e-01
 -4.6288535e-01
  1.9546869e-01
  1.0374466e+00
  1.6394816e-01
  6.5769114e-02
  6.1625910e-01
 -5.1662982e-01
 -1.8004993e-01
  3.8423291e-01
 -2.6460186e-02
 -2.7481121e-01
 -2.0055194e-01
  3.3383182e-01
 -2.8242067e-01
 -1.5783827e-01
  7.3034978e-03
  1.2523191e-01
  3.8805315e-01
 -1.7745554e-01
 -3.2131886e-01
 -7.6197525e-03
 -3.5276166e-01
  5.4004461e-01
 -1.8706308e-01
  3.0748767e-01
  6.4687854e-01
  3.7627926e-01
  1.1001958e-01
  4.5370641e-01
  4.1015613e-01
 -4.1316757e-01
  1.6205853e-01
  4.0097997e-02
  1.8734084e-01
  1.4952220e-01
 -9.4982773e-02
 -9.9374138e-02
 -3.7340805e-01
 -6.9824003e-02
  4.2168375e-02
 -2.3546836e-01
 -7.2350018e-02
  2.1188602e-01
 -1.3483964e-01
 -4.1543806e-01
  1.5883410e-01
 -1.5696941e-01
  2.8087375e-01
 -7.8961378e-01
  3.6501256e-01
 -1.3729933e-01
 -1.1790903e-01
 -3.4641199e-02
  2.7813381e-01
  1.3174862e-01
  8.0291755e-02
  7.0173901e-01
  3.9010130e-02
  2.9873765e-01
  2.4659815e-01
 -2.2053707e-01
 -9.4666943e-02
  6.6760518e-02
 -4.1838077e-01
  8.5934371e-02
 -3.5983869e-01
  1.5362185e-01
 -1.6305229e-01
 -1.0917433e-01
  4.9456332e-02
  6.0445648e-01
  2.3010823e-01
  3.2491398e-01
  2.7274469e-01
  1.5454209e-02
  2.7444339e-01
  5.5274624e-02
  3.0613871e-02
 -1.5596120e-01
 -1.0865519e-01
 -1.1084804e-01
 -2.5898747e-02
  3.2830593e-01
 -2.6918074e-01
  6.3695632e-02
 -3.2942012e-01
  8.1826160e-03
 -4.3476021e-01
  8.7294209e-01
  7.7111065e-01
 -7.6998338e-02
 -1.8266676e-01
 -1.8949160e-01
 -7.2252458e-01
 -1.0839512e-01
  1.9220077e-01
 -5.1152772e-01
  1.9320163e-01
  2.2129054e-01
  1.6041207e+00
 -5.5538368e-01
 -1.5846072e-01
  2.0266682e-01
  1.6035193e-01
  2.1207644e-01
 -6.7926085e-01
  7.7506369e-01
 -3.5178253e-01
  1.7369065e-01
 -6.1911893e-01
 -2.1918805e-01
  2.4788775e-01
  3.2644778e-01
  4.7439974e-02
 -3.4237155e-01
 -1.6845746e-01
 -3.7820956e-01
 -6.6033438e-02
  1.5224639e-02
  5.0247934e-02
 -1.1289786e+00
 -1.3122924e-01
 -6.4537278e-03
  1.2100376e-01
  1.3667714e-03
 -3.3020275e-03
 -2.7441549e-01
  8.1026576e-02
  1.5116212e-01
  5.7459342e-01
  9.0044230e-01
  6.7486749e-03
  1.4114372e-01
 -3.7329701e-01
  2.9793975e-01
  1.4219975e-01
  7.4046910e-02
 -2.1495783e+00
 -2.3227625e-01
 -2.7172714e-01
 -4.4438303e-01
 -1.4144932e-01
 -3.2049823e-01
  3.4510621e-01
 -1.1743874e-01
 -3.6713549e-01
  2.8130330e-02
 -9.9666547e-03
  2.2796293e-01
  3.2102129e-01
 -1.0384876e-01
 -9.8944642e-02
  2.1318045e-01
 -2.0642368e-01
 -5.7067305e-01
 -5.3827363e-01
  2.5891533e-01
  6.2385333e-01
 -2.3738898e-02
 -2.6418254e-01
 -6.7273331e-01
 -3.9655086e-02
  3.0603775e-01
 -3.7798944e-01
  4.8155424e-01
 -4.1826242e-01
 -5.7315718e-02
  1.0260764e-01
 -6.3312285e-02
  1.7458400e-01
  1.5887260e-01
  2.6086500e-01
 -1.0104490e-02
 -3.8698971e-01
  6.6292621e-02
  7.2844207e-01
  4.5791239e-01
 -5.2693707e-01
  3.3255979e-02
 -1.5030226e-01
  1.5606977e-01
  6.5168566e-03
 -8.1170416e-01
  8.3333731e-02
 -2.7327049e-01
 -2.4068531e-01
 -3.0115924e-03
 -2.4571459e-01
 -2.3462313e-01
 -2.0525931e-01
 -1.0882077e-01
 -4.1164896e-01
  5.2065420e-01
 -2.3255342e-01
  5.3681687e-02
  1.4859886e-01
  8.3449736e-02
 -9.3668550e-02
 -7.0279455e-01
  2.0282935e-01
 -2.6686651e-01
  1.6648769e-01
 -2.6817796e-01
 -9.2101373e-02
  9.7580470e-02
 -3.8665569e-01
 -5.1962320e-02
  2.6062930e-01
 -1.6491063e-02
 -2.3013827e-01
  8.5030869e-02
  9.5227070e-02
  9.2200242e-02
  1.4654434e-01
  3.4908574e-02
  3.0783859e-01
  1.4188097e-01
  1.7691781e-01
  1.0499990e-03
  6.5057814e-01
 -3.8038307e-01
 -9.5420614e-02
  2.7815938e-01
 -2.1356296e-02
 -2.5293934e-01
 -5.0152946e-01
  8.3803338e-01
 -1.0639167e-01
 -5.4726040e-01
  3.6262903e-01
 -2.5917453e-01
  9.6071982e-01
 -2.5772616e-01
 -5.5301327e-02
  3.1591725e-01
 -5.5343026e-01
 -2.4630424e-01
 -1.9609496e-01
 -8.7103045e-01
  4.1844985e-01
  1.2474557e-01
  8.8903344e-01
  3.0241397e-01
  9.7344118e-01
 -5.7093030e-01
  4.0788841e-01
  3.8438812e-01
 -1.0972897e-01
  4.8538876e-01
  1.1421289e-01
 -7.8678501e-01
 -8.1387788e-02
 -5.3139903e-02
 -1.6082466e-01
 -2.2214220e-01
  5.2294780e-02
  5.1798847e-02
  1.1663010e-01
 -1.3864549e-01
  5.1989774e-03
 -7.1198523e-01
  3.3266611e-02
 -5.2926540e-01
 -2.7085993e-01
  9.3533576e-02
 -1.8185265e-01
 -8.1236213e-02
 -4.7658151e-01
 -8.1281579e-01
 -1.0175772e-01
 -3.6302713e-01
 -2.3653874e-01
 -6.8945122e-01
 -7.6673836e-01
 -4.1562021e-01
 -3.7340316e-01
  2.8063270e-01
 -2.1248943e-01
 -2.0509037e-01
  1.2402617e-02
 -1.3287522e-01
 -1.5993314e-02
 -2.0196402e-01
  3.3888489e-01
 -8.4967390e-02
  3.9778596e-01
  4.1467529e-02
  3.0500340e-01
  4.4064456e-01
 -1.9694263e-01
 -2.8095834e-05
 -2.1048110e-02
 -8.3759069e-02
  7.8429170e-02
 -8.8468075e-02
 -8.0172813e-01
 -1.2735091e-01
  5.8548423e-03
  1.5625291e-01
  9.6899502e-02
  1.5274737e-02
  6.5592712e-01
  6.7095987e-02
 -1.3129973e-01
  2.0237121e-01
 -5.7794565e-01
 -5.3929240e-01
  5.3695226e-01
 -5.3018534e-01
  3.1106171e-01
  1.5547252e-01
  1.6214232e-01
  1.3569377e-01
  4.5845684e-01
 -3.7034050e-01
 -1.2373792e-01
  9.1530725e-02
  4.2933038e-01
  4.4754204e-01
 -2.7857167e-01
 -4.2638067e-02
  4.1772330e-01
 -2.9010594e-01
  2.3337941e-01
  4.7294760e-01
  7.2390839e-02
 -1.3283920e-01
  3.1272987e-01
  3.0478770e-01
 -3.5818928e-01
  4.3506093e-02
 -4.9380386e-01
  1.3703128e+00
 -1.8381444e-01
  6.8329111e-02
  1.9419651e-01
 -2.2219944e-01
 -1.0828600e-01
 -2.4122691e-01
  5.4808366e-01
  2.5571737e-01
  1.8948081e-01
  9.1496609e-02
  1.8922758e-03
  9.3324959e-02
 -2.5892591e-01
  2.9449329e-01
  8.4218733e-02
 -5.0735381e-02
  4.3299389e-01
  3.5165283e-01
  4.6687049e-01
 -2.1721080e-01
  3.2659104e-01
  6.4086199e-01
 -6.0123179e-02
  2.2608118e-01
  4.2265090e-01
 -7.3943377e-02
  3.7941930e-01
 -4.1290709e-01
 -2.5437692e-01
 -5.5396563e-01
  2.2561018e-01
  1.2932085e-01
 -1.7855649e-01
 -2.2590396e-01
  1.2600233e-01
  2.7830708e-01
  3.7336794e-01
 -4.5391726e-01
 -3.9622286e-01
  1.2274359e-01
 -3.0136541e-01
 -3.3873677e-01
 -2.2085494e-01
 -2.9696196e-01
 -7.1044523e-01
 -2.9088017e-02
  1.8522353e-01
  3.4045243e-01
 -3.9326996e-01
  6.3699090e-01
  9.0372860e-02
 -3.3353579e-01
  2.4048625e-01
 -8.9188151e-02
  5.4766536e-01
  3.5941121e-01
 -5.3786810e-02
  4.9834093e-03
  1.8712401e-01
 -5.3202951e-01
 -9.1377400e-02
 -1.0007538e-01
 -1.2289021e-01
 -5.1730841e-02
  6.1026540e-02
 -1.8687747e-01
 -5.5606657e-01
  2.8109795e-01
  3.3082208e-01
 -1.5820861e-01
 -6.7106985e-02
 -1.7449835e-01
  3.8798824e-02
 -2.6369877e-02
  9.6370079e-02
 -4.2178491e-01
  8.5761994e-02
 -5.8039211e-02
  2.4144372e-01
  1.5072495e-01
  1.2370390e-01
 -6.6239640e-02
  1.0626571e-01
 -2.0314050e-01
  2.6435229e-01
 -3.0950242e-01
 -3.4460577e-01
  3.1179839e-01
 -3.4867045e-01
  1.1714806e-01
 -1.7321232e-01
  1.8790986e-02
 -5.6711636e-02
 -4.0914613e-01
  1.9711445e-01
 -3.7159964e-01
 -8.7674253e-02
  7.1837187e-02
  2.6196340e-01
 -1.8910121e-02
 -5.8241654e-03
 -1.1981957e-01
  7.8547141e-03
  5.3669911e-02
 -6.5747082e-02
 -4.5857182e-01
  2.6769000e-01
 -1.1012082e+00
  2.4161993e-01
 -1.1740617e-01
 -9.1911304e-01
 -8.4779590e-02
  2.7069664e-01
  1.1093051e+00
 -2.4104249e-01
 -1.5507117e-01
  1.5791889e-02
  6.7384392e-02
  2.1634749e-01
  4.3482132e-02
  1.7384690e-01
 -1.0630062e-02
  1.0466628e-01
 -1.3311664e-03
  3.0528754e-01
  1.4932173e-02
  1.9045785e-01
  4.9760591e-02
  8.8387687e-04
 -2.4010941e-01
  9.1034807e-03
  4.4826671e-02
  5.6458030e-02
  4.0698504e-01
  2.0023756e-01
 -2.6323292e-03
  2.8633472e-02
  4.3263263e-01
  1.1801177e-01
  1.0053342e-01
  2.0705489e-02
 -9.4947889e-02
  4.4925742e-02
  3.9597977e-02
  1.1219692e-02
  1.3146916e-01
  3.3073779e-02
  1.2649582e-01
  1.4101352e-01
  2.0737098e-01
 -3.4852254e-01
 -4.6240050e-01
  2.8794521e-01
  2.6430879e-02
 -3.9925861e-01
 -1.5203384e-01
  2.8132889e-01
  1.6974601e-01
 -6.9078982e-02
  7.2166687e-01
 -7.4655496e-02
 -5.1856287e-02
  1.4696792e-01
  4.2529237e-02
 -8.2884587e-02
  2.5342131e-02
  2.5810015e-01
  1.9265911e-01
  3.8541262e-03
  1.9464856e-01
  2.6909313e-01
  2.8185609e-01
  1.3816039e-01
 -8.5406058e-02
  1.8960509e-01
  1.5316652e-01
 -9.3004787e-03
 -7.9249305e-01
  1.5719981e-01
 -1.4150883e-01
  1.6614167e-01
 -1.7533439e-01
  2.1015549e-01
  4.7192153e-02
 -1.1783731e-02
 -6.7643739e-02
 -4.3510285e-01
 -7.8320198e-02
  7.7052414e-02
  1.0814365e-01
 -7.3534563e-02
  1.1343396e-01
 -1.2570165e-01
 -6.7866153e-01
  2.3520656e-01
  3.1171307e-01
  2.0886624e-01
  1.5108293e-02
 -1.7648673e-01
 -4.3964884e-01
 -3.1543994e-01
 -5.6800526e-01
  2.4019578e-01
  4.6211281e-01
 -3.9953437e-01
 -3.1301007e-01
  2.3957357e-01
  1.3366534e+00
 -2.2555830e-01
  1.0806590e-01
  4.4257402e-01
  2.8764814e-01
 -4.3449017e-01
  2.6128522e-01
 -2.1585284e-01
 -5.9115720e-01
  5.6574988e-01
 -5.5815583e-01
  1.3106738e-01
  1.7623346e-01
 -2.3921855e-01
  4.3977845e-01
  3.5404522e-02
  8.9661695e-02
 -5.9519552e-02
 -1.3416095e-01
 -6.1471957e-01
  7.8272361e-01
  6.4095788e-02
 -3.6590591e-01
  2.2583824e-01
  3.4347657e-02
 -8.1055157e-02
 -2.9582265e-01
  1.1742718e-01
 -1.7372896e-01
  1.6967346e-01
  3.1177800e-02
  1.2068770e-01
  1.1012495e-01
 -1.6673248e-01
 -1.9456948e-01
  9.6571550e-02
  5.2208430e-01
  6.5287724e-02
 -2.3850748e-01
 -1.4320740e-01
  4.3007964e-01
 -3.1426629e-01
  1.9114867e-01
  6.3775778e-02
 -4.3183446e-01
 -4.7940373e-01
 -1.5169296e-02
 -4.1666120e-01
 -2.5428838e-01
 -3.7730408e-01
 -3.4763718e-01
 -1.8771884e-01
 -8.1750982e-02
 -2.1025871e-01
  4.0802914e-01
 -5.5589676e-02
 -2.6881376e-01
  2.8204730e-01
  2.3648745e-01
  7.0079023e-01
 -2.1114440e-01
  2.0674178e-01
  3.7415403e-01
 -1.7275044e-01
 -7.3535711e-02
 -3.2492951e-01
  1.1103228e-01
  6.9276631e-02
 -2.9523888e-01
  3.3216611e-01
 -7.8542873e-02
 -3.8794854e-01
 -2.7224278e-01
  2.3780072e-01
 -3.4856573e-01
 -3.7378240e-01
 -3.6185393e-01
  5.9207791e-01
 -8.3225954e-01
 -4.8194072e-01
  3.7485725e-01
  4.7851792e-01
 -4.3038732e-01
 -3.4633409e-02
  1.3807808e-02
  4.0400949e-01
  4.2629546e-01
 -6.6726275e-02
  1.4810132e+00
  4.5345461e-01
  7.7538207e-02
 -2.5513616e-01
  2.8970766e-01
 -4.3742535e-01
  6.2858665e-01
  2.0807290e-01
  1.8911542e-01
  1.5669498e-01
  1.2917511e-01
  1.5682434e-01
 -9.7933054e-02
 -3.1015846e-01
  3.2233289e-01
 -2.3559233e-02
  1.0790425e-01
  5.5371654e-01
 -1.0256514e-01
 -1.9295855e-01
  4.0802950e-01
  1.2090492e-01
  4.7703218e-02
  2.5751653e-01
 -1.0639779e-02
 -8.7568268e-02
  3.4133950e-01
 -1.8582502e-01
  7.7637240e-02
 -2.5063815e-02
 -6.9982803e-01
 -7.2048523e-02
  1.6391583e-02
 -5.8885273e-02
 -6.5468745e-03
 -2.2837219e-01
  2.9578641e-01
 -2.0354170e-01
  4.6911803e-03
 -4.7713563e-02
  2.2970332e-01
 -6.0531620e-02
 -4.2725044e-01
 -7.4841626e-02
  2.1263003e-01
 -1.0845198e-01
  2.4646103e-02
  1.2632728e-01
 -4.7747336e-02
  1.2696013e-01
 -6.2328011e-02
 -1.3264418e-01
 -5.2018289e-02
 -1.9908208e-01
 -6.3843653e-02
  5.2355874e-01
 -2.5493087e-02
  2.4122711e-02
  4.3029986e-02
 -2.2375364e-02
  3.4525264e-02
  1.4011113e-02
  4.4576380e-01
 -1.4948714e-01
  4.9971985e-03
 -4.1192796e-02
  1.0340181e-02
 -1.9905986e-02
 -1.5995326e-02
  3.2669518e-03
  2.5777148e-02
 -1.7557921e-02
 -5.4555945e-02
  5.2517142e-02
  1.6001450e-02
 -3.5265304e-02
  1.0806071e-01
 -4.1907668e-02
 -1.4456836e-02
 -2.2509104e-02
  2.1539390e-02
 -5.7096224e-02
  1.9681664e-01
 -2.0510944e-02
 -2.5742326e-02
  2.2848846e-02
 -3.0786892e-02
  4.9667533e-02
  6.9007777e-02
  4.2855661e-02
 -2.5456488e-02
  2.6805237e-01
 -2.5748373e-03
 -1.3566652e-02
  3.1189628e-02
  1.1668222e-01
  2.1649238e-04
  1.1386738e-01
 -1.9032471e-02
  3.8852740e-02
 -8.6088330e-01
 -1.7389201e-01
  1.7045742e-02
 -5.6534274e-03
  2.3338156e-02
  2.2431402e-03
  3.6295518e-02
 -3.7248600e-02
  6.7805955e-03
 -9.6175289e-03
 -2.0418968e-02
  5.5299327e-04
 -1.5848823e-03
  9.4203418e-03
  3.4581928e-04
 -7.4159694e-03
  2.5140272e-02
  1.4804970e-01
 -1.1917336e-01
  1.3313779e-01
  4.7058192e-01
 -3.5707973e-02
 -5.2707731e-03
 -2.4907613e-01
 -3.5562411e-01
  6.3011982e-02
  6.1998893e-02
 -8.7316372e-03
 -1.5549827e-01
 -1.8571866e-01
  1.1319552e-02
  2.1100651e-02
 -1.6419011e-01
  2.8572893e-02
 -6.2649682e-02
  6.6886522e-02
 -5.2319333e-02
  7.0558667e-02
  5.6130745e-02
  5.6970295e-02
 -2.2339838e-02
  1.6200858e-01
  7.6564021e-02
 -2.1920554e-01
  4.7384996e-02
 -4.5175556e-02
 -3.9231878e-02
  4.6278473e-02
 -3.2316644e-02
 -5.0808050e-02
 -2.7187217e-02
 -6.5349005e-02
  2.7717277e-02
 -1.4584277e-02
 -4.5046676e-02
  2.0377617e-02
 -1.4800985e-02
  3.6039621e-02
 -6.1682094e-02
  4.5032565e-02
  5.0685961e-02
  6.9347784e-02
 -1.4515445e-01
  4.8405034e-03
  2.7647555e-01
 -5.3341883e-01
 -2.0359224e-01
  4.6169320e-01
 -2.6689282e-01
 -7.0237958e-01
 -1.4012614e-01
 -1.7374396e-01
  3.4298354e-01
  3.2250205e-01
 -3.4664246e-01
 -1.6575874e-01
 -6.2839800e-01
 -1.9200163e-02
  1.7138775e-01
  4.3682045e-01
 -2.2358470e-01
 -4.2837140e-01
  7.6724492e-02
 -8.5081124e-01
 -2.4510239e-01
  4.1191915e-01
  2.0877573e-01
  1.2645043e-01
 -1.7987439e-01
  3.6432272e-01
  5.3617585e-01
 -2.3316512e-02
 -6.7531693e-01
 -6.5249100e-02
 -1.8890245e-01
 -8.8898666e-02
 -9.9323466e-02
 -3.3302762e-02
 -2.2247048e-01
  4.7247242e-02
  9.6790358e-02
  6.3445814e-02
 -1.2877865e-01
  1.4421001e-01
 -2.2218485e-01
 -1.5955901e-01
 -1.7259167e-01
 -2.9539350e-01
 -4.6152526e-01
  3.5522500e-01
 -4.5529297e-01
 -3.7361628e-01
 -3.9988706e-01
 -3.0767503e-01
 -3.4036809e-01
  6.7467451e-02
  3.6289963e-01
 -4.4900078e-02
 -3.4819341e-01
 -5.5125910e-01
 -2.1874768e-01
  4.8036192e-02
  6.7129336e-02
 -2.7962294e-01
  4.5797980e-01
  4.4631907e-01
 -9.8598793e-02
  3.4140721e-01
 -3.2874489e-01
  3.5286549e-02
 -1.3436554e-01
  6.6117480e-02
 -2.1761087e-01
 -3.6590987e-01
 -9.7411588e-02
  4.5308410e-03
 -5.1541620e-01
 -1.0679941e-01
  5.6158304e-01
 -5.3341848e-01
  2.4803217e-01
 -3.2946426e-02
  9.8988079e-02
  1.7990296e-01
 -1.1395947e-02
 -9.8129742e-02
 -7.3937900e-02
 -8.7982453e-02
  9.6617177e-02
  8.5047528e-02
 -4.4432467e-01
 -1.6885471e-01
  3.2916507e-01
 -1.8077721e-01
 -6.8738788e-01
 -6.6463578e-01
 -4.3493614e-01
  4.3725163e-02
 -6.7918431e-03
 -4.8703456e-01
  2.4440202e-01
 -1.9739646e-01
  3.3638349e-01
 -8.0482376e-01
  2.6643291e-01
 -2.1543975e-01
 -4.6814010e-01
 -5.2915988e-03
  2.1280672e-01
 -6.9391645e-02
 -2.8964996e-02
  8.2377732e-02
 -2.6053122e-01
  7.2288439e-02
 -1.2662937e-01
  7.1516082e-02
 -3.4448430e-01
 -5.8686994e-02
 -5.4340643e-01
 -3.5794860e-01
 -1.4172421e-02
  1.2435865e-01
 -1.6599022e-01
 -6.5048575e-02
  2.0099436e-01
  1.3737253e-02
 -1.3757910e-01
  9.8179549e-02
  4.2940143e-02
 -1.7973670e-01
 -1.4876071e-01
  2.2024271e-01
  2.1492490e-01
  4.2904049e-01
  6.5235674e-01
 -5.1591605e-01
 -5.8233034e-02
  1.1599214e+00
 -7.0616436e-01
  4.6171424e-01
 -1.8364398e-01
 -6.3626951e-01
  1.1162726e-01
 -3.0607370e-01
  1.9654378e-02
  1.2579075e-01
 -1.5177587e-01
 -1.8966724e-01
  3.4277758e-01
 -9.2888691e-02
 -3.4436586e-01
 -4.0670380e-01
  6.5236397e-02
 -1.8346895e-01
  2.7639082e-01
  9.7835404e-01
 -1.9496307e-01
 -2.5081853e-03
  4.0119487e-01
 -1.2436906e-01
 -2.9397729e-01
 -6.4730980e-02
  5.4736245e-01
 -3.2793313e-01
  1.3032192e+00
  6.7903477e-01
 -9.6373653e-01
  7.2950584e-01
  2.1202046e-01
 -1.4892726e-01
 -2.0783286e-01
 -4.9930188e-01
  2.7443341e-03
 -4.3750459e-01
  1.0192484e-01
 -9.2127942e-02
 -3.3203042e-01
 -2.7872401e-01
 -1.9471009e-01
  9.1707014e-02
 -7.3309191e-02
 -6.5500185e-02
 -8.6608224e-02
  4.1632766e-01
  4.4921762e-01
 -3.8877690e-01
  2.0545658e-01
  2.4305548e-01
 -2.6229838e-01
 -4.8134068e-01
 -4.4696152e-01
 -3.2933870e-01
 -4.3394095e-01
 -1.2232122e-01
  1.1893755e+00
  3.1009388e-01
 -1.9522321e-01
 -9.0451664e-01
  7.1258128e-01
  4.1630694e-01
  1.6743660e-01
 -2.9244054e-02
  6.0097609e-02
 -1.1752639e-01
 -1.6062213e-01
  3.7680004e-02
 -3.8262832e-01
 -1.5807553e-01
 -3.5916901e-01
  1.8013534e-01
  6.6069789e-02
 -7.9712188e-01
 -1.9082324e-01
 -2.5488269e-01
 -2.1354084e-01
  1.2217771e-02
 -1.0957940e-01
  2.8155722e-02
  1.9422723e-01
  3.9854109e-02
  1.8961024e-02
  3.3429842e-02
 -3.5963333e-01
  3.2315537e-02
  6.9547021e-01
 -1.4360195e-02
 -1.0977032e-02
  3.7811452e-01
  9.4412610e-02
 -1.1966135e-01
 -2.0473264e-03
  1.3250739e-02
 -1.6026711e-01
 -6.6932128e-03
 -2.1295135e-01
 -2.7359577e-02
 -1.1329485e-02
 -1.2526036e-02
 -3.3900045e-02
  3.4272008e-02
 -9.0779494e-03
  6.1771262e-02
 -2.1403000e-02
  2.8686369e-02
  2.9995204e-03
  7.4312533e-03
 -4.5347814e-02
  5.1183160e-02
 -1.5672728e-02
 -4.6009701e-01
  8.5207187e-02
  3.6948638e-03
 -3.0810511e-01
  4.8687090e-03
  7.6617859e-02
 -1.2110126e-01
  2.7255249e-01
 -6.7266058e-03
  1.9576332e-02
 -1.8700741e-02
  4.8485687e-03
  2.2562604e-01
 -1.4126408e-02
 -2.2305246e-03
  2.6592899e-03
  1.7198372e-01
 -8.2318598e-01
  5.8445108e-01
  3.2920691e-01
  3.7922031e-01
  5.4790623e-02
  3.8032246e-01
 -6.8126477e-02
  5.7996565e-01
 -1.1850692e-01
  2.5526744e-01
  4.6092364e-01
 -2.5753012e-01
  1.5912977e-01
 -4.1619569e-02
 -4.3166277e-01
  1.0720909e-01
