nep4 3 Ba Ti S 
cutoff 8 5.85 101 42
n_max 8 8
basis_size 10 10
l_max 4 2 0
ANN 30 0
  8.4457535e-04
  6.8498583e-04
 -5.2221818e-04
  3.4049223e-04
  1.8288044e-04
 -4.7469744e-04
 -3.4955304e-04
  8.4343896e-04
 -3.6940092e-04
  6.3250761e-04
  8.9638523e-04
 -1.8882340e-05
  8.0821553e-04
  1.1386039e-04
  5.7044148e-04
 -2.7411181e-04
  7.6357031e-04
 -2.2463001e-04
  1.0250598e-04
 -1.3787343e-04
 -9.1227435e-04
  8.8036031e-04
 -4.8360162e-04
  1.2866402e-04
 -8.5545314e-04
 -1.4956425e-03
 -3.7154787e-06
 -7.8424596e-04
 -7.1535615e-06
 -3.4162935e-04
  6.7923550e-04
 -2.0041162e-04
 -8.0925733e-04
  1.0894550e-04
  2.9281960e-04
  6.7162153e-05
  1.4308523e-04
 -3.4198073e-01
  1.1115486e-03
  1.4423847e-05
 -3.9574600e-04
  1.1143409e-04
  2.5217826e-04
 -7.8841398e-04
  3.9544440e-04
  3.1825172e-04
 -4.7334164e-05
 -1.3371166e-03
  2.0749035e-04
  1.3684703e-04
  4.0116455e-04
  1.4903737e-04
 -1.6413861e-03
  2.3153654e-04
 -4.9958128e-04
  1.1209981e-03
  5.6596799e-04
 -1.8429075e-03
 -3.2756469e-04
  3.5250036e-05
  6.3400972e-01
  1.8981862e-01
 -1.1096245e-04
 -2.1658544e-04
  3.9906311e-04
 -5.6087028e-04
 -4.3086358e-04
  4.8602850e-04
 -1.4773748e-03
  5.2006944e-06
 -1.2713006e-04
 -1.0375839e-03
 -3.2001929e-04
 -2.4746600e-04
  8.8958058e-04
 -1.7780990e-04
 -3.0956932e-04
  3.2470375e-04
 -6.2677318e-05
 -3.6347713e-04
 -1.0555370e-03
 -1.1645102e-04
  8.5737754e-04
 -9.9065990e-05
  2.6589926e-04
  2.9344048e-04
 -3.1686795e-08
  7.9131365e-04
  6.5262365e-04
 -1.1928759e-04
  1.3715656e-03
  1.0067114e-04
  2.3765866e-04
  2.3421901e-04
  2.5450255e-04
 -8.1441522e-04
 -1.0607225e-04
  4.0894415e-04
 -5.6500873e-04
  9.0202573e-04
 -5.5697549e-04
  1.4162599e-04
 -4.9812987e-04
 -6.9626077e-04
  3.3414474e-04
  1.5939755e-04
 -2.4366754e-04
  3.4412675e-04
  6.2763726e-04
 -1.7849133e-04
 -1.7032118e-01
  5.6520463e-03
  9.0582576e-04
  3.6319645e-04
 -1.9889222e-01
  3.2497829e-04
  6.8895775e-04
  1.5479338e-03
 -2.1119619e-04
 -1.4785755e-03
  4.2486799e-04
 -1.3421300e-04
  3.9362317e-04
 -4.2019732e-05
 -5.9313752e-04
  1.2644075e-03
 -2.8626851e-04
 -9.6662028e-04
 -8.3143474e-05
 -3.0378813e-02
  3.8735996e-04
  2.2825217e-04
 -3.4687668e-04
  1.0066294e-03
  6.9889094e-05
 -1.5020400e-03
 -1.4670916e-03
 -9.9729295e-05
  3.2565079e-03
 -5.4062670e-04
 -1.2007349e-03
 -1.3657537e-04
 -5.0459360e-04
  8.7461155e-04
 -3.5065360e-04
  1.2144393e-03
  1.2507515e-03
 -8.3597755e-04
 -2.0843670e-03
  6.8457599e-04
 -3.9906468e-04
  1.0121507e-03
 -4.9237831e-04
 -9.1932714e-04
  3.4869619e-04
  3.8495410e-04
  6.0055678e-04
 -1.0151514e-04
 -3.0888029e-04
  6.0509439e-05
 -3.8082455e-04
  6.3477561e-04
  2.0062487e-04
 -2.0052183e-05
  3.4726615e-06
 -1.0738569e-01
  8.1443909e-04
 -7.5151637e-02
  2.5394961e-01
  6.3690983e-02
  7.2901836e-05
 -1.9578618e-04
  3.0048826e-04
 -1.1703385e-03
  3.2375471e-04
  9.6602773e-04
 -3.4633870e-04
  3.2952259e-04
 -2.9724877e-04
  1.8141482e-03
  1.5762489e-04
  8.9102273e-04
  2.0431858e-03
  1.1415836e-04
 -3.3291637e-03
 -5.0883580e-05
  1.5423025e-03
 -8.9800369e-04
 -9.2401769e-04
  2.4254196e+00
  1.9930647e-04
  2.6204556e-04
 -1.2044096e-03
 -3.7683587e-04
 -2.2845234e-05
  8.8789710e-04
 -1.1043556e-04
 -1.3355882e-04
  2.7204558e-05
  1.8679303e-04
 -3.1163183e-04
 -9.6328976e-04
 -2.9911057e-04
  1.2292304e-03
  5.8295706e-04
 -2.3374175e-04
  5.8998459e-04
  1.9627117e-04
 -5.8813189e-04
 -1.4332523e-04
 -1.9906642e-04
 -4.1843305e-05
  1.4068675e-04
 -3.8031631e-04
 -5.7611433e-05
 -2.8027287e-05
  1.0101362e-03
 -1.5930450e-04
 -1.6844667e-01
  1.5444339e-02
  2.0701829e-03
  9.3321214e-05
  1.6791066e-03
 -2.4511886e-03
  7.0066591e-05
 -1.7922945e-04
  3.0230853e-04
  5.0997647e-04
 -5.6986767e-04
  1.8377033e-04
 -1.7378895e-04
 -2.7868882e-04
  7.2255105e-05
  2.6301134e-04
  6.1933376e-04
 -8.2849973e-04
  4.2880484e-04
 -1.5045619e-03
 -3.1025845e-04
  6.2010426e-04
 -7.4463512e-04
  1.1983856e-04
 -5.7529431e-04
 -1.2313864e-03
  5.8077538e-04
  9.5875963e-05
  2.9414688e-05
  3.0102761e-04
  4.4712715e-04
  3.3516163e-04
 -5.2789564e-04
 -8.1629492e-03
 -2.8316930e-04
  3.7773396e-05
 -4.1524903e-04
 -1.3599321e-04
  1.2656585e-04
  3.6559516e-04
 -2.0525375e-04
 -7.7520387e-04
  3.2656133e-04
  2.8917752e-04
 -3.5869394e-04
 -1.3802046e-04
  3.2608642e-04
  1.9672094e-04
 -2.0833511e-04
  4.7248788e-02
 -8.1218699e-05
 -2.0223454e-04
  8.0323417e-04
  3.5667109e-01
  9.4124341e-01
 -5.3633124e-02
 -1.9340852e-02
  2.4723113e-02
 -6.8852997e-01
 -3.8473344e-01
 -3.8896946e-03
  1.2452115e-03
 -1.0100501e-04
 -5.5283547e-04
  2.4523125e-03
 -1.5978999e+00
  1.4255757e-03
  5.5451336e-04
 -1.5243757e-04
 -4.5723392e-04
  1.6562837e-04
  5.0901872e-05
 -5.2273250e-04
  3.8347174e-03
 -3.5871670e-04
  5.5657158e-04
  2.3208247e-03
  4.2361801e-04
  1.5872614e-03
  1.9085166e-03
 -9.1300544e-04
  4.7687368e-04
  2.2540461e-04
 -5.7430897e-04
  6.4477412e-04
  9.7299227e-04
  4.1334733e-05
  4.0561886e-04
  5.9735547e-03
 -1.6289152e-04
  3.6202464e-04
  1.1969807e-04
 -5.2888511e-04
 -7.3047023e-04
  1.3725137e-04
  9.2902931e-04
  2.1425338e-04
 -3.7729426e-04
 -1.0622789e-03
 -6.0221029e-04
  7.8025949e-04
  7.4959354e-04
 -2.5369265e-04
 -2.6467146e-04
 -1.9866013e-04
 -3.0802551e-04
  5.9559080e-04
  2.2697248e-05
 -5.1786040e-04
  2.6455568e-04
  3.0731535e-04
 -1.3701711e-04
  6.7550471e-05
 -4.3924345e-04
 -2.3589123e-04
 -3.0644267e-04
  1.7267187e-03
  5.8008518e-05
  1.6675873e-03
 -1.6396128e-03
 -2.4438812e-04
  3.9055262e-04
  2.5595826e-05
 -2.9459674e-04
  1.4084539e-02
  1.1633032e-04
 -1.7904142e-04
 -1.4683011e-04
  1.1733780e-04
  9.5928146e-05
  6.3483859e-04
  1.2281591e-04
 -8.0219493e-04
 -3.7412177e-04
  1.8494304e-04
 -2.8146475e-04
 -1.1661714e-03
  1.7551580e-04
  2.5087190e-04
 -3.7267417e-04
 -3.8909001e-04
  6.4159825e-04
  5.3935352e-04
 -2.3489853e-04
 -2.3408048e-04
  4.1378997e-04
  2.4773212e-04
 -3.0750508e-04
 -1.1375153e-03
  2.9278762e-04
  3.0835834e-04
  6.8663634e-05
  7.8127923e-06
  4.8294372e-04
  2.8478610e-04
  3.8425453e-04
  6.1655103e-04
 -2.3867388e-04
  3.7448556e-04
  1.4892255e-04
  2.2161270e-03
  9.3934089e-01
  6.8737203e-01
 -2.1886355e-01
  3.6671263e-05
  3.0865159e-03
 -3.2409569e-03
 -7.1042560e-02
 -2.0586967e-01
 -3.1992764e-04
 -5.6249613e-04
 -1.7979415e-04
  1.6234276e-03
 -9.0715871e-04
 -1.6331365e-03
 -5.1522059e-03
  6.4123247e-04
  1.3922297e-03
  4.5215295e-04
  7.3179923e-04
 -2.2477994e-05
  2.0172907e-04
 -2.1395602e-03
  6.2232593e-04
 -7.5167976e-04
 -6.2569394e-04
  4.1969932e-04
 -8.8320434e-04
  1.2863081e-04
  1.2966860e-03
 -5.6827551e-04
 -5.4698648e-06
 -1.0619946e-03
  4.0924072e-02
  3.4870859e-04
 -3.2413304e-01
  3.2387424e-04
 -6.5828406e-04
 -4.8864621e-04
 -1.5392551e-03
 -7.5450283e-05
 -4.9232831e-04
  1.1065377e-04
 -1.6414313e-04
 -9.3983603e-04
  8.3658623e-04
 -1.6309020e-04
 -2.5837086e-03
  5.6260666e-05
  3.0924729e-04
 -1.5797961e-03
  2.0358067e-03
 -4.4424157e-04
 -4.3750659e-04
 -1.1014411e-03
 -2.1515963e-04
  1.1755285e-04
  2.3867938e-04
 -6.6532625e-04
  3.8132991e-04
  1.3619238e-04
  7.5795187e-04
  4.3370601e-04
 -2.9870524e-04
  3.4148013e-04
  5.5339839e-04
 -9.2111877e-04
 -9.4535062e-04
  1.3319311e-04
  5.0659961e-04
 -2.7888070e-04
 -5.8601581e-04
  3.5943027e-05
 -2.1456133e-04
 -2.0725247e-04
  1.7772992e-04
  2.3086817e-05
  4.8717560e-04
 -5.5783847e-04
 -1.1177715e-03
 -9.6743934e-05
 -4.3762318e-04
  1.2495931e-03
 -1.5777850e-03
  1.0623103e-03
 -8.0654677e-04
  7.2504464e-04
  1.2121203e-04
 -1.0471300e-04
  5.5720127e-05
  1.8751575e-04
 -1.2397224e-03
  3.7322222e-04
  6.9173984e-04
 -3.7253945e-04
 -6.0309848e-04
 -9.8556106e-05
 -6.7437172e-04
 -2.0475226e-04
  5.5455120e-04
 -1.6551004e-04
  4.0040025e-04
  6.1689265e-04
 -1.3487905e-03
  6.1719969e-05
  6.1487599e-04
 -8.6514762e-04
  5.4888253e-04
  3.0629418e-04
  7.7118268e-05
 -6.8075280e-04
  1.6154813e-04
 -6.3208031e-04
 -6.4836786e-05
  1.0253513e-03
 -7.8880542e-04
  8.3164265e-04
 -7.9438050e-04
  6.9501833e-04
 -5.1458378e-04
  1.2072646e-03
  2.2638447e-04
  2.9913717e-05
  2.6655742e-03
 -1.4785537e-03
 -3.6331796e-04
 -1.1963898e-03
  3.2689466e-04
  3.6893610e-04
  4.3551583e-04
 -2.0661985e-04
  8.1543854e-05
 -3.3442510e-04
 -4.6947601e-04
 -5.6185503e-04
 -3.5780095e-04
 -3.3789005e-05
 -1.7468746e-04
  6.7642140e-05
 -7.1614649e-04
  9.5711940e-04
 -2.3223952e-04
 -1.0779721e-03
 -7.7081575e-05
 -9.4968607e-05
  9.5431472e-04
  8.3618425e-04
  1.2371704e-03
  3.0788340e-04
  3.3297506e-04
  2.1560135e-04
  3.8300877e-04
 -2.5267518e-04
 -2.6067559e-04
  8.0570695e-04
 -4.1428654e-04
  5.6148745e-04
 -3.2233234e-05
 -6.0853554e-04
 -5.1753887e-04
  1.3827531e-03
 -4.3227896e-04
  2.9703893e-04
  3.8856116e-01
  3.3301559e-01
 -5.5855919e-02
 -4.6732684e-04
 -1.9372074e-01
  3.7913945e-01
  3.8406197e-02
 -4.8356522e-03
  1.3500036e-03
  9.7291166e-05
 -3.9833918e-05
  1.6515199e-03
 -6.0462430e-03
  2.0448312e-04
 -6.1235565e-04
 -1.7542916e-05
  1.0176351e-03
  1.3066667e-04
  3.2155280e-04
  7.2938268e-04
 -1.0019292e-04
 -2.7465314e-04
  3.4882606e-04
  3.0563941e-04
 -2.7308363e-04
  1.0270459e-03
  7.3050993e-04
  2.0917604e-04
 -5.6366005e-04
 -1.7519902e-03
 -8.1582826e-01
  5.7174548e-05
  1.7714658e-04
 -3.0745717e-04
 -1.2294114e-04
  9.1027829e-04
  1.5794433e-04
  3.7860306e-04
 -2.3772721e-03
 -6.3575630e-04
 -1.3941332e-03
  1.0907474e-04
  7.3258234e-05
 -2.7312315e-04
  1.0263737e-03
 -1.5071927e-05
  6.0461462e-04
  5.2747363e-04
 -1.1830893e-04
 -1.4777646e-03
  1.1180496e-03
  1.0214403e-03
  4.1212897e-05
  1.0006204e-03
 -3.1205895e-04
  8.3204918e-04
  2.8345088e-04
 -3.8954034e-04
  1.4352953e-04
  1.6992861e-04
  1.5444944e-04
  6.8250910e-04
 -2.0003528e-05
  2.5032449e-04
 -1.8995845e-04
  9.3345298e-04
  1.0151340e-03
  7.3548639e-04
  1.1805422e-03
 -1.5734455e-03
 -2.8910505e-04
 -1.4485736e-04
  9.7751257e-04
  2.8112580e-03
  5.7656836e-04
 -2.3890184e-03
  3.8562276e-04
 -3.8174231e-04
 -6.9459918e-04
  6.0913787e-04
 -3.4185778e-04
  9.3409658e-04
 -9.6780561e-05
 -4.2782846e-04
  3.8498323e-04
 -4.8038815e-04
  1.8232156e-04
 -2.4946502e-03
  8.9698995e-05
 -1.0394959e-03
  5.1109772e-04
  4.6311374e-04
 -2.5871035e-05
 -1.0722322e+00
  5.2626769e-04
 -5.8406277e-04
  5.4781267e-05
  3.6024069e-04
 -6.0979603e-04
  1.3263982e-04
 -1.0856414e-04
  5.3562748e-04
  2.8498020e-05
  1.5116595e-03
 -2.5281182e-04
  4.5161400e-04
 -1.5970122e-03
 -1.0983294e+00
  6.8882698e-01
  7.5339592e-01
  7.1771318e-01
 -3.1140891e-01
  5.2419591e-01
 -1.6469747e+00
 -6.7871654e-01
 -2.3022878e-01
  7.0552941e-04
 -8.5954508e-04
 -3.6415691e-04
  2.5705248e-03
 -1.5703479e-02
 -4.4562219e-04
 -6.0024482e-01
  4.5305237e-04
  1.4147814e-01
  4.3442163e-01
  1.7046301e-04
 -2.5289055e-04
  1.5556525e-03
 -5.2401429e-04
  6.1207958e-03
 -1.2727280e-03
 -2.2380255e-04
  2.5972551e-01
  6.1483657e-01
  1.8063978e-03
  4.7711324e-04
 -8.4637053e-02
  6.3646911e-04
  1.4072843e-03
 -7.7895576e-04
 -3.2407169e-03
 -6.0411199e-04
  4.6641894e-02
  4.1399297e-04
 -6.3984119e-04
  1.0443387e-03
  5.0007494e-04
  3.4314362e-05
 -5.9540846e-05
 -5.6895986e-04
 -2.7700319e-04
  1.8070561e-03
 -8.7853329e-04
  4.7689845e-04
  2.4089200e-04
  2.9934564e-04
 -2.3470946e-04
 -7.0297074e-01
 -2.0982916e-05
 -1.0162940e-03
 -5.7331491e-03
  3.1725287e-01
 -6.4906336e-02
 -1.0682453e-01
  7.1346141e-02
 -2.3439482e-03
  1.3040945e-01
  1.8599562e-02
 -1.3456000e-01
  1.6832625e-03
  4.7411173e-05
  1.1180901e-03
  3.8106474e-01
 -7.8767143e-02
  3.0076401e-02
 -5.7155397e-03
  2.4517793e-03
  2.9767618e-01
  1.7202553e-01
 -1.8843710e-04
  5.3334812e-04
  6.3277110e-03
 -1.4014062e-03
  3.9091770e-02
 -6.8677611e-05
 -2.0542350e-01
 -4.9041095e-03
  8.2952030e-02
  1.6353221e-04
  4.3144501e-05
 -1.2353311e-04
 -2.8158824e-03
  1.2914293e-01
  1.8513043e-01
 -7.1702880e-04
 -5.1863468e-04
  5.5358052e-02
  4.9694820e-04
 -6.7594083e-05
  2.4432852e-04
  7.0447888e-05
 -4.7880713e-02
  5.9348691e-02
  8.0570055e-04
 -1.2364953e-03
  1.3588706e-04
 -8.7761044e-05
  1.5376252e-05
 -9.5219613e-04
 -1.8703998e-03
  1.0509491e-03
  1.5586472e-04
  4.8514825e-04
 -2.0700439e-03
  9.3014742e-04
 -8.5891597e-04
 -2.2121008e-04
  5.5063114e-04
  4.3078634e-04
 -1.1618534e-03
  5.3436245e-04
 -4.3025386e-04
 -1.1082308e-03
 -1.2774281e-04
 -2.1950492e-04
  1.6788279e-01
 -1.0642858e-03
 -8.4635895e-04
 -4.3036888e-04
 -7.3324703e-04
  4.3920579e-04
  2.7609867e-04
  3.2375375e-04
 -3.5650795e-04
  2.5940368e-05
  2.2035041e-04
 -9.7346120e-04
 -4.2574582e-05
 -6.5789849e-04
  1.1340656e-03
  9.6839922e-04
 -7.8621885e-04
  9.3448261e-04
 -5.3971802e-05
 -6.7502726e-05
 -1.5157768e-04
  1.5064896e-04
  1.8292691e-03
 -1.5137699e-03
 -1.4907424e-04
  2.3058572e-04
 -7.6231168e-04
 -1.1690893e-03
  2.5467274e-03
  2.1528578e-04
  2.3774281e-03
  3.0129656e-04
 -6.9380621e-04
  7.5997395e-04
 -6.4157188e-04
  4.9957322e-05
 -8.3944341e-04
 -6.9631764e-04
 -1.9246843e-04
  2.0847001e-04
  3.4081917e-05
 -5.4191897e-04
  1.2626697e-04
  2.4625316e-04
  7.7601045e-04
  2.0378549e-03
 -1.1905637e-01
  1.0281645e-03
 -2.3235142e-04
 -7.7598646e-02
  4.1946364e-04
 -1.0085572e-03
 -2.9700427e-04
  9.0863981e-04
 -1.2404291e-04
  2.3739047e-02
  1.5256782e-03
  1.3654219e-04
  6.9188233e-04
 -8.6676102e-04
  3.8587893e-04
  8.8334276e-04
  2.3751704e-04
  9.5662929e-04
  4.6915236e-05
  7.1172090e-04
 -9.2745584e-05
  6.4412120e-04
 -6.9238129e-04
 -1.0068775e-03
  5.8910518e-04
  2.5785266e-04
  5.8146840e-04
  9.8656565e-06
  4.2784389e-04
  1.0803917e-04
  4.6274439e-04
  1.1134713e-03
  8.0740167e-05
  8.1748381e-04
  4.3705315e-04
 -1.8618557e-05
 -9.6669141e-04
  8.6651341e-04
 -6.7097379e-04
  6.6228211e-04
  6.0058443e-04
  2.4275621e-04
 -6.0189451e-04
 -2.7301940e-04
 -2.0181018e-05
 -2.2947923e-03
  2.8126975e-04
  3.2168048e-04
  3.9879870e-04
  1.7193867e-03
 -2.7545984e-04
 -2.7145279e-04
  4.6396483e-05
  5.4206449e-04
  3.3654092e-04
 -2.6523723e-04
  1.9886252e-04
  6.7832432e-04
  4.0584605e-04
  6.6675182e-04
 -1.8409139e-04
 -6.4177456e-04
 -3.4747442e-04
  1.7594668e-04
  1.4218621e-04
  2.0790711e-04
 -8.9497212e-04
  5.8376760e-04
 -1.1093962e-04
  4.0597857e-05
  4.8565323e-04
 -5.3802168e-04
 -7.2494661e-04
  1.9283337e-04
  9.0857327e-05
  5.0033728e-04
  1.8276222e-04
 -1.9734632e-04
  3.4163333e-04
 -1.1324493e-04
 -1.0343813e-03
  2.6381176e-04
  5.9261798e-05
 -2.0168425e-04
 -9.6248958e-05
  7.7796250e-04
 -8.0021826e-04
 -7.6242723e-04
  1.4927772e-04
  1.0226513e-03
  1.4352506e-04
  2.7664285e-04
  8.9470239e-04
  3.2099808e-05
 -1.2050078e-03
 -9.5810427e-04
 -3.0735676e-04
  5.2283518e-04
  3.1971438e-03
  7.7338540e-05
  1.4502666e-04
 -5.6440959e-04
  3.8406459e-04
 -1.4135843e-04
  5.0220435e-04
 -1.7913128e-04
 -1.7557778e-04
  1.9244304e-01
 -2.5334470e-03
 -8.9861394e-04
 -1.2359550e-04
 -4.8929731e-05
  9.5383072e-04
 -8.7241834e-04
  2.1931514e-04
  1.0778636e-04
  1.1290729e-04
  2.4596222e-03
  1.1144119e-05
  2.0100849e-03
  1.1668097e-03
 -1.4635499e-04
 -3.5398756e-04
 -9.8217092e-04
 -1.6681554e-03
  1.0406626e-03
  2.7793381e-04
 -1.3522489e-03
  7.9889132e-06
 -5.8630231e-04
  1.9437562e-04
 -9.4392011e-04
 -6.7223841e-04
  7.1497640e-04
 -2.4748192e-04
 -5.8289280e-04
 -1.3665686e-04
 -1.6275092e-04
  3.5103058e-05
  4.1467801e-04
  2.7200229e-05
 -1.2926976e-06
 -6.7866145e-04
 -3.7247577e-05
 -6.1151040e-05
  7.8030207e-05
  4.7934009e-06
  4.1663955e-04
 -5.4735679e-04
  2.7828928e-04
 -1.6196893e-05
  3.3781180e-07
  8.7281149e-03
 -3.0859117e-04
 -2.0423019e-03
  5.9495459e-04
  4.0470937e-04
 -3.9827512e-05
 -1.7055002e-04
 -6.9514161e-04
  3.2039100e-04
 -1.0015282e-03
 -7.6874672e-04
 -7.1927632e-04
 -2.0893388e-04
  1.2301805e-04
  2.9108353e-04
  2.2858930e-04
  7.2571413e-05
 -7.8334374e-04
  3.0678648e-03
 -5.5500894e-04
 -5.3807272e-04
 -3.8774364e-04
  1.0582268e-04
 -1.0313715e-04
  1.8523795e-03
 -3.0228985e-04
 -3.6055350e-04
  1.2127801e-03
 -4.5584445e-04
  2.5051352e-04
  4.4467197e-05
 -2.5469824e-05
  8.0973492e-05
  1.8399907e-05
  2.6568142e-04
  1.1592716e-03
 -3.5248391e-05
  1.1951447e-01
  5.4937083e-04
  9.6687395e-04
 -5.1419530e-04
 -7.9301353e-05
  3.7331278e-03
  5.0119509e-04
  7.6037960e-04
 -1.1647349e-03
  2.9774031e-04
  4.2116616e-04
  1.7155248e-04
 -6.3394097e-04
  2.5741191e-04
 -2.5849690e-04
  1.8522976e-04
  5.4012882e-05
  7.9052779e-04
  9.2654803e-04
  1.2507034e-04
 -8.1796345e-05
  4.7929102e-04
 -3.4137408e-04
 -4.9598014e-04
  7.4807431e-05
 -9.3644514e-04
  8.5346532e-05
 -3.6707975e-04
 -3.1388443e-04
  8.1156194e-04
  1.5996597e-04
 -6.0332237e-05
  4.2653648e-04
 -6.0441153e-04
 -9.0810010e-04
  1.4535908e-04
  6.8366842e-04
  3.2374170e-05
 -3.5335010e-04
  1.5675062e-03
 -1.6553501e-04
  9.2875329e-05
  2.6605703e-04
 -2.1180231e-04
  4.4229088e-04
  4.6402827e-04
 -1.2576516e-04
 -7.0112624e-04
  1.9527398e-04
 -1.2782855e-03
  5.4132164e-04
  7.2246592e-05
 -7.4811498e-05
  3.5933719e-04
  2.0251372e-04
  1.0899390e-04
  1.6991385e-03
  8.4957451e-04
  2.7135694e-01
 -5.6207826e-04
 -1.1315058e-03
 -7.2835817e-04
  5.2450952e-04
 -5.3764973e-04
  2.6217639e-04
  7.1141263e-04
 -4.6559965e-04
  2.1314985e-04
 -9.0400357e-04
  1.2591350e-04
  1.4265574e-04
  1.6130499e-03
 -2.8395452e-04
  6.3042191e-04
  6.2554618e-06
  1.4588814e-03
 -3.8439780e-04
 -4.0582125e-04
 -2.1221949e-04
 -2.4829444e-04
  2.7757608e-03
  8.3100358e-03
 -6.1672938e-05
  2.7658319e-04
 -1.5065886e-01
  6.7482889e-04
  2.2303127e-03
 -7.8518433e-04
 -7.8514888e-05
  1.5113011e-03
  1.6261331e-03
  1.1286150e-03
  1.5746735e-04
 -3.4134806e-05
  1.2759352e-04
 -2.5251153e-04
  4.6970489e-04
  1.2443635e-04
 -1.2571033e-04
 -1.0847115e-04
  1.6739019e-05
  1.1232098e-03
  3.7444438e-04
  2.1057036e-03
 -8.0191967e-06
  8.4073778e-04
 -1.8762163e-04
  4.1883928e-04
  5.3776654e-05
 -1.2511280e-03
 -4.3677728e-04
 -4.9225969e-04
  1.0854863e-03
  2.9228999e-05
  2.8681813e-04
  1.3565858e-03
  5.3221988e-04
 -8.1050873e-04
 -1.4921599e-04
  2.4322008e-03
  9.3915407e-04
  7.0991920e-04
 -7.8726164e-04
 -5.4497831e-04
  6.6517003e-02
 -9.0244092e-04
 -1.3203605e-04
 -1.7722049e-03
  1.1328103e-04
  5.6721619e-04
 -1.8223329e-04
  3.9903028e-04
 -8.0930568e-02
  6.3407618e-01
 -1.1599973e-01
 -7.0667189e-01
  2.0907286e-01
 -3.8447726e-04
 -5.8181083e-01
 -6.1078703e-01
 -1.3579702e-01
  2.1191770e-01
 -3.5921443e-04
  9.0971400e-05
  1.1899378e+00
 -6.5115613e-01
  4.1153446e-01
 -1.7019754e-02
  4.0516167e-04
  3.7196866e-01
  8.1928945e-01
 -1.8267451e-04
  5.1683950e-04
  2.6046076e-01
 -2.3317613e-02
  4.0146607e-01
  1.1778852e-01
 -3.7834034e-04
 -1.8851893e-01
  2.5840861e-01
  4.5030075e-04
 -1.1512158e-03
 -9.5831342e-02
 -4.2307279e-01
  5.3053421e-01
  9.2773959e-02
  1.4167998e-04
 -3.6745986e-01
  4.3425843e-01
 -2.2926379e-04
  2.8299744e-04
  4.1395896e-03
  5.9483591e-02
 -5.2161545e-01
  7.3344213e-01
  3.7180667e-04
 -2.8115001e-01
  2.7510354e-01
 -8.0329250e-04
  3.2078424e-05
 -1.0418748e-03
 -8.2108853e-03
 -2.0423073e-04
  2.1209467e-02
 -1.3500849e-04
  1.4898146e-04
 -1.3306906e-03
  1.6076361e-01
  6.1325729e-01
 -6.6497177e-01
  3.7922356e-01
 -9.4173841e-02
  1.4923693e-01
  9.2768729e-01
 -5.3092521e-01
  7.5084064e-04
 -1.9641645e-04
 -4.0420206e-04
  6.0895853e-02
 -9.6032053e-02
  5.4011762e-04
 -2.2162807e-03
 -1.3654714e-04
  4.4047754e-02
  2.3672692e-04
 -9.3950506e-04
 -8.3516192e-05
  6.9597930e-02
 -2.5297889e-01
  1.8136468e-04
  3.3505008e-02
  3.1392423e-03
 -2.5709417e-01
 -4.0323380e-04
  7.4225152e-04
  4.8708869e-04
 -2.9478068e-04
 -8.3378609e-04
  1.8007823e-03
  1.4081602e-01
  6.5575319e-04
 -2.2519671e-06
  5.2234163e-03
 -9.7249181e-04
 -2.3249979e-03
  6.4217759e-04
  2.5147269e-04
 -1.9846452e-02
  6.0175311e-02
 -9.2431168e-05
 -9.0469111e-05
  3.4070137e-05
 -9.4942260e-04
 -9.3861739e-04
  6.4058456e-04
 -5.9039635e-04
  1.3624957e-03
  3.9982557e-04
 -5.9083197e-04
 -6.0848426e-04
 -5.7141448e-04
 -1.5386535e-03
  1.4467986e-04
 -5.1078550e-04
  2.1759968e-04
 -1.4259289e-04
 -1.3005247e-04
  3.1377719e-04
 -4.2323190e-05
  4.7331525e-04
  1.4580435e-03
  4.7204649e-04
  3.7752083e-04
 -1.8986490e-03
 -1.4168725e-04
 -1.5580547e-03
  7.7000604e-04
  1.9204663e-03
  6.5156369e-04
  3.2217207e-04
  6.1995978e-04
  9.0699992e-05
 -2.4645901e-03
 -1.0852462e-04
 -1.4455362e-04
 -2.5051490e-03
 -6.0931052e-07
 -4.8674466e-04
 -1.4829793e-03
 -1.1832530e-04
  1.0689055e-03
  1.8049865e-04
  1.8438249e-04
 -3.2680930e-04
  1.4549498e-03
  1.6785077e-03
  3.5565757e-04
  2.3202547e-04
  4.9358496e-05
 -2.2818915e-04
  1.7926985e-04
 -1.6831230e-04
 -4.0551368e-04
  4.8594750e-02
 -5.6929258e-04
  1.1181524e-04
  3.1062239e-04
 -1.2402416e-03
  1.3021247e-03
 -1.7939512e-04
 -6.2594085e-04
  5.0907559e-04
  3.4011668e-04
 -9.2555551e-05
  1.1056707e-04
 -1.0272261e-04
  1.1755357e-03
  1.8118710e-03
  6.7470892e-04
 -3.5811972e-06
  4.2461385e-03
 -5.6465578e-01
 -1.7919586e-04
 -3.5946062e-04
 -1.2951472e-04
  6.4050335e-05
 -2.5746183e-04
  1.0805426e-03
  2.8950523e-04
 -2.0602997e-03
 -1.4756959e-04
  2.2835795e-04
  4.5454272e-04
 -5.2505424e-05
 -7.0817920e-04
 -4.9024558e-05
 -2.5319093e-04
  7.2214322e-04
 -8.4795797e-04
  4.5037898e-04
 -4.4358836e-05
  2.8739526e-04
 -5.4049224e-04
 -1.8381004e-04
 -4.5591209e-04
  1.9431533e-04
 -1.9673235e-03
  2.0030065e-04
 -4.8509493e-05
  2.8955902e-04
  5.1510986e-04
 -4.0621933e-04
  5.3254620e-04
  1.1076763e-02
  6.4004317e-04
  2.6163075e-04
  1.3038435e-03
  6.5723411e-04
 -9.2554453e-04
  1.2310593e-04
 -9.0218364e-04
 -5.7236350e-04
  2.0481687e-04
  1.8936871e-04
 -4.2541468e-04
 -1.3768778e-04
  7.5929071e-05
 -6.0561608e-04
 -8.5309247e-04
 -2.5095856e-03
  1.5593236e-05
  1.2921301e-02
 -1.6200070e+00
 -5.8420992e-04
 -1.0752915e-03
 -5.3873513e-04
 -6.8260699e-05
 -1.0637878e-03
 -4.0177518e-05
  1.1010462e-03
  2.3198192e-04
  1.6099812e-03
  1.1870055e-03
  2.6550663e-03
 -1.3259311e-04
 -1.8862353e-05
  8.2263083e-04
  3.8946833e-04
  7.3819095e-04
  9.6830411e-04
  6.1333785e-04
  2.0204316e-06
  1.1288611e-03
  4.8883503e-05
  7.4946118e-05
  6.5108255e-04
 -1.3941297e-03
 -5.5749912e-04
  4.4498537e-04
 -9.2415919e-04
  1.0428274e-05
 -6.8213936e-05
 -4.8451457e-04
  6.2164414e-04
  8.8100601e-04
  5.7969731e-04
  4.1989569e-04
 -3.2912812e-04
 -8.0861972e-04
 -3.1578174e-04
 -2.0379057e-04
  7.3962181e-04
  2.0727040e-03
  1.0875418e-04
 -1.2240528e-04
  5.2668923e-04
  1.6094927e-03
  4.8774667e-04
 -2.8058543e-04
 -1.9961628e-04
  7.1162247e-04
  2.3575535e-04
  7.8595389e-05
 -3.5638887e-02
 -4.0268198e-01
  6.3320369e-02
 -1.4112468e-04
  2.4422401e-04
  3.2264658e-04
 -2.4087597e-03
  1.6836873e-03
 -3.9871829e-04
  2.0105733e-01
 -2.4349655e-03
 -6.6349673e-04
  1.1591262e-03
 -3.4990962e-04
  6.4572995e-04
 -6.1169034e-05
  7.9209552e-05
 -1.8288431e-03
 -1.6708511e-04
  6.6231070e-05
  3.4702243e-04
 -1.3671715e-04
 -7.7515061e-04
 -2.5393808e-04
 -1.3694057e-03
 -5.0064416e-05
  7.4646296e-04
 -9.8461831e-05
  2.2492195e-03
  5.5387023e-05
 -3.9264042e-04
 -1.4490247e-03
  1.3277613e-03
  1.2042812e-03
 -2.9077733e-04
 -3.7158854e-05
  1.9166546e-06
  4.4167985e-04
 -8.6125429e-04
  1.0146102e-04
  3.2150140e-04
 -5.8964180e-04
  4.9854338e-04
  3.7066304e-04
 -1.0013739e-03
 -9.3813229e-04
  1.5905823e-03
 -1.8431093e-03
  5.4572197e-04
 -2.9425230e-04
  6.7725964e-04
  2.0056043e-05
 -6.2614388e-04
  1.4362424e-03
 -2.1308634e-01
  2.8122598e-01
  1.1195266e-04
 -1.8950916e-04
  6.5451100e-02
  1.4896572e-03
 -5.1230832e-04
 -5.3640906e-05
 -1.3467660e-03
 -1.6084228e-04
  6.9059533e-06
  1.1435462e-04
 -6.5356278e-04
 -1.7810776e-03
  9.8840566e-04
  6.7952074e-05
 -2.5740502e-04
 -7.8189140e-04
 -4.0993694e-04
 -7.9419301e-04
 -9.6616475e-04
 -8.4952038e-04
 -7.5588358e-04
 -8.2765837e-05
  2.2505326e-04
  2.0197165e-04
 -6.6381623e-04
  9.2253787e-04
  1.0084180e-03
  9.2130940e-04
 -9.0495584e-04
  5.0970004e-05
  1.5292857e-03
 -1.6859428e-04
  2.1169317e-04
 -3.1262427e-04
 -1.1525207e-03
  3.2213407e-05
  8.4514217e-04
 -2.3801990e-04
  1.3002387e-04
 -7.6076348e-04
  9.3599153e-04
  3.8647782e-03
  1.4052552e-03
 -2.5614092e-04
 -1.5044046e-04
 -3.9704671e-04
 -5.6754542e-04
  4.8155343e-04
  2.3646864e-04
 -2.6931614e-04
  5.2575895e-04
  2.3946333e-04
 -1.7131306e-04
 -2.8377579e-04
 -5.5968878e-03
  9.9815108e-05
 -6.7796267e-04
 -3.0767772e-04
  2.6724155e-03
 -1.1336336e-04
  1.0982908e-03
  3.7280371e-04
 -4.8443978e-04
  3.5743287e-01
 -5.9840400e-05
 -1.6091556e-04
 -7.7601704e-05
  8.5127784e-04
 -5.1619241e-04
 -2.4862762e-04
 -2.3395615e-04
 -1.8216539e-04
 -2.4965807e-04
  1.9394080e-04
 -1.9501019e-04
  1.1514169e-04
  4.7654810e-04
  9.8770496e-04
 -7.5275626e-04
 -1.2088630e-03
  4.4172921e-05
 -8.4248406e-04
 -3.7356021e-04
 -9.8568632e-04
  9.1184175e-04
  1.1756214e-03
 -1.9598118e-04
  2.4812063e-04
 -4.0992023e-04
  3.1422111e-04
  5.2432524e-04
 -6.5743057e-05
  3.1157495e-05
 -3.1180499e-04
 -4.9511850e-04
 -2.0622544e-03
  2.0983715e-04
 -3.3480552e-04
 -1.0318536e-03
 -8.9817500e-04
 -1.5534431e-04
 -4.2964605e-04
  1.6754663e-04
 -2.6354427e-04
 -7.0627034e-04
 -2.1872424e-02
  1.4014477e-03
 -4.5951252e-04
  8.6405053e-05
 -3.9527717e-04
 -1.0301381e-03
 -1.0752257e-04
  2.6796418e-04
 -6.0330535e-04
 -1.5497874e-04
 -5.9893733e-04
  8.9780602e-05
  6.6814153e-04
  6.2754587e-04
 -1.1396160e-03
  2.8836995e-04
  1.2483746e-03
 -3.4844462e-04
 -3.4853384e-02
 -5.5188168e-05
 -3.2644390e-04
 -3.8761686e-04
  1.3485801e-04
 -1.8492655e-03
  7.8513467e-04
 -1.2348130e-04
 -4.7518834e-04
 -5.8755872e-04
  1.4961805e-04
 -9.0838736e-04
  3.5555651e-05
 -1.8092716e-04
 -4.8815037e-04
  1.0275310e-04
  2.7644714e-05
  1.5920791e-03
  1.8130364e-03
 -3.0434376e-04
 -1.8115066e-03
  1.3300146e-04
 -6.7433393e-05
 -1.0986337e-04
  2.1043868e-04
 -2.8791401e-04
  9.3757221e-04
 -3.8641971e-05
  2.4339394e-04
  1.2976518e-03
  6.8830379e-04
  6.8302569e-04
 -1.6858038e-03
 -7.0468610e-04
 -2.4816359e-04
  5.1547034e-04
 -1.0107207e-04
 -5.2816693e-02
  4.2083644e-04
  6.3297995e-03
 -2.5040406e-04
  3.9633676e-05
  4.7408446e-04
  1.7805545e-01
 -2.1134256e-04
  7.1554765e-04
  1.2917721e-03
  1.8557909e-04
  3.9579976e-01
  8.5237466e-02
  1.4688708e-04
 -7.8088095e-05
  9.3451657e-05
 -2.2538223e-04
  1.8743100e-04
  2.6577248e-04
 -4.9127417e-04
  3.9245430e-01
 -8.1275541e-01
  6.8729592e-04
  1.1827811e-03
 -2.8628783e-04
 -1.8032618e-04
 -4.8157029e-04
 -9.1981626e-04
  1.2615278e-04
  2.7086167e-03
  2.4720167e-01
 -1.9753896e-01
  2.0554934e-01
 -1.4076096e-01
  2.5373951e-01
 -2.5743025e-04
  3.7867504e-01
 -5.2970229e-04
 -6.0565721e-02
  4.2483687e-01
 -5.7730200e-03
  6.9867694e-01
  8.6372578e-01
 -6.0329676e-02
  1.2281205e-01
  9.9785684e-04
  4.8839111e-02
  9.5584132e-03
 -8.0794294e-04
 -1.9000182e-01
  1.8042220e+00
  5.9257841e-01
 -1.2658568e-04
 -4.3463549e-03
 -1.3382958e-01
 -1.8993713e-01
 -1.0273193e-01
  4.7645154e-03
  4.5883775e-02
 -5.2748656e-01
 -2.2612207e-01
  3.8216302e-01
 -1.3015774e-01
  3.7010562e-01
  1.9120657e+00
  3.9101431e-01
 -1.1311126e+00
 -2.7678683e-01
 -2.8281374e-04
 -3.5733075e-04
 -2.8245941e-01
 -1.7882073e-03
  9.8108556e-03
 -9.3652856e-01
  2.4936277e-02
 -4.2884219e-01
  2.6344198e-01
  6.8769433e-02
 -5.5056190e-01
  3.0299219e-01
  1.5892349e-01
  4.2742401e-01
 -5.5240577e-01
 -3.5450304e-01
 -5.6015319e-01
  2.5938645e-03
 -2.5257948e-01
 -1.4129436e-01
  9.5171675e-02
  7.7084623e-02
  3.0822211e-03
  1.3261893e-01
 -6.5076366e-02
 -4.8711721e-04
  1.3300972e-01
  1.5797557e+00
  1.2695375e-01
 -4.2584279e-01
  1.4106663e-01
  2.0556113e-01
  5.4540169e-01
 -1.0875845e-01
  7.8728989e-02
  2.8293854e-02
 -4.1445026e-05
 -3.8505259e-01
 -1.8871249e-01
 -4.3484533e-01
 -4.1364887e-04
 -1.1497455e-02
  1.4584683e-01
 -2.5647408e-03
 -3.6018576e-02
  3.4103624e-04
 -3.8118011e-04
 -1.7959269e-04
  1.0749617e-03
 -4.5592715e-05
  1.1581170e-03
  3.5839831e-04
 -2.4073286e-04
 -9.8328164e-04
  2.0402691e-03
 -7.3175768e-05
 -6.7140936e-05
  8.2493376e-04
  8.3831663e-05
 -2.4464302e-04
 -2.8498692e-04
 -5.2062888e-04
  3.8702102e-04
  8.7529770e-04
  1.0380060e-04
  1.7865121e-04
  4.9658556e-04
  8.2157151e-04
 -1.9073152e-04
  9.7429630e-04
 -2.5712332e-04
 -3.3991243e-04
  2.1816733e-04
 -6.6294582e-05
  8.0843369e-04
  4.4587930e-04
 -8.1833237e-04
  3.2219070e-04
 -3.4365981e-04
  3.8160206e-04
 -2.6573709e-04
  3.4386094e-04
  1.7938069e-04
 -1.2926722e-03
  3.0307486e-04
 -4.9170014e-04
 -3.9596559e-04
 -4.1248708e-04
 -6.5648195e-04
  3.2957632e-04
 -1.7586359e-03
 -4.7911576e-04
  2.3921704e-04
 -4.2772255e-04
 -3.8193585e-04
 -9.7063399e-05
 -5.5270000e-05
 -5.4922083e-04
 -9.1482012e-04
 -1.0466742e-03
  8.3236713e-03
  4.3891802e-02
  6.4589764e-04
  1.8478773e-03
  1.2672920e-04
 -5.8041979e-04
 -4.4938993e-02
 -1.0954342e-04
 -1.2175483e-02
 -4.5955773e-03
 -2.3781249e-01
 -9.5766215e-03
 -1.3347446e-03
  1.3390584e-03
  8.6335751e-04
 -1.8872200e-03
 -1.0338024e-02
  4.6820031e-04
 -1.2487122e-04
  6.5156980e-04
  2.2334645e-04
 -7.0722890e-05
  8.3686978e-02
 -1.2110637e-04
  1.1511750e-03
 -2.8692454e-02
 -2.4641978e-04
  8.7555116e-03
 -3.7350636e-02
  6.8199652e-04
 -1.4742406e-03
  4.3157771e-02
 -1.4378020e-06
 -2.9225857e-04
 -2.7530052e-05
 -2.6810901e-02
 -5.1761384e-04
 -6.7739993e-02
 -3.8143768e-05
 -6.7444337e-03
 -2.7385430e-04
  6.0746144e-03
 -1.2133768e-03
 -1.7088163e-01
 -3.3745897e-04
  7.2716558e-03
 -2.7022985e-04
 -1.6271545e-03
 -5.9745318e-05
  2.5370922e-03
 -3.4141951e-05
 -3.5006180e-04
 -2.6451412e-04
  5.9373587e-02
  4.1747159e-01
  7.2403230e-02
  1.5480608e-01
 -1.0590934e+00
  3.9230338e-01
  9.3907133e-02
  2.2127955e-01
 -1.5779762e-01
 -3.6685023e-01
 -2.8193161e-01
  3.3192217e-01
 -2.9061022e-04
 -3.5401615e-03
  5.4939803e-02
  6.6106141e-02
 -1.9069910e-01
  1.5180247e-02
 -6.3249952e-01
  4.0038317e-02
  1.6015552e-01
 -4.1902882e-01
 -8.8313389e-01
 -2.0370786e-01
 -3.5554633e-01
 -2.0878151e-01
 -1.6609171e-01
  1.1588833e-01
 -3.3008340e-01
 -2.1572050e-01
 -1.4315207e-02
 -7.8923029e-01
 -3.9429924e-01
  6.1058782e-02
  2.2494359e-04
 -5.2051467e-01
 -3.6746621e-01
 -1.0761604e-01
 -1.1439326e+00
  8.8283410e-03
 -1.6509518e-01
  6.8635866e-02
  5.9897957e-07
 -4.2286876e-01
  3.9909577e-01
  2.7058434e-01
  1.4881916e-01
  4.3833464e-01
 -2.2835049e-03
 -2.7982812e-02
 -2.3986553e-03
  8.0117607e-06
  1.7545678e-03
  6.0722663e-04
 -6.7221967e-04
 -1.5684869e-04
  2.1686805e-04
 -4.9521572e-05
  6.4267468e-04
 -1.4039157e-01
 -7.2202238e-05
  3.5602285e-04
 -4.2078691e-04
  4.7141025e-04
  3.1793740e-04
 -1.9672592e-03
 -2.1431377e-05
  1.8887159e-03
  1.6147881e-03
 -2.2086897e-06
  6.1813230e-04
  9.2888695e-05
  7.2233792e-04
 -1.3815827e-04
 -3.0019966e-05
  9.7254888e-05
 -6.8884715e-04
  9.4048050e-04
 -6.1896142e-05
 -1.7667585e-04
 -1.5298588e-03
  2.5798872e-06
  1.7253045e-02
  2.4536750e-04
 -5.4193917e-04
  2.4631555e-04
 -4.0930725e-04
  1.2310731e-03
  2.0914020e-03
 -2.7314806e-04
  2.1311322e-03
  3.4460437e-04
 -9.9773883e-05
  2.7493767e-03
 -6.5562408e-04
 -4.4637825e-04
  7.2662882e-04
  2.5220595e-03
 -2.8140566e-03
 -3.9451412e-04
 -5.0477436e-05
 -2.9495481e-04
  1.0014235e-03
  3.6737671e-05
 -4.6333356e-04
 -4.9766015e-05
  4.2289172e-04
  1.2611307e-04
 -1.3159582e-03
  3.4734134e-05
 -6.4229849e-04
 -3.0511577e-04
  8.3276443e-04
 -6.7889072e-05
 -4.6651554e-04
 -1.7720759e-04
  6.0048966e-05
  9.8182929e-05
  7.7762455e-04
  1.0816129e-03
  3.6413697e-04
  2.9433626e-04
 -3.7857841e-05
  1.1126071e-04
 -2.9730891e-06
  4.8953458e-04
 -7.5545383e-04
  4.7572886e-04
  1.2991863e-03
  6.4474589e-05
  8.0141722e-04
 -1.3777078e-04
  1.1730594e-04
 -7.4341358e-04
 -1.6938300e-03
  1.4586464e-04
 -7.7609310e-04
 -5.9186120e-04
  4.1901885e-04
 -2.3036040e-04
  1.4928551e-04
 -4.3935072e-01
 -2.0853209e-04
  5.0286268e-04
 -1.2155236e-04
 -2.6827483e-04
 -1.1697422e-03
 -5.9335609e-04
  5.7274534e-04
 -5.4021593e-04
 -1.7150729e-04
  5.6539534e-04
  6.9344125e-05
 -4.0811664e-04
 -1.7823696e-03
  7.4014242e-04
 -2.1330168e-05
 -1.6122132e-04
 -7.6894074e-05
 -7.9712493e-04
  1.2787674e-03
 -2.9490769e-04
  3.7657304e-04
  2.0905986e-04
  1.7046730e-04
 -4.6103768e-04
 -6.7520462e-04
  3.9395608e-04
  2.0843057e-04
  1.3021976e-03
 -1.9373716e-04
 -1.5333951e-03
 -4.5542917e-04
  1.0200397e-03
  5.7483092e-04
  2.3038025e-04
  3.6729171e-04
 -8.4610959e-04
  3.0592468e-04
 -9.3055452e-05
 -2.5731913e-04
 -7.1142276e-04
 -2.1933010e-04
 -2.3785178e-04
 -6.2207691e-04
  2.9112256e-05
 -6.2943919e-04
  2.1927769e-04
  3.1218899e-03
  2.7248531e-04
 -8.6331107e-05
  1.8137004e-04
 -7.2519659e-05
  4.1460476e-04
 -1.1797989e-03
 -1.6905568e-04
 -1.4339967e-04
 -1.6066940e-04
  3.1809034e-04
  5.2534277e-05
 -5.8808884e-05
  2.0266408e-03
 -8.4249186e-06
 -3.1353169e-04
  9.0615045e-05
  2.9419200e-04
  2.3870476e-04
 -6.5703061e-04
  2.2519860e-04
 -1.2917147e-03
  5.4206001e-04
 -1.1212955e-04
 -1.0105459e-03
  2.0453313e-05
 -1.3677487e-03
 -5.2430626e-04
  3.7666693e-02
 -3.3968461e-01
 -1.2999637e+00
 -1.8653166e-01
  1.5483396e-01
  1.1767600e+00
  4.8132771e-01
 -2.2520362e-01
  1.0592746e-01
  7.9203928e-01
  1.2881351e-01
 -2.0261717e+00
  1.2286831e+00
  9.6237108e-02
  2.3081849e-04
 -8.2689124e-01
  7.7714187e-01
  1.1568564e+00
 -2.9476921e-03
  2.6214213e+00
  3.2144095e-04
 -1.6313720e-01
 -2.2956194e-02
 -7.9918154e-02
  4.9721619e-01
 -3.4103692e-02
  1.4596219e+00
 -1.5572574e+00
  3.8499676e-02
  5.8263314e-01
  8.2891482e-01
  7.6777941e-01
 -6.6603744e-01
 -1.4136894e+00
  1.0001407e+00
  3.0280730e-01
 -6.7902827e-01
 -6.9672383e-02
  1.0103884e+00
  5.5792395e-02
  1.5824574e+00
  1.2470181e+00
 -3.7028708e-02
  9.4293602e-02
 -1.3927768e-01
 -1.5591034e-01
 -1.0044057e+00
 -5.7471283e-02
 -1.8216124e-01
 -1.3178965e-01
  9.9371187e-02
  2.5069318e-03
 -9.2449883e-04
 -4.0831633e-02
 -2.1200860e+00
 -3.7129100e-02
  9.2809689e-01
  5.0447977e-01
  2.6208892e-01
  1.5581740e-01
 -2.6158515e-01
  1.8438798e+00
  2.5550613e-01
 -7.1348073e-03
 -4.4261434e-04
  9.1369253e-01
 -5.9924483e-01
 -1.6422407e-03
 -7.2012567e-03
  1.9477571e+00
 -4.7085762e-01
  5.0107855e-01
 -3.8042339e-04
  3.2776675e-01
 -6.2223226e-02
  1.0451458e+00
 -7.7093042e-02
 -3.3876380e-01
 -1.1401401e+00
 -2.8714788e-01
 -1.8571651e+00
 -5.3077545e-02
  1.4081526e+00
  2.6007050e-03
 -1.7210902e-01
 -3.4678557e-03
  9.9427646e-01
  1.1327178e+00
 -3.4724153e-04
 -6.9331282e-01
 -3.3244138e+00
  1.2896793e-01
 -4.0538184e-02
 -1.1914828e-01
 -6.9335377e-01
  4.0282998e-02
  1.9188618e-04
  4.6355245e-04
 -8.1152070e-01
 -2.6628040e-04
 -4.8734096e-04
  1.2461444e-03
 -9.9373758e-02
 -9.6915799e-05
  2.1741040e-01
  1.6701071e-02
 -2.2803810e-03
  4.9786684e-01
 -7.9219753e-04
  8.9596503e-04
 -2.8768405e-03
 -2.8068552e-04
 -2.6652566e-03
 -8.4051874e-04
  2.6168197e-04
  2.3424081e-04
 -1.5272498e-04
  2.7140827e-04
 -3.4424243e-05
  8.1643916e-04
 -3.4379463e-03
 -9.3225861e-04
  5.8606942e-04
  6.4136984e-05
 -4.5311800e-04
 -9.0964983e-04
 -2.0361936e-03
 -4.4465347e-04
  9.8530797e-04
  2.8282902e-04
  4.4437253e-04
  2.4016130e-04
  7.8450970e-04
 -2.8029934e-04
  2.3834842e-04
 -9.8390046e-06
 -1.4164062e-03
 -1.6626694e-03
 -3.4806156e-04
  4.3453363e-04
  9.4678340e-05
  1.9665607e-04
 -1.0879200e-03
 -1.0827007e-03
 -5.3816568e-04
 -3.4690258e-04
 -8.3721889e-04
 -1.9182112e-04
 -2.1849244e-04
  3.1518916e-04
 -9.3670329e-05
 -1.2568987e-04
  1.6018996e-05
  9.0224557e-02
  3.9808251e-04
  4.9009430e-04
 -1.0213203e-04
  1.6929636e-04
  7.4743148e-04
  1.0345136e-03
 -6.8216317e-04
 -1.5656267e-03
 -4.0013352e-01
  2.3188221e-03
 -4.6858349e-01
 -5.8532075e-04
 -2.4841009e-03
  4.7391725e-01
 -1.0930755e-03
  4.3631366e-01
  7.0501424e-05
 -2.1106070e-03
 -1.1283015e-03
 -2.7130714e-01
 -1.5438257e-02
  1.7361564e-04
 -1.1876984e-03
 -3.8095197e-04
  3.6225547e-04
 -4.8603542e-02
 -8.0591135e-02
 -4.3713935e-03
 -4.3333811e-01
  2.9016453e-01
 -1.9079684e-01
  1.5261196e-01
  6.6528562e-05
  1.3856834e-03
 -1.7293069e-03
 -6.1710227e-01
 -1.5466189e-04
 -2.0318036e-01
  1.9447137e-01
 -4.2906217e-04
  4.0492296e-01
  1.2811228e-04
 -1.6726070e-04
  1.2722395e-04
 -1.9011328e-05
  9.8669040e-04
  5.9394054e-03
 -1.5085322e-03
 -4.8021752e-02
  1.8749406e-04
  1.5477424e-03
  5.3534418e-04
 -1.7906398e-01
  1.8519670e-03
 -1.0994769e-04
  2.0342035e-05
 -8.7616080e-03
 -1.6258811e-03
  5.0692877e-04
 -1.5016530e-03
  1.5774388e-03
  2.0767651e-04
 -9.9232405e-02
 -4.2183153e-04
  1.3511078e-04
  2.5487905e-02
  1.2326282e-03
 -5.2693335e-04
 -4.3335452e-04
 -2.7276267e-04
 -3.1122172e-04
  1.1068438e-03
 -1.4040853e-04
  1.4559231e-03
  6.4974732e-04
  1.1340101e-03
 -6.4477108e-02
 -1.0505480e-03
  1.0248035e-04
  7.5565797e-05
 -3.4287153e-04
 -5.1522965e-04
 -3.1183656e-05
 -1.6550934e-03
 -6.6671404e-04
  6.5477367e-04
  2.6864297e-04
 -5.6773331e-04
 -1.3804604e-01
 -1.0816264e-05
 -8.1947466e-05
  2.5484728e-04
 -1.0883928e-03
  1.5880906e-03
  3.4710264e-04
  6.2514329e-04
 -4.0437846e-04
 -1.3219391e-03
 -7.4830599e-04
  7.2505907e-04
 -1.1252288e-03
 -9.5823052e-04
  1.7500632e-04
 -7.1686070e-04
  5.5827637e-04
 -1.9267426e-03
  1.4348031e-04
 -6.1473041e-04
 -1.0613599e-03
 -8.3310675e-04
 -6.5045126e-05
  1.0478727e-03
  8.4275054e-04
  1.4572091e-03
  1.2561394e-03
  5.2905874e-04
  2.6927620e-01
 -2.9384622e-01
  8.0576271e-01
  5.3147757e-01
  6.5530074e-01
 -2.6692542e-01
  7.6408195e-01
  1.1944654e+00
  2.6215347e-02
  2.7933469e-01
  3.2544941e-01
 -2.2523481e-01
 -5.7968817e-04
  2.0630442e-01
  1.5899512e-01
  7.3111109e-02
  4.0687296e-01
  7.8081763e-01
  1.0921520e-02
 -3.7655571e-01
 -7.4779446e-04
  8.8439300e-04
 -1.7549637e-01
 -4.4991875e-01
  9.9128566e-04
  2.6757222e-02
  9.5257086e-01
 -9.8345116e-02
 -1.4398729e-02
 -1.9984621e-01
 -1.7621164e-01
  7.2842515e-03
  4.9327843e-02
  4.9081346e-01
  4.3943644e-01
  1.1035204e-03
 -8.9410657e-01
 -6.8089116e-01
 -5.7875925e-01
 -5.5807699e-02
  1.1339265e+00
 -1.0010462e-01
 -1.2913258e-01
  1.1711828e-04
 -2.8172916e-01
 -5.2780855e-01
 -1.5939423e-01
  1.5907186e-05
 -1.3437535e-01
 -1.7741781e-02
  1.8882824e-01
  5.7898190e-02
 -7.1938086e-04
 -4.8970417e-03
  1.1004487e-02
  1.3844590e-03
 -1.7203254e-04
  4.6017644e-04
 -7.6951284e-04
  6.8761146e-04
  1.1540975e-03
  1.6277531e-04
  2.2286273e-05
 -4.7248628e-04
 -2.1592423e-04
 -6.3557277e-04
 -4.1540526e-04
  1.0287080e-02
 -5.4695649e-04
 -2.7024469e-04
  1.5824045e-03
  5.1428389e-04
  1.0602077e-03
 -1.0040777e-03
  5.1812682e-04
 -9.0758642e-04
  3.5943836e-04
  3.4379208e-04
 -6.1927526e-04
 -2.2066805e-04
  1.4632889e-04
 -6.2276563e-04
  4.8675633e-04
  5.8836699e-04
 -1.4024631e-04
  7.6064782e-04
 -3.6136084e-04
  5.4512633e-04
 -7.1426330e-06
 -1.6309162e-04
 -1.2627516e-03
 -1.1696635e-03
 -9.5713083e-05
 -1.8864064e-04
  1.3856207e-04
  5.9315603e-04
 -1.1800653e-03
 -2.1666984e-04
  4.9981481e-04
  3.2603362e-05
  9.3198876e-05
  1.5041301e-03
  1.9928934e-04
 -6.9352146e-04
  1.6676927e-03
 -2.7717152e-03
  3.6875883e-04
  4.6560966e-04
  1.4645100e+00
 -1.4996800e+00
  9.3669754e-01
  1.6186002e+00
  4.8108524e-01
 -1.6757065e-01
  1.7603848e+00
  7.1953225e-01
  3.1768805e-01
 -6.9705285e-02
 -1.4983381e+00
  5.9259485e-02
 -3.2015911e-01
 -1.7955644e-01
 -1.4628389e-01
 -2.3816774e-02
  2.6861632e-01
 -1.0665586e+00
  4.9964961e-01
 -4.0025544e-01
  2.1531224e-01
  7.6797885e-01
 -3.5916334e-01
 -1.4352915e-01
  2.0362340e-02
  1.8655439e-01
 -3.5306949e-02
  5.0139147e-01
  7.4671608e-01
  3.5248542e-01
 -2.2464335e-01
  1.1651215e-01
 -6.1884362e-02
 -6.9566287e-02
 -7.3725551e-02
  1.2416156e-01
 -1.1035075e+00
  1.1832923e-01
  3.0178387e-02
 -6.7012519e-01
 -1.6729800e-01
 -5.3770751e-01
  1.2918298e-01
  2.8468217e-03
  8.2723767e-01
  1.5602027e-01
  2.9797453e-01
 -2.0692464e-02
 -8.0608591e-02
  3.8329920e-01
  7.1936625e-01
 -2.7695525e-01
  2.2555679e-01
  4.8714546e-03
 -2.6677570e-03
 -3.8178702e-04
  3.5339166e-04
  6.6688808e-04
 -3.9767189e-04
 -1.2979639e-05
 -6.6274893e-05
 -1.6517888e-03
 -4.7384325e-04
 -1.0080272e-02
  5.0375785e-04
  5.9809012e-04
  7.8734057e-04
 -9.6671551e-04
 -7.0779514e-04
  2.3647955e-04
  6.3524168e-04
 -5.6216842e-05
  6.3404738e-04
  3.1619999e-04
  5.1995472e-04
  5.9637940e-04
 -1.7091219e-04
  2.8224194e-03
 -1.3587485e-03
  3.6492696e-04
  4.6517880e-04
 -4.5896691e-04
  4.4190776e-04
  4.2753643e-04
  1.0278597e-03
 -1.6495760e-06
  5.1253190e-04
 -8.1691740e-04
 -1.7453620e-04
  5.5087020e-04
 -3.5719472e-04
  1.1164469e-03
  2.0029309e-04
 -6.9810019e-05
 -1.0062068e-03
 -3.6656859e-04
 -1.9300709e-04
  4.0733354e-04
  5.0414487e-04
  7.5682806e-04
  2.2812816e-03
  7.2055619e-04
  2.0907079e-03
 -6.5059547e-04
  1.3236146e-03
  3.8753566e-04
 -3.6218553e-04
  6.8772220e-05
  7.7493198e-04
 -5.0611654e-04
  6.2133942e-04
  3.5046393e-04
 -2.7870381e-04
  1.3978744e-03
 -6.5075327e-04
  1.5634228e-05
  7.0801785e-04
 -8.4208645e-04
 -6.3680002e-04
 -8.2108815e-04
  1.0108711e-03
 -2.7839848e-04
 -2.8101960e-04
  8.5539483e-05
 -5.7512370e-04
 -4.0263252e-04
 -2.9526253e+00
 -1.3661927e-03
  9.5113571e-04
 -1.0305665e-02
  1.1450541e-03
 -1.4152518e-04
  4.5786140e-04
 -1.2763690e-04
 -3.4539829e-04
  4.3079512e-05
 -6.9692481e-04
 -3.0246269e-05
 -4.1671831e-04
  5.0557719e-04
  4.5525267e-05
 -7.3225514e-05
  1.2318723e-04
  5.6586368e-04
  1.6793353e-03
 -2.0493381e-03
 -2.0929459e-03
 -7.4752618e-04
 -1.0276374e-03
 -1.7842988e-03
 -8.7431649e-04
  5.8078376e-04
  5.8444268e-05
  5.6380971e-04
  1.6928581e-04
  3.7629786e-04
 -7.7847607e-04
 -2.6389994e-04
 -7.4968312e-04
 -1.0833577e-03
 -1.2910285e-05
  2.7855809e-04
  1.3793114e-03
  4.7523217e-04
  7.2114519e-04
  3.7254527e-04
 -7.1258843e-04
 -9.3094260e-04
  1.0076934e-04
  3.6448849e-04
  2.7130070e-04
 -6.8533589e-04
 -2.7033960e-04
  1.5384408e-04
 -8.1915932e-05
  1.4898643e-03
 -3.7444342e-04
  9.1027614e-04
 -7.7851221e-04
 -2.0250462e-03
 -1.0380225e-03
  3.6751087e-05
  5.8254227e-07
  1.4411690e-04
 -6.8011868e-04
  9.1204781e-04
 -1.6063795e-04
  1.2348894e-03
 -2.5824175e-04
 -1.1054426e-03
  1.0142452e-03
 -1.6582462e-04
 -4.5132459e-04
  2.5251520e-05
 -1.0183627e-03
 -2.0658951e-04
  1.3282571e-03
 -1.9766873e-04
 -4.0783433e-04
  1.9447812e-03
 -1.3914652e-04
 -4.7521814e-04
 -4.8315141e-04
  6.1309693e-06
  3.7125216e-04
  9.4029201e-05
  6.8584201e-04
 -1.5320043e-03
 -9.2368969e-04
  9.1096314e-05
  3.4919076e-04
  1.0167029e-03
  4.1244226e-04
 -7.9296925e-04
 -8.9431106e-04
  3.2345750e-04
  9.4272219e-02
  3.2367313e-04
  4.9101073e-02
 -6.4141721e-02
  3.5253331e-01
 -4.1482471e-02
 -1.4030932e-01
  3.0795299e-02
  5.9870672e-03
 -1.1712983e-02
 -1.3853249e-03
 -5.4720229e-01
 -2.0840632e-04
 -1.3184325e-03
  2.6440460e-03
 -9.3234546e-04
  1.4861184e-04
 -3.7923130e-01
  3.5021806e-04
 -2.2748427e-03
 -1.1000352e-01
  4.3060305e-03
  1.3846080e-01
  1.0434002e-01
  1.3872760e-04
  2.6490394e-04
 -2.7917954e-03
  1.2019933e-04
  9.0459076e-04
 -2.9808691e-02
  1.8728153e-01
 -2.5435351e-03
  1.5388638e-01
 -4.0776699e-04
 -2.8142303e-01
  2.1985483e-03
  3.7385140e-02
 -5.1713089e-04
  1.6135542e-01
 -2.8666732e-04
 -3.5833642e-02
 -8.6973363e-04
  9.3034776e-03
  8.8694465e-04
 -1.7484683e-01
 -1.8320246e-04
 -3.8785901e-04
  9.2318462e-04
 -1.1638214e-01
  4.7781982e-04
  1.0421681e-01
 -1.3500902e-04
  1.2308504e-03
  1.7856642e-03
 -1.9368445e-04
  3.1917871e-04
 -2.0340609e-04
 -5.0884006e-05
 -1.1305941e-03
 -6.5060164e-04
  6.7072926e-04
  2.7655503e-03
  1.3986034e-03
  6.0549592e-05
  6.9535381e-05
 -1.0103867e-04
 -8.7648834e-05
  6.8912079e-05
  5.6022470e-04
 -2.3530550e-04
  3.1043927e-04
 -1.9333331e-04
  6.2338193e-04
 -1.6101671e-04
  1.2656473e-04
  9.4784133e-05
  1.4349194e-04
 -1.1263441e-03
 -5.5765960e-04
 -1.7604969e-03
  1.5208338e-05
 -6.5731438e-05
 -1.3159306e-04
  6.0589467e-05
 -3.9081956e-04
 -1.1731640e-03
  1.3405309e-04
 -7.4548041e-04
  1.0301738e-04
 -2.3622903e-04
 -3.6507941e-04
  1.3597400e-03
  1.2069925e-02
  5.7933899e-04
  1.0022200e-03
  3.2300007e-04
  4.4072389e-05
 -2.8886495e-04
  8.4028306e-04
  3.7565423e-04
  4.2322234e-04
 -5.7602808e-04
  4.1192706e-04
  1.1317066e-03
  6.6289038e-04
 -3.2370567e-04
  1.0615458e-03
 -3.2043326e-04
  7.5760055e-03
 -8.7597576e-04
  4.5327103e-01
  7.1285998e-05
 -4.1843049e-04
  1.9759777e-01
 -5.0662819e-04
 -5.9622002e-01
  5.2843936e-04
  2.9259229e-03
  8.4908295e-04
  7.0331946e-02
 -1.2037393e-04
 -2.4602257e-04
  1.0647492e-03
  6.4723060e-04
  4.3352332e-04
  1.1981967e-03
 -4.2632170e-04
 -4.0419726e-04
  8.0918195e-04
 -3.1922525e-04
  4.1467767e-02
  6.1205361e-04
  5.9096247e-04
  9.6379415e-05
  1.1843073e-02
 -1.6689589e-04
 -2.3354616e-02
  2.4961677e-01
 -4.5717493e-04
 -8.4157055e-04
 -9.3184553e-02
  4.8142028e-06
 -1.7844284e-05
 -5.0918467e-02
  1.1754723e-03
  5.3139671e-04
  8.5897109e-04
 -2.5519295e-02
  3.7819496e-03
 -9.5494179e-06
 -3.6630940e-03
 -5.1044021e-04
  6.0828548e-02
 -1.8805409e-03
 -9.7485294e-04
  3.5537907e-04
  3.3592170e-03
  1.0796500e-03
 -2.5780863e-01
 -1.1813048e-03
  4.3628027e-04
  1.7515753e-04
 -5.3031367e-01
 -9.6840382e-02
  1.8306082e-01
  7.5164072e-02
  1.4357182e-01
 -1.3269328e-01
  9.0945335e-03
  7.8564763e-01
 -1.0080929e-01
 -5.7167863e-04
  3.8645676e-04
 -3.0043039e-01
  1.3156153e-03
  6.5430708e-02
  2.2476879e-01
 -1.1025920e+00
  2.2288293e-04
 -4.5311771e-02
 -4.3349713e-02
 -2.5339821e-01
 -6.0841924e-01
  3.8909722e-02
  2.8940284e-01
  6.2502973e-02
  8.4138969e-03
  1.3484375e-03
  2.6416755e-04
 -2.1678692e-01
 -3.8121007e-02
 -6.7051083e-01
  9.0550408e-02
 -6.2445672e-03
  4.7125885e-01
 -9.6825218e-01
 -1.1889847e-01
 -5.9036946e-01
  4.8313624e-01
  7.7928685e-02
  5.0320760e-03
 -1.4123142e-03
 -2.4770267e-01
  7.8694094e-03
  1.8402870e-01
 -2.1715900e-02
 -1.5234697e-01
  1.8103927e-04
  1.2491939e-03
  9.2383445e-04
 -2.8244439e-01
 -2.8669054e-04
  1.0508329e-04
 -3.5086706e-01
  5.8170022e-03
  1.1476483e-03
 -1.9819222e-01
 -7.5367530e-04
  6.1656642e-03
  1.3462118e-03
  2.7733757e-03
 -3.4266926e-02
 -4.1969845e-04
 -6.6133938e-03
  5.1797327e-04
 -5.8383605e-04
  7.0231583e-04
 -1.0585764e-03
  5.6382641e-04
  4.5295781e-04
  7.8740285e-04
 -6.9241069e-05
  7.7677815e-04
 -9.6944469e-04
 -2.4563400e-04
 -1.0420862e-03
 -4.3418785e-04
 -6.0524791e-04
  1.5069372e-05
  2.5266351e-03
 -3.4029770e-04
 -2.3023560e-04
 -1.6109112e-03
 -8.5346180e-04
 -2.4570234e-04
  1.5801361e-02
  6.2598726e-03
 -2.0697159e-03
  8.1233884e-05
 -8.2591630e-04
  2.9093685e-04
  1.2409301e-03
  5.2849873e-04
  3.5884004e-05
  4.7248756e-04
 -4.7322729e-01
 -1.7807214e-03
 -6.4335153e-02
 -5.2812102e-06
  1.9888216e-04
  3.6612682e-03
 -6.9358386e-05
  2.4531032e-03
  2.1143367e-03
 -4.3143729e-05
 -3.0677370e-04
  1.2712739e-04
 -4.7062244e-03
  3.6198887e-04
 -2.0735390e-03
  2.3710757e-01
 -8.5289264e-03
  1.4730258e-01
  3.7048995e-02
  7.3506378e-02
  3.7541792e-01
  2.2636611e-02
 -3.7576994e-01
 -3.0297784e-02
  2.1901685e-03
  2.9873252e-02
  7.7562618e-01
  3.5590747e-01
  8.3316469e-01
 -1.2369631e-04
 -8.3465773e-01
  9.9741416e-03
 -6.7658737e-02
 -9.4084106e-02
 -1.2096041e-03
  8.6588378e-04
 -8.9941643e-02
  1.8390490e-01
  1.8628914e-02
  1.6077113e-01
  5.3942937e-04
  5.1264369e-01
  2.8044501e-01
  2.4612960e-03
  1.1590022e+00
  2.2310342e-01
  5.1441893e-02
  3.8347548e-01
 -1.1925051e-01
  3.6927740e-04
  1.0510040e-03
 -1.7631908e-01
 -9.6501946e-02
 -5.0161336e-02
 -4.2638776e-01
  7.3496528e-02
 -1.6108507e-03
 -3.2076102e-02
 -3.7741676e-04
  5.5856228e-02
  2.4401369e-04
 -2.5015649e-01
 -1.8621322e-04
  5.2652776e-01
  5.5998113e-05
 -2.0292249e-02
 -1.3373446e-03
 -1.3426496e-04
  1.5986728e-03
  2.7623199e-02
 -1.1912466e+00
 -3.3635721e-02
  4.6795137e-02
  5.6930870e-02
  1.7343478e-01
  7.9542695e-04
  1.2264095e-01
 -1.2755170e-01
  2.1131800e-01
  2.7039596e-03
  4.3612972e-02
  4.5654503e-01
  7.8476849e-04
 -1.2882963e-03
 -2.7758253e-03
  6.2510140e-02
  4.0425275e-02
  7.5834997e-02
  1.5356741e-03
  3.9406347e-01
 -3.3251126e-03
  3.0707332e-01
 -4.9805477e-02
  6.9917537e-02
 -2.0246222e-04
  1.1199965e-01
 -6.4722560e-02
 -8.1722355e-03
  4.6551094e-04
 -1.2629460e-01
  6.2020714e-03
 -7.5921908e-02
 -4.7415090e-04
  8.5457781e-04
 -1.9785658e-01
  2.8113546e-03
  1.0314961e-03
 -2.1673627e-03
  7.3305979e-02
  2.6289529e-01
  1.6402438e-01
 -1.0675199e-01
  2.1750266e-03
  7.8092903e-02
 -1.4852361e-01
 -1.6803067e-04
 -6.0722269e-03
  5.0643798e-02
  8.0549211e-04
 -4.5762148e-02
  9.0022868e-04
 -1.2703211e-03
  1.8778213e-03
  7.0160930e-04
 -6.1570189e-04
  2.3004534e-03
 -1.5740239e-03
 -7.1421708e-04
 -4.7919597e-04
  3.1641219e-04
  1.0542403e-04
 -1.9776607e-03
 -2.3736965e-04
 -5.3309108e-05
 -1.0250449e-03
 -1.9197064e-03
 -8.3931064e-04
  2.0952470e-04
 -2.0074077e-04
 -4.0853536e-04
 -1.1169618e-03
 -1.0554923e-04
 -6.1693499e-06
 -8.0349308e-04
 -1.5010814e-05
 -6.8366737e-04
 -4.4877047e-04
  1.4599165e-04
 -3.0567776e-04
 -7.1547995e-04
  3.0829257e-04
 -4.6091029e-04
 -7.6415372e-04
  8.3547900e-05
 -7.7226944e-04
  8.4119354e-05
 -1.9434309e-03
 -1.1063883e-03
 -7.7783846e-04
  1.3303943e-03
  2.1823420e-05
  2.0904141e-02
 -7.4317574e-04
  2.7777290e-04
 -9.0474170e-04
  2.5710787e-04
  6.7034247e-04
  1.0160504e-01
  6.5984076e-04
  8.4050925e-04
 -1.2175786e-05
 -6.1000348e-04
  5.3679250e-05
  3.4022720e-03
 -5.0927565e-04
 -2.3364555e-03
 -1.1910808e-03
  5.2537094e-03
  1.3965579e-04
  1.0500114e-03
 -7.5514201e-04
  8.9465856e-04
 -1.7670316e-04
 -1.6429981e-04
 -6.7015571e-05
 -8.7980280e-04
  1.0338258e-03
  2.6804279e-05
  9.2051486e-03
 -2.8766296e-04
 -2.8051439e-04
  2.9896601e-04
  3.6306490e-04
  2.5600419e-04
  1.8864116e-04
  2.5309250e-04
  4.9447018e-04
  2.6160092e-03
 -6.9462279e-05
  1.2878153e-03
 -4.5905886e-03
  1.4153565e-03
 -5.1620655e-04
  7.7439315e-04
 -8.4362706e-05
 -2.2782237e-04
 -4.9314986e-05
  3.8957206e-04
 -3.2672298e-04
 -4.6848075e-04
 -1.8232731e-04
 -8.6593849e-04
 -4.4119617e-05
  5.4469396e-04
  3.9983806e-04
  1.3265265e-04
  1.2889473e-03
  1.5312537e-03
  9.0024131e-04
 -5.0318581e-03
 -2.4072875e-04
  2.5691068e-02
  1.7338863e-04
 -1.3870030e-04
 -3.5235630e-03
  7.9847150e-04
  6.6486129e-04
 -1.9870589e-04
 -3.1700009e-04
 -6.7515712e-04
 -3.3685843e-05
  7.6777936e-04
 -7.6039205e-04
  7.8302162e-04
 -4.2386507e-04
 -4.6722850e-04
  2.9914605e-04
 -2.3327051e-05
 -7.6029310e-03
  1.8177326e-03
 -6.1013957e-04
  5.2112743e-04
  8.2267012e-04
 -8.8965893e-04
  2.3728723e-04
  4.7826380e-04
  3.9870851e-04
 -1.4494442e-03
 -7.1823515e-04
 -4.8060107e-04
 -4.5716570e-04
 -1.3701663e-04
  5.3559736e-05
  1.1295290e-04
  6.0951832e-05
  1.8662323e-04
 -4.9564231e-04
  1.3113902e-04
 -2.3062436e-04
 -8.8786481e-05
 -1.8170475e-04
  1.2478899e-04
  1.0547972e-03
  5.1569357e-04
 -7.0512446e-04
 -5.1145547e-04
 -1.4807655e-03
 -4.0582399e-04
  6.7320396e-04
 -2.0493825e-03
  4.0517509e-04
  5.6676799e-04
 -6.1489991e-04
  2.2989634e-05
  3.1023790e-04
 -9.0441445e-06
  1.0069464e-03
 -1.1178701e-03
 -1.1117287e-03
  1.1802686e-03
 -5.9298455e-04
  4.3507598e-04
  3.8995809e-04
 -1.4970711e-04
 -1.2651028e-03
  5.9621024e-04
  3.8504542e-04
  1.2047392e-04
 -1.7967659e-04
  8.5306598e-04
  4.9553078e-04
  3.1443656e-04
 -1.4667219e-01
 -9.4147079e-05
  9.1750306e-05
  1.8671976e-03
  4.7638945e-04
 -7.5549464e-04
  3.7031664e-04
  4.5852314e-04
  7.5365591e-05
  1.8135703e-04
 -2.1746836e-04
 -4.4662417e-03
  2.5176932e-04
 -5.0077488e-04
  1.0391065e-04
 -5.5723957e-04
 -3.6982552e-04
 -1.5958667e-03
  3.0689745e-05
  8.7600853e-04
  2.3369402e-04
 -2.9732008e-04
 -6.0054631e-04
 -1.4695182e-03
 -3.6314427e-04
 -3.2950961e-04
  2.1911600e-04
 -1.0638343e-04
  1.8957203e-04
  1.6026485e-03
  2.8401546e-03
 -8.3087070e-04
  3.2276491e-04
 -1.1637778e-03
  1.3193549e-03
  6.5826421e-04
 -9.4519986e-05
 -1.8523338e-04
  4.0020404e-04
 -2.4301844e-06
 -1.8168652e-03
 -6.3635624e-04
  2.9532553e-04
 -5.0803932e-04
  9.7176636e-04
 -7.8077638e-04
  1.0048535e-04
 -2.9464796e-01
  4.8961523e-01
 -1.0513216e+00
 -5.0590199e-01
 -6.6541171e-01
  7.0818621e-01
  5.1512784e-01
 -2.6708889e-01
  1.1941457e+00
  3.7328795e-01
  5.8309937e-01
 -1.5927976e+00
  6.3302320e-01
  8.7708747e-01
  2.3343554e-01
 -1.4226788e+00
  1.0246440e+00
  1.5739995e-04
 -3.7091263e-02
  2.0437481e+00
 -7.1835381e-01
  4.9568087e-01
 -3.0411246e-01
  2.6749393e-01
 -6.0508174e-01
 -2.3102468e-01
 -6.3910908e-01
  7.5042136e-02
 -2.4814408e-02
 -9.7168738e-01
  1.0463354e-01
  7.6248229e-01
  7.3481852e-01
 -1.2235671e+00
 -5.3690702e-01
  4.3357708e-03
 -1.0272022e+00
 -1.1676345e+00
 -9.2000264e-01
  3.6205582e-02
  5.7977676e-01
  1.0732780e-01
  2.4134368e-02
  2.6202330e-02
  2.9641771e-01
  2.9428445e-03
 -3.5371074e-01
  5.0070173e-01
 -5.9166890e-01
 -2.4567587e-02
  4.9977580e-01
  2.4888633e-01
 -2.2173414e-03
  2.7366797e-03
 -2.6571044e-01
 -1.3252207e-04
  3.1371026e-05
  3.6919120e-01
  4.1237855e-04
  8.6343409e-03
  1.0070362e-03
 -8.5711372e-01
 -5.1113027e-01
  1.0398856e-04
 -1.3881721e-01
 -1.7325405e-04
  3.5556653e-01
  1.1507103e-05
  5.6873006e-01
  6.0618477e-06
 -1.1867082e-03
  1.0368403e-04
 -1.2504577e-04
 -4.2340741e-04
 -1.3730255e-01
 -6.1949685e-02
 -3.5022266e-04
 -2.0866410e-01
  3.6548945e-04
 -4.2113915e-04
  5.7847326e-05
  1.8131135e-04
  7.1702158e-04
 -5.4327212e-03
  4.1365370e-01
  4.6437044e-02
 -2.2996008e-01
 -5.4705852e-01
 -8.5254744e-02
  1.7075432e-02
  3.6894340e-02
  4.2476946e-01
 -1.6756366e-01
  5.5922521e-04
 -2.0494047e-01
 -3.4028701e-02
  1.0371218e+00
  8.9894357e-04
 -1.1973370e+00
 -1.3319266e-02
  9.9345017e-04
  7.7015349e-05
 -2.1340837e-01
 -3.6677081e-04
  1.4824145e-01
 -3.6270368e-01
 -1.2419730e-01
  1.9310679e-01
  3.9753339e-01
 -4.3082908e-02
  7.8224823e-02
 -5.0126005e-02
 -7.1086842e-03
  6.2921262e-01
 -2.4546531e-04
  3.3688190e-04
  1.7636145e-03
  3.7153449e-04
 -2.4162156e-04
 -5.9495657e-04
  2.8152190e-04
  1.1525259e-03
  3.6671787e-05
 -4.9159874e-04
  4.5171255e-04
  6.1961822e-05
  1.1928324e-03
  2.4434023e-03
 -4.1690192e-04
  7.8694697e-04
 -5.4029305e-04
 -2.1332456e-03
  3.3025441e-04
  1.3937858e-04
  1.4989834e-03
 -6.7008950e-04
  9.6383493e-04
 -2.2245073e-04
 -3.5664707e-05
  1.2031327e-03
 -2.1045213e-05
  6.0962467e-04
  1.2149966e-03
 -1.7325554e-04
 -1.3746439e-03
  1.2129688e-03
 -8.6196430e-04
 -3.9084662e-06
  2.8535782e-04
 -8.9392939e-04
  2.4170661e-04
 -3.7961398e-04
  5.0156296e-04
 -1.4097369e-04
 -3.9733241e-05
  7.3871430e-05
  1.6612017e-03
  1.9636496e-05
  4.1161600e-04
  1.0757224e-03
 -5.6635682e-04
  4.1114591e-04
  9.0793753e-04
 -1.0348612e-03
  2.5492400e-04
 -4.1075802e-04
  2.0293960e-04
  6.2973716e-04
 -4.5001893e-03
 -6.4348644e-01
  1.6855990e+00
 -6.2063732e-03
  2.8988606e-01
 -7.8636617e-04
  4.1177151e-01
  9.9651480e-01
 -5.4853767e-01
 -1.5092862e-01
  9.8254429e-03
  2.3431508e-01
 -1.8925017e-01
 -1.8238446e+00
 -4.2073626e-02
  2.3020712e-01
  2.4053919e-01
 -9.1516681e-04
 -2.9562053e-01
 -2.8509891e-04
  1.5670039e-01
 -3.5118998e-03
 -1.0924525e+00
 -2.1721072e-01
 -1.4779569e-01
  4.0900655e-04
 -1.5198685e-01
  5.3790981e-01
 -3.5678896e-01
 -4.2657577e-02
 -4.1383475e-01
 -7.5865828e-02
 -1.9011842e-01
  2.8832862e-01
  3.7515833e-04
 -5.6970036e-01
 -6.8411708e-02
 -9.4048852e-01
  3.1620172e-01
  1.0026243e-01
 -1.8377221e-01
 -5.4338616e-01
  5.2480027e-04
  6.6532570e-01
 -1.0320367e+00
  3.1250045e-01
  5.7955207e-05
 -6.2518544e-04
  1.6087556e-01
  6.1483390e-04
  9.0529382e-02
  9.4897702e-04
  1.5532377e-03
 -1.1772604e-04
 -8.6414278e-04
  1.1994577e-03
 -2.2333798e-04
  7.3461816e-02
 -6.9875858e-04
 -5.2064483e-04
  1.8097035e-04
  8.5738324e-02
  4.7450891e-04
 -6.0869398e-04
 -3.4328116e-04
 -3.8264712e-04
 -4.2909032e-04
  3.5385709e-04
 -9.3777193e-04
  9.3498238e-05
  1.2066698e-03
  1.1583962e-03
  4.0709309e-04
  3.3214710e-05
 -3.7794095e-04
  4.2784392e-04
 -6.9388945e-04
  3.8782205e-04
  1.1067541e-03
 -2.4764478e-04
 -1.1865273e-03
 -3.5997768e-04
 -1.8457210e-04
 -2.9454875e-04
 -9.4625261e-04
 -2.3222822e-04
  1.1570501e-03
 -2.9663841e-04
  2.7632888e-04
 -2.4517116e-04
 -1.5337515e-04
 -6.6315837e-04
  3.0891219e-04
 -1.7964571e-04
 -4.0468988e-03
 -3.1074259e-04
 -7.9587864e-04
  3.7225621e-04
 -1.7179850e-04
  1.0403368e-05
 -8.1684557e-04
 -7.1140542e-04
  1.9644620e-05
  1.8102489e-04
  1.7068700e-04
  1.2911496e-03
  2.1991548e-03
 -9.2805142e-04
  1.3569289e-01
  6.9089645e-01
  3.3825117e-01
  1.7856680e-04
  6.0944307e-01
 -4.0395522e-01
  6.6722482e-02
 -4.1658133e-01
  3.7573476e-04
  1.1375699e-02
  9.8402992e-02
  1.9022724e-01
  7.1213983e-02
  2.0698686e-03
  6.0749356e-02
 -1.0716106e-01
 -8.5073039e-03
 -1.0021385e-04
  3.6219957e-01
 -8.7112583e-02
  1.1280699e-03
  4.0243223e-04
  1.2511903e-04
  4.1505352e-02
  1.9173197e-03
 -7.3551974e-04
 -1.8238144e-03
  9.0370983e-02
  1.0190656e-03
  1.5115145e-01
 -5.5224989e-02
 -7.3243910e-03
 -1.9321218e-01
  3.8781308e-02
  9.6224666e-02
 -5.3087097e-02
  9.5962989e-04
 -1.4911209e-01
  2.6031944e-04
  5.6906101e-05
 -9.7529250e-01
 -5.0625857e-02
  3.2617494e-01
  1.5683395e-03
 -2.7193534e-01
  1.7216408e-03
 -9.6422576e-05
 -3.2414871e-03
  4.1175258e-04
 -2.1058309e-05
 -2.5302103e-02
 -5.2553809e-05
 -2.5895264e-03
 -1.6695498e-02
 -2.9231024e-01
 -2.7439958e-01
 -1.8082296e+00
 -2.5028892e+00
 -1.2704085e-01
 -1.2642467e-01
 -9.3496799e-02
  6.0493690e-01
 -8.4145343e-01
  1.2730211e-01
  7.9395580e-01
 -1.9479279e-01
 -1.3879478e+00
 -6.6710490e-01
 -4.5996028e-01
 -8.5128677e-01
  3.2163396e-01
 -6.5720010e-01
 -4.0691361e-01
  5.7336009e-01
  1.7056832e-01
 -5.3914034e-01
 -5.0942358e-02
 -7.7829409e-01
 -2.7181002e-01
 -3.8899865e-02
 -7.8605354e-02
 -5.5265635e-01
  1.8080977e-01
  1.3121019e-01
  5.6284767e-02
  1.9628012e-01
 -5.6596506e-01
 -1.0900684e-01
 -3.2042742e-01
 -1.1914269e+00
 -2.7553999e-01
 -3.1180948e-01
 -2.2398244e-01
 -1.2684118e+00
 -2.0308343e-01
 -1.0962492e+00
 -9.3047744e-01
 -2.3522782e-01
 -1.1994553e-01
 -2.0026876e-01
 -3.2137880e-01
  3.3793020e-01
  6.3610381e-01
 -4.2967420e-02
  2.6100969e-01
  5.6190068e-01
 -5.2777637e-04
 -8.2630619e-02
 -8.1388134e-01
 -1.6111760e+00
 -2.5703957e+00
 -2.1171893e-01
 -1.8169868e-01
  2.8535521e-01
 -2.2388270e+00
 -1.5311185e-01
  2.1813813e-01
 -1.5184387e+00
  1.0100468e+00
 -1.7590013e-01
  2.1715757e-01
 -2.6873376e+00
 -1.3840091e+00
  6.0648823e-01
  5.1972401e-01
 -9.8846960e-01
 -1.3254765e+00
  1.2685363e+00
  1.2691392e-01
 -1.7371146e-01
 -1.0760742e-01
 -1.6907849e+00
  2.6126986e-04
  1.8299189e-01
  4.1451200e-04
 -1.1382554e+00
  3.2317725e-01
  1.1850052e-01
 -3.7477160e-01
 -8.1254780e-02
 -1.6445526e-01
 -6.6124600e-01
 -2.0445840e-01
 -1.7025585e-01
 -3.4728366e-01
  5.6474529e-02
 -8.0927324e-01
 -8.2042396e-01
  2.0657310e-01
 -7.4559742e-01
 -6.0272194e-03
 -6.9963199e-01
 -3.8774177e-03
  1.7059600e-01
 -2.9075268e-01
  8.0031300e-01
  3.5500008e-01
 -2.3085359e-03
  8.8588083e-01
 -1.0582127e-03
  2.8632123e-03
  2.7676477e-04
  2.0360241e-04
 -5.9551345e-05
  9.8256150e-04
  7.4104901e-04
  2.0704840e-03
  6.9251482e-04
 -9.0141726e-01
  2.1200656e-04
  7.3756513e-05
 -4.4150912e-04
  2.1691644e-01
  2.6095062e-05
  1.1775850e-04
  6.5986655e-04
 -2.5343834e-03
 -7.3209190e-04
  2.2832598e-04
  1.3555650e-03
 -5.8882288e-04
 -3.0336296e-04
 -4.0102308e-04
  3.7427884e-04
  1.7765554e-03
  1.1180289e-03
  1.1443243e-03
 -1.1318669e-03
 -5.3748349e-04
  3.2331166e-04
  9.4305014e-04
 -6.4622256e-04
 -3.9187746e-04
 -7.6015116e-05
 -1.8644069e-04
 -3.8884449e-04
  1.1777013e-04
  5.4087868e-04
 -3.9575508e-04
 -1.1821048e-04
  2.4639341e-04
 -5.7202077e-04
 -6.5712193e-03
 -8.4214634e-04
 -9.0997579e-04
 -6.3731207e-04
  3.7599585e-04
  2.2211809e-04
  6.7384331e-03
  3.9802288e-04
  1.1544174e-04
 -2.6343644e-04
 -3.7557172e-04
  7.4573624e-04
 -1.7528658e-04
 -1.7311251e-04
  1.3605377e-03
  8.0138585e-04
 -5.0210545e-04
  2.3184295e-04
  5.0482043e-04
  1.8165702e-03
 -3.6819224e-04
  4.1550201e-01
 -1.2529071e-04
 -1.1242962e-03
  7.9573045e-05
 -1.1312447e-03
 -1.2913914e-03
 -3.3919135e-04
  7.3435128e-04
  3.0281168e-04
  4.2488924e-04
  6.0662354e-04
  8.2914619e-04
  3.1948122e-03
  8.8670570e-04
 -3.7972824e-04
 -1.1387602e-03
  5.2024861e-04
 -4.0768378e-04
 -1.5351779e-05
 -3.6698366e-05
  2.8079521e-04
  6.1070750e-04
 -5.0220633e-04
  1.2859920e-04
  1.4166052e-03
  2.2206400e-04
 -4.1982625e-04
  2.1983059e-04
 -7.6836295e-04
  3.3471739e-04
  8.6934400e-05
 -1.1346581e-03
  5.6320250e-02
  2.3232508e-03
  1.2238601e-03
 -6.9696101e-04
  9.8783872e-04
 -3.4031883e-04
 -9.5536889e-05
  5.3152500e-05
 -5.3988681e-03
 -2.1122539e-04
 -8.6153705e-05
  9.4410009e-04
 -1.5979583e-04
  6.7124091e-04
 -5.7951774e-04
  4.5267683e-05
 -9.6631056e-04
  6.8943438e-05
  5.3812430e-04
  7.2063663e-04
  7.8615703e-06
  2.0804890e-02
  5.7595957e-04
  1.9138114e-03
  2.2221479e-04
 -8.5308406e-05
 -1.2403078e-03
  2.4502971e-05
  2.7775878e-04
  2.9011877e-04
 -3.5813265e-04
  1.4204415e-03
 -1.3231447e-04
  1.6582711e-04
 -1.5775784e-03
 -2.6765692e-03
 -2.5564403e-04
  6.1923449e-05
 -5.4023473e-04
  4.9039052e-04
 -6.6117937e-05
  1.0313994e-03
 -2.3677608e-04
  1.5835029e-04
  1.0319047e-05
 -1.6515194e-03
  1.0407412e-03
 -2.4325431e-03
 -3.7959471e-04
  1.2674131e-03
  3.3185378e-04
  1.1862021e-04
  4.6036521e-04
 -2.7873888e-04
  1.4267947e-03
  5.4963981e-04
 -8.7284399e-03
  8.1288960e-04
  1.8213806e-03
 -1.4678106e-03
  3.0347591e-04
 -4.1545019e-04
  6.7654910e-06
 -8.0508564e-04
 -4.1936222e-04
  1.4720829e-03
 -2.5602707e-04
 -1.2077673e-03
 -9.4435294e-05
 -1.7162681e-01
  1.9536448e-01
 -9.0442020e-01
 -6.3251293e-01
 -3.2248154e-01
  6.3247532e-01
 -4.7815961e-01
  4.8220807e-01
 -2.0022283e-01
  1.1143814e+00
  5.8380437e-01
 -4.8218660e-02
 -1.1472913e+00
  5.9471774e-01
 -4.2015201e-01
  6.0845915e-02
 -5.6236696e-01
 -1.0831548e-04
  5.8521742e-01
  3.0378941e-01
 -8.3305866e-01
 -7.4585015e-01
  7.1544743e-01
 -1.2342385e+00
 -4.3785089e-01
  4.7775635e-01
  1.0308095e+00
  4.0168527e-01
 -8.8135734e-02
 -8.1181741e-01
  9.7472388e-01
  5.6875296e-02
 -6.9748616e-01
  5.9459180e-01
 -3.6337546e-01
  1.0310706e+00
 -7.6362700e-04
  3.9446327e-01
 -5.8368939e-01
  3.2119051e-01
 -4.7374234e-01
  4.0005237e-01
  3.2086080e-01
 -2.7133635e-04
  2.3116691e+00
 -3.5321083e-02
  2.4206699e-01
  1.9048235e-01
  4.4717506e-01
  1.3064815e-03
  1.9957860e+00
 -2.6592627e-01
  8.8758316e-05
  9.9521749e-02
 -7.5986027e-04
  7.7893071e-02
  5.6182206e-02
 -2.8825414e-03
  1.2406547e-01
  3.5667875e-01
 -2.1672796e-02
  2.8954035e-01
 -2.6920080e-01
  3.4797722e-01
  4.8423454e-02
 -3.8779734e-04
 -1.0608511e-01
 -2.0754696e-01
 -1.3580507e-01
  3.2825482e-01
  1.8628154e-04
  8.7700486e-03
 -2.6100779e-01
  9.0727277e-02
  2.2510199e-02
 -2.7850138e-03
  2.8773041e-03
 -1.5849405e-04
 -7.1194014e-03
  1.7185177e-04
  5.0899291e-01
 -6.8742014e-02
 -4.8979756e-04
 -1.2566484e-04
  4.8699789e-02
  1.1009634e-01
  2.3537168e-01
  3.9618324e-05
 -1.2921124e-03
  1.1631349e-01
 -3.6013217e-04
 -1.1778262e-05
 -1.5579582e-04
  5.6228926e-04
  2.5219102e-03
  4.8665367e-02
 -4.8144074e-04
 -1.0710020e-01
  4.5470083e-01
 -1.1717143e-02
  4.7413504e-04
  1.3092844e-03
  2.6911392e-03
 -1.8887085e-04
  4.4694091e-03
 -1.9208255e-03
  1.8366981e-04
  6.1286790e-03
 -4.4661638e-01
 -5.8910602e-01
  6.8396772e-03
  9.7148828e-02
 -3.3009514e-01
  1.1322208e-01
 -7.2968376e-01
  1.3700016e-01
  8.2596517e-01
  9.9306029e-01
 -3.6169339e-03
  3.8186863e-01
  1.8891753e-01
 -7.2026956e-01
 -1.2878257e-01
 -4.9648762e-01
 -1.6078827e-01
  3.0852886e-02
  7.6515961e-01
  7.8452446e-02
  1.1807550e-01
  4.6103692e-01
 -3.8767022e-01
 -5.3389215e-01
 -1.5555775e-01
 -1.2500018e-04
  8.9967391e-04
  3.1649774e-01
  4.0461037e-01
  1.6590725e-01
 -2.7347097e-02
  2.6421797e-01
 -4.1008410e-01
  8.5102759e-02
  3.7138957e-01
 -1.4244755e-02
 -5.3444721e-02
 -5.1708113e-02
  8.0188304e-01
 -3.4160778e-04
 -3.5729229e-02
 -9.5218480e-01
 -3.2440195e-04
  6.6793525e-01
  3.0069157e-01
  5.6916077e-02
 -7.8278631e-03
 -1.8289289e-03
 -3.8730904e-01
 -1.6832832e-04
 -2.1448059e-04
  4.7717910e-04
 -2.4838236e-03
 -4.5046321e-04
  5.7252438e-04
  2.9792005e-05
 -2.3015446e-04
  1.6419056e-03
 -6.5512635e-04
 -1.0435545e-03
  3.7032046e-04
 -1.1142569e-03
  1.3127697e-04
 -5.4392335e-04
 -2.9386824e-04
  6.1761239e-04
 -1.3372930e-03
  1.8568269e-03
 -6.9148495e-04
  2.1796790e-05
  2.7102759e-04
 -4.8151097e-04
  2.1656585e-04
  1.0449713e-04
  4.7728245e-04
 -3.3277471e-04
 -4.3535419e-04
  6.7245717e-05
  1.7738536e-04
 -4.5573828e-04
  2.4986032e-03
  3.1918930e-04
 -3.6838790e-04
  1.6280093e-04
 -5.1819621e-05
  5.0200906e-04
 -2.7070518e-04
  1.1039977e-03
 -1.2978266e-03
  1.3739438e-05
  1.4490452e-04
 -6.8880283e-05
  1.5296806e-04
 -8.1997772e-04
  1.3723290e-03
  5.5694964e-04
  4.6551684e-04
  4.5407328e-04
  2.3572757e-04
  7.7428791e-04
  2.0125973e-04
  3.7512526e-01
  7.9411187e-04
  4.1195832e-04
  3.1376532e-03
 -7.3891645e-04
 -6.0801649e-06
 -2.8966606e-04
  2.6764525e-02
 -3.9134383e-02
 -9.3040578e-03
  6.8641743e-03
  1.4407991e-02
 -1.6355415e-01
  1.4219315e-01
  9.2421370e-03
  1.1658325e-03
 -3.3625130e-02
 -5.8653941e-03
 -9.9401841e-05
  1.7516121e-02
  1.4780052e-03
  7.3223386e-04
 -6.5610521e-03
 -9.2686396e-03
 -1.6088920e-02
  1.5939843e-03
 -1.8476617e-02
 -1.2392058e-02
  7.0097055e-03
 -6.2985701e-04
  1.1070418e-03
  2.3686660e-03
 -6.5780403e-03
 -2.8909042e-01
  3.9424325e-04
  2.5610265e-04
  1.0629139e-03
 -2.2429300e-02
 -2.8160836e-03
 -3.6548346e-03
 -1.7215897e-04
 -3.1837125e-04
 -1.7728394e-02
  1.5510799e-04
 -5.7857828e-03
 -2.0157208e-04
 -4.5311591e-03
 -5.1243022e-02
 -2.8171510e-04
 -1.4668640e-03
  1.4719761e-02
 -2.1125073e-02
 -2.6829428e-05
 -5.1194592e-04
 -8.6635472e-03
 -1.0129496e-02
  1.7992611e-04
 -1.4558025e-03
  2.7288215e-03
 -2.2016010e-04
 -1.6569294e-02
  1.1657139e-02
 -2.4835624e-01
 -1.1057180e-03
  1.1958567e-01
 -4.6224713e-02
 -1.8906435e-01
  3.5912722e-02
 -3.4030339e-01
  8.1314996e-02
 -5.5763964e-02
 -1.3408986e-02
  3.3667678e-04
  3.6335018e-04
 -3.5698744e-04
 -6.7252506e-05
 -2.5139848e-02
 -4.0967133e-02
 -1.0446330e-02
  5.3592620e-04
 -1.7381074e-02
 -5.3667594e-02
  4.9599251e-03
 -9.1209868e-04
  1.5394612e-04
  4.7288829e-04
 -9.5564470e-04
 -4.8782918e-01
 -4.6803472e-03
 -9.3593545e-02
 -4.0412231e-04
 -4.1320000e-02
 -2.3512991e-02
 -6.3953705e-02
  1.5116966e-04
  9.0994356e-05
 -3.2535456e-02
 -1.2726017e-04
 -2.1208489e-02
  8.7704509e-04
 -1.1489079e-01
 -3.8659558e-02
 -4.0451147e-02
 -3.2773182e-02
  2.8404300e-03
 -7.0248768e-02
  3.8514466e-03
 -5.5633963e-04
 -1.5491379e-03
 -6.8043709e-02
 -8.3939853e-04
  7.9498473e-05
  2.2050498e-02
  1.4827999e-04
 -7.0474803e-04
 -4.2057741e-03
  1.9659927e-01
 -1.9748686e-04
 -9.6239308e-03
  1.7641039e-01
  1.5412713e-03
 -1.3245887e-01
  2.0480685e-01
  1.1460653e-01
  1.0886506e-04
  2.6318831e-02
 -5.7451596e-04
 -3.3902743e-01
  8.5811102e-04
 -5.0894887e-04
  1.3577620e-02
  6.8547658e-04
  2.3197245e-03
 -7.9129553e-05
  8.8931888e-04
  1.2689323e-02
  4.8883166e-04
  3.5629506e-04
  4.8370694e-04
  4.9239624e-04
 -5.3773110e-04
  9.3831956e-02
  2.2429982e-03
  1.3972686e-03
  5.3508661e-04
  3.1910159e-02
  5.9908011e-04
  6.0255313e-04
 -2.0833593e-04
 -6.2870749e-05
  1.2446515e-02
 -6.2141283e-03
  3.2665352e-03
 -1.0486444e-04
  5.4448284e-04
  1.6188918e-01
  8.1839887e-03
  6.8182847e-04
  5.9134071e-04
  1.3184845e-01
 -6.8423583e-04
  1.6426485e-02
  8.3520717e-04
  1.4766019e-03
  9.4014313e-04
  2.1357839e-03
  1.7635999e-04
 -1.6896299e-04
  2.2224062e-03
  5.5355352e-01
  5.8133030e-01
  3.3669823e-01
 -2.3774011e-01
  1.2497363e-01
 -3.6047894e-01
  5.2119887e-01
  4.4493842e-01
  1.8948580e-01
  2.3960704e-01
 -1.8542960e-01
  1.3431253e-01
  4.9246028e-01
  4.6352720e-01
  3.2058939e-01
 -6.0744792e-02
 -1.7134047e-01
  2.0515271e-04
 -1.3879292e-01
  2.2252893e-01
  2.5755562e-02
 -6.6508883e-01
  1.1253668e-01
  8.0804124e-02
 -5.3786494e-02
 -7.1678585e-03
 -1.3994032e-01
 -2.4544347e-02
  6.4846528e-01
  3.3865309e-01
 -1.6550227e+00
  3.8772419e-01
  1.0922717e-01
 -2.2754009e-01
 -1.3840291e-01
 -2.0006326e-01
  8.6606935e-02
  4.7088933e-01
  5.9598815e-01
 -1.1157333e+00
  1.0680543e+00
  5.9859073e-01
  7.8100024e-04
 -8.3800450e-02
 -3.2553185e-02
 -5.3757682e-02
 -6.9551736e-02
 -3.3867100e-01
 -9.5132858e-02
 -4.5237848e-01
  3.6753863e-04
  3.5018936e-02
 -1.0004189e-01
 -5.9719563e-01
 -1.4838522e-03
 -2.7937867e-04
  1.7890087e-04
 -1.4685027e-04
 -7.5401855e-04
 -8.0649130e-05
 -3.2175600e-04
 -2.2024722e-03
  7.0994049e-02
  9.9036515e-05
  1.1746147e-04
 -5.2005693e-04
 -3.4228037e-04
  1.9592160e-05
 -6.0464721e-04
 -6.0420233e-04
 -1.9988103e-03
  4.6546155e-04
  1.7828818e-03
  8.6055818e-04
  6.1933603e-04
 -8.7814289e-05
 -1.0437019e-03
  2.5366538e-04
  1.2180045e-01
 -7.2181763e-05
  7.1606960e-04
 -2.4545955e-04
  3.3873140e-03
 -7.3431584e-04
 -8.0048310e-04
 -1.6136395e-04
 -1.7658691e-04
  8.3394360e-04
 -2.4097659e-04
 -7.6143234e-04
  8.3512765e-05
 -4.5522905e-04
 -2.8816704e-04
 -7.6574541e-04
  1.8104059e-03
  1.5193135e-04
 -1.4236118e-04
  4.5798242e-04
  1.0377028e-03
  2.2814708e-04
  6.2910805e-04
 -9.8512264e-04
  3.2095346e-04
  4.1849451e-04
  4.0672012e-04
 -1.2751415e-03
 -7.5191288e-04
 -5.0247891e-06
  1.3640328e-02
  2.4630703e-01
  1.5164216e-01
  3.8535634e-04
  7.1568489e-02
  7.1686879e-04
 -8.9850716e-02
 -6.6863197e-01
  1.2849424e+00
  1.5813655e-01
 -8.7647010e-03
 -2.4808913e-05
  2.5228434e-04
 -1.1348779e-01
 -2.2107195e-03
  2.0786698e-04
 -3.7149445e-03
 -2.6834747e-03
 -9.7347947e-05
  1.1125929e-04
  8.4709092e-05
 -3.8610637e-04
 -1.6559055e-04
  3.5719488e-02
  1.7992532e-03
 -1.7359363e-03
 -1.2734890e-05
 -4.9466470e-01
  5.9793220e-04
  1.5896260e-04
 -5.3702474e-01
  3.7509859e-01
  9.0377522e-01
  1.4982605e-04
 -4.4594109e-02
 -9.0270019e-05
 -5.0163339e-04
  5.9170200e-04
 -3.6912173e-04
 -3.6907755e-04
 -9.6945398e-02
  1.5009524e-03
 -8.0064905e-04
 -2.7272359e-03
  4.9042725e-04
  3.5842572e-04
 -5.5213872e-04
 -8.6751655e-02
 -4.0001812e-04
  1.4088638e-04
  6.1447331e-04
  5.1865249e-04
  3.2594346e-04
 -1.4215299e-03
  6.2045876e-02
 -1.3958925e-01
 -1.1654078e-02
  3.3119207e-03
  1.2316316e-02
 -4.5833506e-02
  7.7601142e-02
 -3.7277809e-01
  1.2249116e-01
 -9.3490690e-02
 -1.7731953e-02
  2.9148688e-04
  1.5528432e-01
 -5.5611407e-04
 -2.1492215e-03
 -1.0163476e-02
  4.6942648e-04
 -2.9275327e-03
  1.5736919e-02
 -1.6767472e-03
 -9.3393503e-03
  3.0551432e-03
  6.1446166e-04
  1.1101161e-03
  3.0163216e-04
 -3.0037570e-05
 -1.6414946e-01
  1.4048201e-03
  3.7920070e-04
 -1.9727257e-01
 -2.1735098e-02
  1.8817863e-03
 -1.1345948e-01
  7.8926403e-03
  3.2599899e-04
 -9.6631041e-03
  2.4962320e-04
 -6.2271039e-04
  1.0067486e-03
 -1.3635078e-03
 -4.7981536e-01
 -2.1227379e-04
  2.7735988e-04
  7.8402995e-04
 -2.0783050e-01
  2.4076265e-03
 -1.2007889e-03
  1.0755216e-04
 -4.5616752e-03
 -2.1454714e-04
 -1.2702507e-03
  3.9081930e-04
 -8.1445673e-04
 -5.7498575e-04
  4.3180361e-04
  7.1285490e-04
 -8.0005953e-04
 -1.5361541e-03
 -9.9326449e-04
  3.2767639e-04
 -1.6836030e-04
  3.6393170e-04
 -1.2825116e-03
  2.7623124e-04
  9.0241549e-04
  2.4292647e-04
  3.2406097e-04
  2.4701739e-04
  4.2035655e-04
  5.9068814e-04
  8.5318391e-04
 -1.6119340e-04
  6.8088545e-04
  3.7880105e-04
  9.8856026e-04
 -2.6727866e-04
  7.1918810e-05
 -1.6370977e-04
  6.6130667e-04
 -9.5176889e-04
  2.7706206e-04
 -1.0110075e-04
  2.9163394e-04
 -1.8656548e-04
  3.8011177e-04
 -4.0796149e-06
 -8.7348872e-04
  8.7697488e-05
  5.6179633e-05
  1.7830591e-04
  6.2212942e-04
 -1.5932004e-04
 -7.5376162e-04
  5.5704353e-04
 -2.1575728e-05
 -6.4702722e-04
 -1.2988501e-04
 -9.8919822e-04
 -1.7962200e-05
 -1.0257836e-04
  1.0098267e-04
  9.3410563e-05
 -5.5907946e-04
 -4.3539441e-04
  6.1555911e-05
  1.2373678e-04
 -5.0904672e-04
 -7.7841716e-04
  1.0428579e-01
 -1.3436417e-01
 -2.0687847e+00
 -1.6316078e+00
 -1.1356399e+00
  8.7720180e-01
 -3.3845863e-01
 -2.9054353e-01
  4.6650976e-01
  1.1325003e+00
 -4.8157629e-02
  8.2762353e-04
 -7.1105921e-01
  1.6405603e-01
 -2.6991209e-01
  2.9809859e-01
  2.3794533e-01
  2.9692035e-03
  7.1854971e-02
 -1.6803830e-03
 -2.3130257e-01
 -3.2694766e-01
  2.9307080e-04
 -6.7029983e-01
  2.3297466e-01
  2.2225134e-01
 -2.2167873e-03
  1.2225758e-01
  2.0536324e-01
 -6.0002768e-01
  6.3179636e-01
  2.6591321e-02
  2.2100595e-01
  1.3730706e+00
  6.5069658e-01
  7.6418465e-01
  1.9623304e-04
 -7.0440525e-04
 -9.9762529e-02
  2.1792632e-03
 -5.6064028e-01
 -5.3836592e-03
  7.7157891e-01
  3.4966040e-01
 -1.0239562e-02
  3.0822968e-01
  4.8993865e-04
 -4.0585466e-04
  2.5735548e-01
  2.2838305e-04
  2.9520917e-04
 -4.2251423e-01
  4.2284458e-04
 -3.7905466e-04
  7.0959784e-02
 -7.1065864e-03
 -1.8418151e-01
 -7.2095579e-01
  1.8338174e-01
  7.5977087e-02
  1.8262905e-01
  1.9541138e-01
 -6.6957921e-01
  3.3794422e-02
 -4.6290938e-02
  2.2528281e-02
  2.6910788e-01
 -4.1845104e-01
 -4.1382426e-01
 -5.4980403e-01
  1.1618325e-01
  4.2294737e-02
  3.4276393e-01
  2.1044563e-03
  1.7770664e-01
 -5.7535348e-03
  4.2431530e-01
 -7.9000497e-01
 -1.9576702e-02
  9.7018102e-04
  6.9580808e-02
 -3.1030858e-01
  1.0135198e-01
  1.2268083e-01
 -4.9791840e-01
  3.1552613e-01
 -1.9852456e-01
 -8.6425960e-02
 -1.7122285e-01
 -4.2978179e-01
  3.8205808e-01
  3.6744695e-02
 -1.9342247e-02
  4.8915896e-01
 -2.6321676e-01
  4.8180899e-01
  9.5744587e-02
  1.5093319e-06
  2.0946054e-01
  3.0988976e-01
  1.1487107e-01
  5.4945285e-04
 -3.4470785e-01
 -5.2374997e-04
  1.0682640e-01
 -5.7305348e-01
 -1.8108121e-01
  1.5347615e-01
  1.5484667e-01
 -1.8697651e-03
  1.7650590e+00
 -2.4784034e-01
 -5.5384999e-03
 -1.6149658e-01
  9.4680870e-01
  1.2850689e+00
  5.1666093e-01
  2.9284087e-01
 -2.0500603e-01
  4.6812342e-03
  3.2242545e-01
  1.0990917e-03
  1.2558588e-03
 -5.0497884e-01
 -8.6272713e-03
 -5.1898567e-04
 -1.5197957e-01
 -2.8880528e-04
  6.9380626e-02
 -3.3316487e-01
  8.9470014e-02
 -1.0146502e-03
 -1.1177796e-03
  6.7537726e-04
  1.6704844e-01
  3.7899498e-02
  4.1445759e-03
 -2.3464513e-01
  2.2145051e-03
  1.1174544e-02
 -1.9059202e-01
 -2.5268641e-01
  2.9139075e-01
 -4.5740642e-04
  1.9725414e-02
 -1.5814984e-01
  5.7830685e-04
 -7.8995223e-04
 -4.4060209e-01
 -2.0166075e-02
 -1.8291242e-02
 -2.3602395e-01
 -4.6009984e-04
 -4.0928028e-03
  2.8545986e-04
  1.8679604e-04
  1.0161743e-03
  6.7457260e-04
  1.5312820e-05
  8.8819949e-04
  2.2053235e-04
  1.5651016e-04
 -1.4659509e-04
  8.2233405e-01
  1.0079215e-01
  1.1779309e-03
  2.5551867e-01
 -9.4034439e-01
 -5.3178048e-01
  1.8502802e-01
 -7.1211927e-02
 -1.5229763e-01
  3.0139461e-02
 -2.6870158e-04
 -4.7161795e-02
 -3.3163019e-03
 -5.4407120e-03
 -7.9628281e-02
 -2.0449769e-04
  3.3703793e-04
  7.5589424e-01
 -1.1175222e-02
  4.2536625e-01
 -8.2240865e-04
 -4.1773632e-02
  2.3079042e-04
  6.9527072e-03
 -6.9062573e-01
 -6.9710687e-02
 -9.3825959e-02
  1.8230966e-01
 -2.1795262e-02
 -9.9035373e-05
  7.3520123e-04
 -3.9910096e-01
  6.2472302e-01
  1.4153543e-01
 -1.1345451e-01
  3.9608981e-02
 -9.6199594e-02
  3.0603045e-01
  7.5334962e-04
 -2.3473190e-01
 -1.8082280e-02
  2.8375594e-04
  4.4641658e-03
 -7.8416012e-02
 -1.9369486e-01
 -7.0726674e-04
 -2.4798999e-03
  1.3334629e-04
  1.0416043e-04
 -3.7108041e-02
  4.1792265e-04
  1.4233092e-03
 -4.6242608e-04
 -2.2644225e-04
 -3.5956016e-04
  7.1430922e-04
 -1.0852028e-03
 -3.7241267e-04
  1.3249079e-04
  1.0812872e-04
 -2.3103255e-05
 -4.2997923e-04
 -4.0013471e-04
 -3.1633896e-04
  4.4758670e-04
 -3.7246890e-04
 -8.0398133e-04
  7.9859317e-05
  3.8902252e-04
  1.8270736e-03
 -8.3862757e-04
  2.2784536e-04
  7.8716612e-04
 -6.1869057e-04
  5.1341685e-05
 -7.9226616e-04
 -7.1226910e-04
  2.1141986e-04
 -2.3092116e-05
  1.3532055e-03
  4.8652221e-04
  4.9902045e-04
  3.1133380e-04
  2.6926701e-04
 -2.6279018e-04
  1.2663954e-03
  1.0553579e-03
  5.0825102e-04
  5.3053480e-03
  7.5716752e-04
 -9.8735385e-04
  1.7243463e-03
  1.2157221e-03
  6.3120737e-04
 -2.4045100e-04
 -1.5070473e-03
 -1.8077763e-03
  4.5576616e-04
 -2.1838676e-03
 -1.7661515e-04
 -1.0302712e-03
 -5.7859143e-06
  5.7032093e-04
 -3.4124547e-04
 -5.9246464e-05
 -9.8286732e-04
 -2.1792643e-03
 -2.1325887e-04
 -4.9813497e-03
 -1.4180191e-01
  1.3503200e-01
 -2.1125281e-02
 -8.5679610e-04
  1.6128264e-01
 -5.8543289e-01
  5.1426429e-02
 -4.7490969e-02
  7.0935319e-05
 -1.8895362e-03
  8.0366764e-05
 -6.3581194e-04
  1.3728528e-03
 -4.0040977e-02
  1.2761459e-04
 -2.5408005e-04
  4.5095675e-04
  1.6444589e-03
 -1.7103819e-03
 -1.2777431e-04
 -5.2673411e-01
  7.2232139e-04
 -4.0284326e-04
 -3.1889111e-04
 -5.7069509e-04
 -8.3968770e-03
 -1.6399290e-01
 -1.5240825e-03
 -9.0516217e-02
 -2.0944080e-03
 -3.3892205e-04
  9.6676711e-05
 -1.8845687e-03
  2.5396596e-04
  6.0700811e-05
 -2.9987087e-03
  5.1172485e-04
 -8.1981911e-04
  4.0366687e-04
 -2.0398587e-04
  8.7548229e-05
  2.9146537e-04
  7.4535550e-05
 -4.9616431e-04
 -2.7844333e-04
  8.4909247e-05
 -5.0707062e-04
 -1.4772210e-03
 -4.0467255e-04
  2.7284005e-03
 -8.9716414e-05
 -1.8963150e-03
  3.0577858e-04
  9.7754051e-04
  1.9583270e-04
  2.3629183e-04
  4.7223934e-05
  4.2475906e-04
  1.6456394e-04
  4.3228688e-04
  1.8045833e-04
 -2.6519099e-04
 -2.2385301e-04
 -7.7476288e-04
  8.2851038e-04
  8.5281645e-04
 -1.0775477e-03
  2.5180465e-04
  1.9366840e-04
 -8.4552030e-06
 -9.8689350e-05
  5.2814529e-04
 -5.4398406e-06
  3.8592913e-03
 -1.4824889e-02
  8.2969206e-04
  4.6353243e-04
 -1.3226061e-03
  9.1967487e-04
  7.2853547e-04
 -3.4345299e-04
  1.2647844e-04
  3.7791859e-04
  1.8451907e-04
  6.5533939e-04
 -3.0421445e-03
  1.3475900e-03
 -7.2191167e-04
  8.7857089e-04
 -3.1298536e-03
 -5.8581696e-05
 -4.0433788e-05
 -2.0371763e-04
 -7.0070062e-04
  4.5181913e-03
 -1.7661699e-04
  2.1342780e-04
  5.1316631e-04
 -1.5425673e-04
  2.4619622e-03
  1.8425169e-05
 -1.9749184e-03
 -3.0703895e-04
 -2.4527669e-04
 -1.9228952e-04
 -1.0586460e-03
  8.4727356e-04
 -7.2574068e-05
 -3.3534141e-04
  8.9071714e-04
  2.1010521e-05
 -2.1577392e-04
  6.0724222e-05
  3.5959008e-01
  8.5701339e-04
 -8.9134241e-04
 -4.9734040e-04
 -9.0881257e-04
  3.3920544e-04
 -1.2537239e-03
  2.4317505e-04
 -2.5102581e-04
 -2.8681313e-04
  4.7595211e-04
 -3.4773158e-04
  2.1711111e-04
  4.5006734e-04
 -4.3339736e-04
  1.7787390e-04
 -1.1600397e-04
  3.9749107e-04
  2.4754298e-04
 -8.4791693e-04
  3.0984168e-04
  6.0852873e-04
 -2.9305217e-04
 -1.9287803e-03
 -8.7305711e-04
 -7.0883142e-04
  3.2023573e-04
 -3.5686954e-04
  1.4922810e-04
  2.9419120e-03
 -8.2003919e-04
 -2.1337505e-04
 -1.7575722e-03
 -1.4048324e-04
  9.9582935e-04
  8.4207789e-04
 -3.4988956e-05
  3.9778731e-04
  1.5247490e-03
  6.2561996e-04
  1.7296018e-04
  2.0015723e-04
  2.1503090e-03
 -3.7742121e-04
  1.0674800e-04
 -6.0511194e-04
  3.5591322e-04
 -9.6366629e-03
  2.0737641e-01
 -7.1841106e-02
 -1.8021071e-01
 -2.5633518e-02
  2.7304396e-01
 -8.4655859e-02
 -1.0124189e-01
  6.2631376e-02
  4.6703540e-02
  7.4638007e-04
 -1.2183940e-03
 -4.8817866e-02
 -5.1458781e-03
 -9.2613121e-04
  3.8752422e-02
 -1.0431685e-03
  9.8335429e-04
 -1.7924954e-03
  6.4026504e-03
  1.6727087e-03
 -1.7437829e-05
  5.5244775e-03
  4.4156868e-02
 -5.0655263e-03
  5.3323281e-05
  3.4630415e-01
 -2.7880367e-02
  3.3182482e-04
 -3.7367508e-04
  4.4096829e-03
  2.5602754e-03
  1.6429907e-01
  4.0956256e-05
  3.1681219e-04
  1.8987494e-02
  1.0261294e-03
  4.1651625e-02
 -1.5734542e-03
  1.6552676e-04
  3.1915601e-02
  8.0319516e-02
  2.8429251e-02
 -1.1516642e-01
  1.6008362e-01
 -1.5992507e-03
  5.2318826e-02
  6.6893464e-03
  1.4182948e-02
  7.5900066e-04
  1.7398661e-03
 -1.5294238e-03
 -3.6343842e-04
  8.0744484e-03
 -3.4454957e-04
  9.4873995e-02
  4.9770658e-04
  3.9319706e-01
 -1.7841502e+00
 -8.3450533e-02
  4.9517024e-04
  4.6249415e-04
  3.9215820e-04
 -1.4395581e-01
  4.0444281e-02
  6.1153507e-01
 -4.0260598e-04
 -2.6864531e-03
  9.4393437e-04
  1.7578584e-03
  5.8274788e-01
  2.9933068e-04
 -5.4353653e-03
 -1.1664693e-03
 -2.6814931e-04
 -1.5146488e-01
  9.1118976e-02
 -1.0443257e+00
 -1.0197133e-02
  5.1413744e-04
  9.9645769e-03
 -2.3255563e-04
 -5.7495316e-04
  8.4282900e-04
 -2.1685867e-03
 -2.8474417e-01
 -5.3459741e-02
 -2.9582855e-01
 -6.5431738e-01
  3.3653834e-01
  3.9507677e-03
  5.8083061e-02
 -4.6642002e-02
  4.0215933e-01
  2.7113563e-01
 -6.9001085e-01
  3.0934776e-03
 -3.4886584e-01
 -2.4431553e-01
  1.3693167e-01
 -7.3677427e-01
  2.6250621e-02
 -1.7648615e-01
 -1.7774202e-01
 -5.5681809e-04
  2.8288686e-01
  9.8093671e-01
  8.1300563e-01
 -2.9781428e-01
  3.3157457e-02
 -9.8635130e-02
  1.5474060e-04
 -2.1861961e-02
  2.7046314e-01
  6.7684860e+00
 -5.7856650e-03
 -8.2412874e-04
  3.2103440e-01
  1.7862894e-01
 -8.8858163e-01
  2.5454521e+00
 -7.6552847e-04
 -1.1897048e-03
 -9.3473983e-01
 -5.9431070e-05
  6.0632465e-05
  1.1841819e-03
 -3.0295650e-04
 -2.1808706e-03
  1.4959466e+00
  1.0902197e-03
 -1.1363721e-03
  2.3829150e-03
 -2.0231274e-03
 -6.5778120e-05
 -4.3900758e-01
  8.9459340e-05
 -2.5353310e-04
 -7.2137588e-01
 -1.1528146e-03
  4.6470977e-06
  4.6849612e-02
 -3.7420265e-04
 -1.1157880e-01
  1.0406446e+00
 -1.1301731e-01
  3.3290774e-04
  6.1177218e-01
 -1.0930438e-03
 -4.3101296e-02
 -4.2001367e-01
 -7.3699048e-05
 -1.3997108e-03
  3.2400033e-01
 -1.5276127e-02
 -8.4587878e-01
  1.6113145e+00
  8.2502522e-02
  1.4666776e-04
  6.1890781e-01
 -4.5458665e-01
 -2.1364260e-03
 -5.2152853e-02
  7.6578479e-05
 -3.3479184e-02
  1.3281012e+00
 -1.6952635e-03
  2.3229150e-05
  2.0135088e-02
 -1.8621046e-02
 -1.1577102e-04
  7.1040189e-01
 -9.0313935e-01
  6.1846692e-02
 -2.9957565e-02
  2.2812626e-04
 -2.5912747e-03
 -4.3878138e-01
 -9.8665082e-04
 -2.4106918e-04
  2.2564360e-01
 -1.9132489e-04
 -3.9093664e-01
 -3.1171138e+00
  5.2011084e-02
 -3.4462908e-04
  1.5310943e+00
  1.5335560e-03
 -9.0251927e-04
 -3.4505644e-01
 -7.4735105e-02
 -1.7655190e-02
 -1.7798923e-02
  3.8105386e-04
  4.9049192e-04
  1.0803831e+00
 -2.2310220e-01
  6.1542850e-02
 -2.1011040e+00
  1.2060959e+00
  2.8601021e-04
  1.4150126e+00
  1.3304872e-03
  6.0704684e-01
  1.1308992e+00
  5.8869895e-02
 -1.0223896e-02
 -1.6313965e+00
 -7.7208400e-01
  4.1222188e-01
 -1.1430842e-01
  4.8013561e-04
  3.1607625e-01
  8.2052517e-01
  3.2427858e-03
 -2.0295607e-01
  1.0212265e-01
  7.0688820e-01
  2.1816568e-02
  1.2207103e-01
  9.9770927e-01
 -2.4415295e+00
 -3.9744955e-01
  6.0165121e-04
  3.8225706e-05
  2.6056154e-03
  2.6149873e-04
  1.3301494e-03
 -1.5530685e-01
  8.5090511e-03
 -9.0954964e-05
  1.3122594e-01
 -1.8359801e-02
 -4.1686380e-01
  3.2052675e-01
  4.1519159e-01
 -6.5769636e-05
 -4.4567043e-01
 -4.0499374e-04
 -1.8119293e-03
 -3.0219901e-01
  4.0888101e-01
  2.1730519e-05
 -4.7110092e-02
  3.5831964e-01
 -4.6795961e-03
  7.2950506e-01
  5.7988400e-03
 -5.4167092e-02
 -1.6302143e+00
  5.0246081e-04
  1.7650264e-04
  1.6439475e-01
  1.2877670e-01
 -2.5179399e-02
  1.1332842e+00
  3.8685542e-01
  5.3509170e-01
  1.3515794e-01
 -1.0484830e-01
 -7.7351339e-02
  2.2041121e-02
  1.7201301e-01
  1.9905639e-01
 -2.8234068e-01
 -6.1189552e-05
 -5.5032730e-02
  2.4254797e+00
  5.1535599e-02
 -7.6664710e-01
 -6.9218212e-01
  2.9025564e-01
 -4.4553697e-02
  6.4852470e-01
 -2.5783667e-01
  7.9306500e-04
  1.6823932e+00
 -4.6364090e-04
 -4.0381635e-03
 -9.7655392e-01
  1.4157258e-01
  2.2041972e-01
  4.4794697e-02
  2.9308867e-01
 -1.5724150e-02
 -4.9376151e-01
  1.0134396e-01
 -8.4068722e-01
  1.3737286e+00
 -9.7974963e-02
 -1.7316682e-04
  2.1105348e-01
  1.2246487e+00
 -1.9029270e+00
  2.6780793e-02
  9.5171973e-02
 -6.0664135e-01
  1.1072628e+00
  5.3201693e-01
 -5.5678011e-05
  1.2598279e-01
  7.8370923e-01
  4.6111390e-01
  7.6813352e-01
 -5.1809645e-01
 -3.4475407e-01
  4.5186511e-01
  7.4785846e-01
 -2.0322374e-03
 -7.2084241e-02
  2.1194606e-01
  3.9799222e-01
 -3.5412952e-01
 -1.9477251e-05
 -1.8860219e-04
  4.8456207e-01
  9.3040484e-01
 -6.7246492e-06
 -7.3252881e-01
  1.6353030e+00
  9.9562276e-06
  1.3022519e+00
 -9.1850903e-04
 -1.2398462e-04
 -2.2624861e-04
 -1.9296558e-04
 -2.1589219e-04
  3.6211801e-01
  5.6986712e-02
  1.2044656e+00
 -2.3482940e+00
 -3.9849451e-04
 -5.8867652e-03
  8.6895851e-03
  7.1270597e-01
  2.5069126e-01
 -1.1673271e-01
 -2.6628476e-01
 -9.4540618e-02
  5.8699554e-01
  7.1010418e-02
 -8.4808003e-04
 -7.1706229e-01
 -6.2450296e-01
  1.6998725e-01
  8.4465772e-01
  4.6772566e+00
 -2.5011370e-01
 -6.3853842e-01
 -9.6910000e-05
  4.5042310e-04
 -6.3148546e-01
 -2.0393089e-04
  5.6169605e-01
  3.3342552e+00
  3.3121116e+00
  1.2838663e+00
 -2.2236848e+00
 -5.0794887e-03
 -7.3338807e-02
  5.0553292e-01
  1.1242363e+00
 -2.2321460e-03
  3.6179665e-01
 -7.4515772e-01
  1.7686089e+00
  1.4101005e-01
  2.1170399e-01
 -6.5194078e-02
 -1.1583598e-01
  2.3634109e-01
  5.4622735e-03
 -1.7199577e+00
 -7.4901444e-01
  7.7393412e-04
  6.7509192e-01
  8.8530724e-05
 -1.4463475e-03
 -4.6908778e-01
 -3.1097022e-01
  1.6939062e-01
  1.5763447e+00
  3.3593410e-01
 -9.4071627e-01
 -2.7195926e+00
 -2.6298875e-01
  3.3418562e-03
  1.6273130e+00
 -1.1984512e+00
 -1.4776405e+00
  2.3283350e+00
 -1.0534171e+00
  2.3768833e+00
 -2.2233381e+00
  4.5702362e-01
 -2.2741252e-01
 -3.5894084e-01
 -3.7583920e-01
 -4.3348098e-01
  7.2021849e-02
 -1.1261472e+00
  7.2150433e-01
  1.1472528e+00
  7.3251700e-01
  6.4846343e-01
 -7.0997500e-01
 -4.3282685e-01
 -3.5987481e-01
 -1.6283996e+00
  2.2754800e-01
 -8.9229733e-01
 -3.5578784e-01
  1.0205426e-01
  2.2032432e-01
 -1.0737562e+00
 -5.4573882e-01
  3.7682405e-01
 -1.2692223e+00
  9.1352917e-02
 -4.3034563e-03
 -3.1369567e+00
 -1.6586203e-03
 -9.1624213e-04
 -3.3121838e-03
 -3.9513016e-04
 -1.2292725e-04
 -7.1778840e-01
 -3.7214585e-04
  9.9772590e-01
 -3.1936333e-02
  5.8066794e-03
  7.2207516e-01
  1.7260490e-01
  3.8345526e-03
 -2.5220637e-04
  1.4917639e-01
 -2.9415917e-02
 -1.9430034e-01
 -2.1156883e+00
 -4.4241134e-02
  1.1190103e+00
  1.3095409e-01
 -4.5391652e-01
  3.1505839e-04
  2.7542262e+00
 -7.0863968e-01
  1.0826151e+00
 -5.9795082e-02
  3.6678556e-04
  6.4043583e-05
 -6.7355585e-01
 -5.2271923e-03
  8.3238492e-03
 -6.7489445e-01
  4.2309776e-02
  1.0241389e+00
  6.1257344e-01
  3.1123218e-01
  3.0101475e-01
  4.4265956e-01
 -4.0736607e-01
 -6.5511733e-04
 -8.7952060e-01
 -4.0892503e-04
  2.0778642e+00
 -3.0652979e-02
 -3.1868636e-03
  2.4082945e-01
  5.1819134e-01
 -6.8821222e-01
  4.4551503e-02
 -5.7204926e-01
  4.9276564e-01
 -5.6342262e-01
 -1.5244573e-01
  1.1089358e-01
  2.6403460e-01
 -1.3588314e-01
 -1.0140315e-01
 -3.0848641e-02
  2.7171120e-01
  9.8058796e-01
 -9.2036709e-02
  5.7256955e-01
  6.8147271e-04
  1.2886927e-01
 -1.2409185e+00
  7.0315844e-04
  3.0455645e-04
 -4.4038543e-01
  7.2703928e-01
 -6.4545847e-02
  4.5979729e-01
  4.8173860e-01
  1.0584174e+00
 -1.4689330e-04
 -7.7895933e-01
 -2.0641509e-01
  2.9749882e-01
 -4.9790603e-01
 -9.0956941e-02
 -4.1047163e-02
 -4.1557455e-01
  3.8312581e-01
 -7.0022523e-01
 -5.7297215e-02
  1.6356131e-01
  1.0470517e+00
 -2.4099478e-01
  7.2402589e-02
  1.5942290e+00
  2.4108545e-04
 -2.5927460e-02
 -6.0379826e-02
 -3.3297992e-01
 -2.5722161e-02
 -2.0041893e+00
 -3.6798325e-01
 -3.3233526e-01
  5.1852874e-02
  3.2774228e-04
  6.2006654e-04
  7.3939661e-04
 -4.7689432e-04
  3.6878840e-04
 -8.9612760e-02
 -1.1607496e-03
  1.8931358e-04
  3.3504650e-04
 -7.5107603e-04
 -2.8625003e-04
 -2.1232860e-01
 -1.0451443e-01
 -2.1199270e-03
  3.4637772e-03
  9.8117033e-04
 -5.3427100e-02
 -6.7234296e-01
  4.0163574e-04
 -9.1332145e-02
 -3.1041804e-01
 -1.4005164e+00
 -7.3384796e-03
  2.2852282e-01
  6.1264172e-02
 -9.7659528e-02
  1.7827506e+00
  2.6888758e-04
 -9.7449718e-04
  1.5731752e-02
  9.4484189e-05
  6.4758642e-04
  1.1595178e-01
  8.2648799e-02
  9.4041505e-05
  2.3188783e-01
  6.5565924e-04
 -2.9285601e-03
 -2.3815164e-01
 -9.3921542e-01
 -8.1651825e-03
  2.4565160e-02
  8.6344011e-02
 -1.9317237e-01
 -5.4257596e-04
 -5.2418443e-04
 -9.7392866e-04
 -1.6200031e-01
 -1.2600619e-01
  1.2587449e-04
 -3.3084717e-01
 -3.9841469e-02
 -7.0631570e-05
  1.1131865e+00
 -2.7874865e-02
  7.8010729e-05
  6.7916620e-01
 -4.6642116e-01
 -2.1947326e-01
  7.2651947e-01
  6.3607477e-02
 -7.8313774e-04
  2.2267556e-02
  9.3606155e-04
 -5.5199664e-04
 -3.2579610e-01
 -7.3157921e-02
 -4.1700745e-04
  1.7308805e+00
  3.1289670e-01
 -7.3333241e-02
  2.2254410e-01
 -1.0706642e-01
  3.4337558e-03
  1.1836426e-01
 -1.8324906e-01
  1.4558956e-03
  1.6862673e-03
  4.1315791e-01
 -1.1638626e-01
 -1.2139882e-02
  1.0164942e-01
 -1.8784654e-01
 -6.4302020e-02
 -4.2031494e-01
 -1.0486937e-02
  5.4569614e-01
  7.4080974e-01
 -1.3189451e-03
  1.2062072e+00
 -9.7027456e-04
  6.0430449e-04
  1.5078978e-01
 -1.8596277e-02
 -7.6574221e-02
  7.9644752e-01
  8.1952721e-01
 -2.2489417e-02
 -7.9050183e-01
  1.2798671e-03
 -9.9767302e-04
 -1.0366958e-03
  2.0648022e-03
 -2.6086593e-04
  9.8996878e-01
 -1.0299475e-03
 -4.0878798e-04
 -3.1209333e-04
 -5.4047458e-05
  2.3773097e-04
  1.9152147e-03
  9.5829375e-05
 -4.3958455e-02
  9.1828483e-01
 -3.4131285e-02
  2.7001375e-01
 -6.4262336e-01
  1.8510479e-04
  1.8662498e-03
  4.0255645e-01
  1.4742804e+00
 -4.9472839e-04
  1.4671442e-01
  1.2629777e+00
  2.3956288e-02
  1.1561260e+00
  7.6835648e-05
 -2.5811855e-04
 -4.4609727e-03
  6.6966992e-03
  2.1023817e-01
 -3.7856066e-01
 -1.5204250e-02
 -1.4036515e-02
 -1.4034334e+00
  6.8896654e-05
  7.8676903e-04
  2.3571882e-04
  8.5137557e-04
 -1.0768838e-03
 -1.5817299e-01
 -2.8615755e-01
  5.2841091e-01
  3.5470363e-01
  3.4182612e-04
 -2.0301689e-01
  8.0543238e-01
  1.1451852e+00
 -1.5521696e-01
  2.1894505e+00
  2.0368584e-01
  1.6747533e+00
 -1.4559390e-01
  7.0244708e-04
 -4.0669876e-04
 -2.0877127e-01
  2.4267778e-01
 -3.9379750e-03
  4.1936484e-01
 -4.7551149e-01
 -5.1634102e-05
 -6.4038473e-01
 -2.2120827e-03
  2.1836772e-03
  6.2662727e-01
  5.0192047e-03
  1.8981765e-01
 -1.0370698e-02
 -7.6369429e-01
  3.4857098e-02
 -2.0923071e-01
  2.1745872e-03
 -4.7102647e-05
  9.7765863e-02
  3.2725561e-01
 -1.1611920e-04
  2.4023563e-01
 -4.5803478e-01
  1.1478453e+00
  2.4645422e-01
 -1.6304395e-04
  5.2580312e-03
 -9.0617535e-04
  4.3038291e-01
  7.0122689e-01
  1.4410661e+00
 -4.0752733e-01
 -8.4230825e-02
  2.7225527e-01
 -1.7132796e-01
 -1.1681573e-03
  7.2166133e-01
 -2.0523512e-01
 -9.9815488e-02
 -9.8567551e-01
 -3.3478507e-01
  4.3897638e-01
 -2.5919650e+00
  2.2316561e-04
  1.2413596e-04
 -9.8357454e-04
 -1.1191407e-03
 -6.8808913e-02
 -9.6964848e-01
  5.0831685e-04
  2.4860552e-02
 -3.0781442e-01
  5.8445265e-04
 -3.5312894e-04
 -4.3415481e-01
  1.6505925e-02
 -1.6821898e-03
  9.3467689e-01
 -1.3498236e-01
 -8.6749307e-05
 -3.6686081e-01
 -8.4219456e-02
 -2.4385282e-04
 -1.7703582e-04
  3.5760488e-02
  1.8454336e-01
 -1.2012931e+00
  2.3568797e+00
 -3.9728910e-02
  8.0065638e-01
 -9.3164644e-04
 -2.8782440e-04
  2.7711478e-01
 -1.7951161e-02
 -2.5629908e-02
  7.6836652e-01
 -6.3198411e-01
  7.7955711e-01
 -1.7268391e-02
  3.8198833e-04
 -1.9333175e-01
 -3.6773804e-01
  2.0557124e-02
 -3.7007451e-03
 -6.3977283e-01
 -1.4443649e-01
  1.2860181e+00
 -1.2191720e+00
 -2.4919443e-01
  5.7400309e-04
  3.4765878e-01
  4.7154311e-02
  2.3033109e-04
  1.5316739e+00
 -3.5953691e-04
 -2.5314558e-03
 -3.1860933e+00
 -1.4502320e-02
 -8.0540525e-03
  2.0784546e-01
 -1.2210087e-01
  5.0290623e-03
 -2.5844154e-01
  1.1112849e-01
  8.8839465e-01
  1.2959813e+00
  5.9073763e-03
 -2.2319367e-02
  2.6069751e+00
 -6.4204016e-04
 -6.0235197e-04
 -1.2172409e-01
  1.6933025e-01
  1.4504929e+00
  1.4259667e+00
 -3.0792204e-01
  1.7630771e-02
 -4.8135370e-03
  2.9342009e-05
  6.5851584e-04
  1.1794089e-01
 -5.1099157e-01
  1.0847859e+00
 -2.1276240e+00
 -4.6126250e-02
 -8.1422422e-03
  5.7194209e-01
 -2.1086766e-01
  1.9773301e-01
 -3.1246826e-01
 -2.8616431e+00
  2.6629522e-01
  6.7897397e-01
  1.1835862e-02
  7.1570318e-04
 -7.6052791e-01
  4.5093867e-01
 -1.6158979e-02
  1.7122144e+00
 -3.1334561e-01
  1.0421100e-01
 -2.0459118e+00
  2.7672024e-04
 -1.4333000e-03
  1.0869291e-03
 -9.7828154e-03
 -2.9179304e-05
 -1.2245220e+00
 -7.5510442e-01
 -3.7493126e-04
  4.5538580e-04
 -2.4879616e-04
 -2.4420391e-05
 -1.2071687e-05
  1.2601751e-03
  1.2247945e-02
 -5.0356716e-01
  2.5458841e-04
 -2.6579035e-02
 -4.6680861e+00
 -6.7652739e-03
  1.1249300e-03
 -3.8249928e-01
 -7.2792195e-02
  3.2032107e-04
  1.6087878e-01
  1.9626550e-02
 -5.7209545e-01
  1.3213992e+00
 -1.5426022e-03
  4.0191339e-04
  1.6387700e-03
 -4.0281061e-02
  2.7694574e-01
  7.3730630e-01
 -2.5535410e-06
  2.6235545e-01
  6.6729105e-01
  3.3499408e-04
 -4.1242153e-04
 -5.1961310e-02
  3.9926963e-04
 -2.8119862e-02
  1.9199375e+00
  3.4088888e-03
  8.5052326e-02
 -1.7198488e+00
  4.4989778e-04
 -1.8967868e-01
 -1.6318011e+00
 -6.1889094e-01
 -1.1030870e-04
 -5.4212236e-01
 -3.6229593e-01
 -2.5434163e-01
  7.0244026e-01
  9.9736761e-05
  8.3664595e-04
 -6.4340621e-01
 -2.9482630e-01
 -2.2270439e-02
 -1.5658513e+00
  1.7520681e-01
  2.6445028e-01
 -2.5006577e-01
  3.0653729e-04
 -3.9470990e-04
 -4.0556490e-01
  3.4831878e-02
  2.6556373e-01
  3.1138043e+00
  1.6689517e-01
 -4.1513327e-01
 -6.2614942e-01
  6.9926871e-05
  5.3051203e-03
 -7.1664280e-01
 -2.3452353e-01
 -3.3070305e-01
  7.8517085e-01
 -3.0824250e-01
 -9.9399619e-02
 -4.9040408e-04
 -3.9130363e-01
  5.5263325e-04
  5.0264668e-01
 -5.6009275e-01
  4.5571300e-01
  1.8536875e-01
  5.7078075e-01
 -1.8554464e-01
 -2.7369177e-01
  1.0864463e-04
  7.2279739e-01
 -3.8175455e-01
  4.0402102e-01
  1.7440439e-03
 -6.3446760e-01
  7.7483363e-02
 -2.5148116e-04
 -3.2020586e+00
  6.4821815e-04
  7.1799319e-04
 -3.6192848e-04
  3.3243559e-03
  1.3774593e-03
  1.4229749e-01
  1.5576936e-03
  9.7868941e-04
 -1.8423665e-04
  8.7261677e-02
 -5.9414341e-04
 -5.3564261e-04
  3.0559671e-01
  6.6887931e-04
  6.9824374e-01
  1.3561442e-04
  8.0302809e-05
 -1.3098809e-01
 -2.7434333e-04
 -3.9090798e-04
 -6.1365962e-04
  5.3318125e-01
  4.7471870e-02
  3.5330433e-01
  9.1513729e-01
  6.1947051e-02
 -7.5768054e-01
  7.2015217e-04
 -1.4194859e-03
 -5.1782362e-04
  1.6062759e-04
  6.2454820e-01
  1.0749273e+00
  2.5483210e-02
 -1.4603547e-03
 -6.8698883e-01
  8.3058060e-04
  3.4984392e-03
 -2.2963308e-01
  6.1161947e-01
  3.3842702e-03
  3.6601695e-01
 -1.1848501e-03
  4.2905670e-04
  4.7982928e-01
 -1.1105848e-02
  7.9471897e-04
  4.7859405e-03
  8.8881344e-02
 -1.6992954e-03
 -1.8953996e-04
  2.4562022e-02
  6.8890408e-02
  4.1568941e-01
  3.9447221e-04
  1.3665853e-03
  4.2531437e-01
  3.9936581e-01
  4.6382652e-04
  1.3587354e-01
 -1.5655722e-04
  2.8308088e-04
  1.1521801e-01
 -1.6143410e-03
 -1.9623863e-03
 -1.5751047e-02
  2.1017158e-04
  2.2296683e-01
  3.7333512e-01
  2.9960072e-02
 -1.3234458e+00
  1.6827901e-03
  1.3021656e-04
  2.3915556e-03
 -4.0169394e-01
  1.4680359e-01
  6.4529548e-04
 -1.9058466e-01
  7.4660307e-01
 -1.3080877e-04
 -6.7918909e-01
 -2.3965668e-02
  3.3956003e-01
  1.3441531e-01
  6.0891028e-04
  7.0373520e-02
 -8.1461698e-01
 -1.9793750e-01
  5.3799951e-01
 -3.0474192e-01
 -2.5072649e-01
  2.1038522e-01
  1.1242009e+00
  1.7683493e-02
  4.6509251e-01
 -1.8510242e+00
  1.8859175e+00
 -2.3453219e+00
  7.2749257e-01
  1.2522128e-04
  4.2968630e-04
  1.5210587e-03
  1.9656298e-04
 -1.0045891e-01
  4.4468805e-02
 -8.3477481e-04
 -1.4297651e+00
 -6.0321748e-02
  1.2069233e-03
 -6.7676961e-02
  5.4907834e-04
  8.9990973e-01
  2.7738264e-01
  9.8317790e-01
  3.2638058e-02
  4.6746707e-01
  7.0126578e-02
 -4.1392988e-01
  1.3030678e-03
  6.4424211e-01
  1.8847002e-01
  1.6634705e+00
  1.6812713e-01
 -2.1174798e+00
 -3.2240956e+00
 -9.4343692e-01
  7.9595149e-02
  5.0748377e-03
 -1.3737153e-05
  2.5136333e-03
 -4.0305117e-03
  7.0858485e-01
  1.2266163e-03
 -1.3730866e+00
 -9.5074856e-01
 -5.7602727e-01
 -6.1477342e-04
  4.8405522e-01
 -6.2770313e-01
  2.7504811e+00
  1.1559170e+00
  8.5223442e-01
 -1.4854633e+00
  1.0528821e+00
  2.7077264e-04
 -8.0172578e-04
  4.1989571e-01
  1.6200662e-01
  1.0489711e+00
 -7.2800893e-01
  2.6065505e+00
  1.8034303e+00
 -7.3216534e-01
  1.3117546e-03
  2.7089077e-03
  1.9524558e-01
  5.8052246e-04
 -4.9713183e-02
 -1.2550870e+00
  2.5010633e-01
  1.6832900e+00
 -7.2673327e-01
 -6.1525345e-01
 -7.4978001e-02
  2.0722409e-01
 -2.1299897e-03
  3.7194785e-01
 -2.2899678e-01
  1.5596907e-01
  1.1938277e+00
 -1.0580537e+00
  1.4782268e-01
  5.7637465e-01
  2.2190803e-01
  2.2223285e-01
 -9.2219216e-01
  8.4151947e-01
  2.4759500e-01
 -1.5435459e-01
  7.8054197e-04
 -4.8189476e-01
 -6.1234247e-02
  3.2600674e-01
  5.8292258e-01
  1.6249409e+00
 -9.9402338e-02
  7.1224511e-01
  7.4216068e-01
 -1.1774331e+00
 -3.5291794e-04
  4.8495982e-05
  1.1155925e-03
 -1.1785465e-03
 -1.1983430e+00
 -1.8608677e+00
  7.3080802e-01
 -7.8293703e-02
  2.7637014e-01
  9.2962955e-04
  6.9257228e-05
  1.4670884e-04
  1.5238028e-03
 -5.4521218e-02
 -1.1344415e+00
  4.7871647e-05
  1.7776709e-02
  3.6858749e-01
  5.6482456e-04
 -5.7983224e-04
  7.3614967e-04
 -5.8142012e-01
 -2.1618320e-01
  2.3528714e+00
 -9.1476733e-04
 -2.4832833e+00
 -7.0104462e-01
 -6.0724665e-04
 -9.1233122e-04
  1.7623039e-04
  4.7315544e-01
 -6.0556877e-01
 -2.4809744e+00
 -8.1419122e-01
 -1.4732065e+00
  1.8179946e-01
  4.6272660e-04
 -5.4783202e-05
  7.6381007e-04
 -6.5105772e-01
 -3.2344347e-01
 -1.8268781e+00
 -1.5696211e-03
 -1.9885945e-01
  3.6637473e-01
  6.1556068e-04
  1.1885619e-04
  6.0098901e-02
 -8.6808646e-01
 -1.0523986e+00
  1.3958001e+00
 -3.9874698e-04
 -8.8871205e-01
 -1.3420284e+00
  3.1577394e-05
 -1.2445284e-04
  3.8504275e-04
  8.7841245e-04
  1.7924258e+00
  8.5739690e-01
  1.2471176e+00
 -1.0890516e+00
  1.2426843e-01
  2.5514464e-04
 -1.5269483e-04
 -1.0809447e-03
 -6.4380193e-01
 -1.3973536e+00
  1.2306038e+00
 -6.8791457e-02
 -1.3902129e+00
  8.8629317e-01
  9.2966761e-04
  3.7902256e-04
  1.2094474e-03
  7.2576709e-02
 -1.7629763e+00
 -2.0759863e-01
 -1.5339980e+00
  8.1826532e-01
  2.6880977e-01
 -3.5282256e-04
  2.0938578e-04
 -4.5628412e-04
 -9.1440745e-02
 -1.2966586e+00
  3.2164767e-01
 -2.3919783e-04
 -1.7451828e+00
  2.4767985e+00
  1.7488255e-04
  1.3079035e-01
 -3.2281462e-04
  2.1290932e-02
 -1.2557050e+00
  8.8671744e-01
 -2.8240401e-02
  1.5799298e+00
  9.9671215e-01
  6.0681894e-04
  2.0659827e-04
  1.0319045e-03
 -8.8295296e-02
 -1.6656794e-01
  3.4102824e-01
  2.1309917e+00
  9.7506768e-01
 -6.8864608e-01
  4.6597834e-04
  2.5589863e-04
  2.4453097e-05
  5.4512318e-05
 -1.0991751e-03
  1.0095298e+00
  5.0951290e-04
 -5.6392251e-04
 -1.8582616e-02
 -4.2935339e-04
  9.8157194e-05
 -1.2104710e-03
 -5.2540988e-01
  1.9504770e-04
  1.2522407e-01
  6.5070885e-01
  3.6573735e-01
 -4.1069096e-01
  1.9993432e-04
 -3.3139531e-04
  7.4171770e-04
 -3.2945704e-01
 -1.7497028e+00
 -1.5381943e+00
  7.8707434e-02
  6.4048362e-01
  1.2879746e+00
 -1.6016996e-04
  1.0691656e-05
 -1.4709338e-03
 -1.4305732e-01
  4.5921248e-01
  9.5624006e-01
  2.3530755e-04
  2.2806796e-01
 -1.2828308e-02
  7.2335434e-04
  1.4735361e-04
 -5.0410243e-05
  7.3732752e-01
  5.3385761e-02
  1.0016927e+00
  1.3772573e+00
 -3.6024424e-01
 -7.1894666e-03
  6.1545568e-04
 -6.4201908e-05
  6.4337684e-04
 -2.0258238e-03
  9.8323569e-02
 -1.7749060e+00
 -5.4197103e-01
 -1.8738025e+00
 -1.5141726e-01
  1.6341605e-03
 -6.6117418e-04
  2.7146740e-04
 -5.9117204e-01
 -4.2540994e-02
  2.6961706e+00
 -4.5684749e-01
  2.6432687e-01
  1.7486784e-01
  3.2343648e-04
 -1.0956994e-03
  9.1314563e-05
 -7.9586065e-01
 -2.6037591e-04
  1.3542334e+00
  2.1986213e-01
  2.0167150e-01
  4.1287079e-01
  9.7223790e-05
  1.8446278e-03
 -4.2194396e-04
 -1.3491522e+00
 -5.5935198e-01
 -3.8972875e-01
  2.2201967e+00
 -2.2583075e-01
 -3.9015219e-01
  6.5116372e-05
  1.0469763e-03
  2.5172601e-04
 -8.3991301e-01
 -6.7115182e-01
 -9.2618242e-02
  8.1849051e-01
 -1.4768852e+00
 -3.4785581e-01
  4.4505316e-01
  3.0267492e-01
 -3.7779489e-01
 -3.3854932e-01
  9.4536930e-01
  1.6536686e-01
  5.7416511e-01
  6.2939382e-01
  5.9091873e-02
 -5.3915754e-04
  1.1364555e-03
 -2.1738518e-04
 -1.2566685e-03
  2.4490955e-01
 -6.8755901e-01
